0.05836226683799956
0.037353770214069194
0.027304498011305748
0.036257007319313
0.002644904126608685
0.03053448077367563
-0.004863721152038616
0.008482206194004714
0.017387537116438097
-0.02842692520904405
0.035617732019006726
-0.018261623693716107
-0.006854131595259598
2.6589877922820104E-4
-0.03319718297510707
0.021327978407677778
0.0452895089506541
0.017594591559691983
0.02426686640245032
0.05021717367392936
0.024780493510973157
-0.024029864295912917
-0.030507313099438934
0.021877250549965317
-0.027046967663559594
0.06271969376798311
0.011507383194117874
0.05374699655153794
0.030067978044692013
0.03718434157376705
0.06569857586837725
0.025785446254981328
8.680110360802663E-4
0.014338560043503482
-0.0035423472790677858
-0.02403371927745422
-0.028730358557284067
0.03760405448969107
-0.045472883710266906
0.031970881717138716
0.020660298526683038
0.02307808212489035
-0.03443628698871761
-0.015229095812756376
-0.03538190410846634
-0.04206399798024153
0.033636171782328854
7.149565912964557E-4
0.04394961587333503
0.044243572852855476
0.010892288083103503
-0.021647620005059633
-0.007803090130551414
0.03800806882855014
-0.02323508505396104
-0.006418527028734115
0.01551298326736196
0.007319403494274644
-0.03222108537181198
-0.04749477238091875
0.02752957854913167
-0.007530559865036805
0.021812590458841482
-0.03559502913156917
0.004671941928436139
-0.005225595410100657
-0.024330701032747554
-0.018241468103240212
0.037607133074442356
-0.014405734066217283
0.06020793879492325
-0.006256094290827912
0.020392673367130205
0.02835166639865596
-0.03478766145008933
0.013159815748407348
-0.04895754379893537
0.052285040836905446
0.032830707384043235
-0.012883460244986713
0.04846315009979163
0.04149408057048665
0.035746916812173624
-0.003254919002916319
0.04056952365449388
0.04480177447891003
0.020494448699326588
0.04885114889174304
0.04838292995080509
0.0217315506603492
-0.0066634391271563065
0.04623555791225477
0.030226669752929723
0.001741496147264715
0.05081488879916582
-0.02080238062572194
-0.04128136245538792
0.015511650410890341
0.03186106835995818
0.05957138268093026
0.03420488392231988
-0.0338519023792775
0.02755698830375228
3.5103045202635705E-4
0.027832197500497362
-0.015828936242902863
-0.021682496024696008
0.025480033537364336
0.0072887543702903
-0.03729159485688952
0.06161055804480538
0.05039431864787029
0.029953814157983708
-0.012975370631027798
-0.007547156765503699
0.01089892194943703
-0.007874040027520481
0.014858152668651588
0.04974028885835922
-0.025512241484775332
0.04606678529679715
-0.050792725096352714
-0.03791514407024672
-0.03236403236455524
0.024730824725806434
-0.023666402116474236
0.04669505039163576
0.03769011014695414
4.6726376138025663E-4
-0.02409755996850362
0.040443774405294494
0.045751742335814596
0.04942659475304947
-0.004707036041669373
-0.026406141125543885
-0.017429879185176366
0.016104675937758564
0.04467487782793281
-0.007933480134673185
-0.005288675394306782
0.0021658186444046858
-0.04904980319706534
0.044771936237103495
-0.029872310111403972
-0.019457030400185725
-0.04026964830122709
-0.03869170449163762
-0.021503022291857715
-0.02407843515825114
-0.03185510339164715
-2.8244802602323405E-4
3.7270226645713396E-4
0.04573536563756759
0.009518674230811113
-0.039016861287599645
0.0017274144966097959
0.004361344048823534
-0.0221101570048481
-0.01367621911325249
0.0343999210534276
-0.02200212453480864
-0.007675351772597185
-0.0342439230072244
-0.031819096031388744
0.035472594383903155
0.008974995086498844
0.006565117951330154
-0.010518980641346916
0.0350086886388749
0.02145773804958175
0.0076553330441257545
0.013514145466946636
0.01870246132300062
-0.010316217772943339
0.047878135219271756
0.04623512698307867
0.04785741465818793
0.028179003348788843
-0.014617213295592568
0.007682525249299069
-0.012774880063293238
-0.03287177908414012
0.025984220768417002
0.006755727287988287
0.006594171022499305
0.028681388659509484
0.022218185481002174
0.049634259935961836
-0.025101448862482733
-0.03828623965984456
-0.02858372514093572
-8.199432900882523E-4
0.009441817205435098
-4.204349512563798E-4
-0.020091971224194597
6.198040551100364E-4
0.0024803566019831217
-0.022579844036418075
-0.0019268428602410256
0.020374720209307157
0.009151761599013406
0.022743869155154767
0.03285760804567583
0.017024896347275824
-0.010268275323710944
-0.019237483472468776
0.03934117217185923
0.019768999789400804
-0.011592108230123225
0.01369667831513657
0.04146967463415675
0.0034025810730207904
-0.0015566581471492167
-0.04186210859369376
-0.012677526003876241
-0.004630537314487669
-0.010977795087439086
0.03733930081480089
-0.016035648693280048
-0.037557753376801895
0.047076541660686755
-0.02664086008776115
-0.02705447349229716
-0.011169030061402428
0.018343815623853163
-0.01786224082556482
0.013252502057419463
-0.03973534362160882
-0.039083460733468925
-0.019394341927668927
0.04244920313080606
-0.012165622786046685
0.014597426286938503
0.012920844121867055
0.021291783498892252
-0.027845479645172595
-0.015087289766141184
0.02421069924781758
-0.014669587606367853
0.01741615223750914
0.005886452311861693
-0.006284584429665333
-0.042359825133682784
-0.034367779826831125
0.019661818984027052
0.019375553800462363
-0.03124518014162365
0.018991149079291978
0.03731701924279614
-0.038125268152274835
-0.018089794004299175
-0.011775552146285876
0.024547040519582727
-0.0035945329921559786
0.016022105129650594
-0.025150074909209466
0.04490959652089689
-0.020508604780034082
0.01445245491662514
0.015800902000765327
-0.033129348860711595
-0.03697766995357398
0.05104609787234187
0.04522229799222197
-0.02628400125253068
0.04849213426742756
0.04383976196804817
-0.026583751639540864
0.05010617502226525
0.002650407146984862
-3.028878142825244E-4
0.025079862071019116
-0.025534836771464925
-0.03651825242663116
0.046887317496850635
-0.01975430222510187
-0.018366483631600997
-0.016317794591993118
-0.030604540883685007
0.037121603602291636
0.025489263842766695
0.04208138142277272
-0.043919022213112405
-0.026094939328481583
-0.037938706397686046
0.006397271347517959
0.03142369088325595
0.041752356593809055
0.03683788951516355
0.02993470532007439
-0.020934908496786715
0.04328151411487892
-0.01771393569023973
-0.041163221144135904
-0.02753317246685817
-0.027560183875165706
0.00312026233913583
-0.013335758759667669
0.007713161672921375
0.03822527582552466
-0.0017187734048803738
0.029335117631808374
0.004821216843124638
0.027925298887216184
-0.004209483392413101
-0.04382741390008802
0.02308477155474107
0.014099040107937225
0.017762172716964487
-0.05165421638215509
-0.02968174423330994
-0.008737698638585409
-0.015802049739814056
-0.004745691089717474
0.021760859589319167
0.0026610034259829294
0.007050568345870407
-9.137310831373236E-4
-0.01659589375431305
0.004006296455288067
0.012922335790833883
-0.006567382564262381
-0.029041897144463
-0.05132301979406355
-0.006552779564599773
0.027942812893486282
0.010025603271861952
-0.009254143115389872
0.020517322507186218
0.03930490126596552
0.0020445531505975294
0.04771624940298462
-0.04972887817055371
-0.04776006005965628
-0.03380527906830712
-0.04714876818877648
0.04144363158231025
-0.02878017932810744
0.02081944480228213
-0.035783770119564656
-0.03806165617798206
0.037172134645607646
0.0377937988003543
-0.02811795201319212
-0.02173706193663588
-0.04575406178048073
-0.02759894930603365
-0.010572580946972592
0.02975000944767233
-0.04089088987561086
-0.010860045546356532
-0.011213842679988014
-0.02206642974418947
-0.04691084382847484
0.03464717054627876
-0.04519488562316729
-0.02865299614410133
-0.018629014048849372
-0.05206376719362893
-0.0517526474695404
0.0210708544608414
-0.005432725028243719
0.024874091619917015
-0.02801035950535515
0.03821992868174727
0.019106943937252364
-0.00891112206225041
-0.01952457862738427
0.04081568483634912
0.02952367595821134
-0.05797126192220373
0.012890648276806005
-0.03704997668713873
0.02415836795670378
-0.009595304125783015
-0.01736000408480951
-0.04804513909905159
-0.061124326883648675
0.03768179091446686
0.022225292050381186
0.024045054915158594
-0.006755306880047656
0.01566245846650874
-0.006723531152787114
0.0319628424674663
-0.0534152780269391
-0.00995110233684855
-0.028402788368132884
-0.004014991601203634
-0.04192966974020507
0.014468576515588926
-0.04431320437291334
0.033697214982017734
0.005098735683306664
0.026419061906215895
-0.00586519034344771
0.011200640275420318
0.0342099919776036
-0.00459958591444134
-0.03622640488955775
-0.052163097500285784
0.006774204605061554
-0.04353620614494383
0.020834721111706634
0.002945620677716548
0.010820357032743831
0.043710454750393604
-0.002999010672698853
-0.03037505451981885
0.00843766644388769
-0.05632423313063097
-0.020201398736227075
-0.04135351079516057
-0.04161862405301771
-0.005234551545298505
-0.023690540318500198
0.014087420854334844
-0.04964510292902981
-0.03952584947714982
0.026521215355894353
0.04111012349477889
0.008824211064695045
0.007111601196137894
0.032026525759346655
-0.05534957604587461
-9.849367194861686E-4
0.04424845759249028
-0.035962078769697245
-0.04600716326285963
-0.05254950200069587
-0.029899677053857945
-0.026522019122936086
0.012177085790484703
0.026287812101827474
0.03353636437237498
0.010019514665270714
-0.038307143708494425
-0.01768955034824562
0.04019022861324618
-0.03707349679735132
0.030624647903742818
0.03822815739840095
-0.004709579118702057
-0.03818823661352249
0.0355745165595865
-0.0015162370028016076
0.006700900375550673
0.025402250292229443
-0.03913501344403531
0.035472598095491734
-0.0454195753298836
-0.021991172023788617
0.02283572110135228
-0.005718215703291577
0.04058164290604708
-0.052207289177209695
-0.002610953574418872
0.006219480003355321
-0.022767562398282558
-0.02389083926680854
0.008776297579532735
0.006875313111360205
0.03327508401948669
-0.02969477433182747
0.016126803426077932
0.03978057193067458
-0.04683889966943631
-0.03850451743938324
0.029482584226057103
-0.05395707072917847
-0.02755496949206031
0.044115503282854455
0.03672291204815694
-0.028621408334532313
-0.021798930775882054
-0.013142588174193089
-0.010045406021836454
-0.020678201954093884
0.0325692325631612
-0.0100726088901414
-0.044531537185781345
0.013150342127030923
-0.02958036668310526
0.01396558319306215
0.008655564911385055
-0.018925071265315042
-0.03637520319440344
-0.011673853648714351
-0.02087163280640575
0.03858947085938412
-0.01970452069911249
0.027225881720280117
-0.044969208747653686
-0.010603006027188435
0.018108665905943285
0.04583164447493676
-0.045744345044033956
0.011314417214650024
-0.01572431420716255
0.03250349266429148
0.01103002512763204
-0.006647363150942776
-0.04862513760093839
-0.013954036170720184
-0.010334821444007734
0.011099448260360788
0.0480368997225469
0.03836084707905405
0.008417498030561172
-0.007113299034961631
0.01065502973274031
-0.04850548468068511
0.0014052797614574593
0.04783932642940816
0.03809728859258014
0.0248145288062229
0.03233498542006926
-0.036934060725189115
0.044457075664592005
-0.043279077241927456
-0.02014973714720531
-0.026020289742951983
-0.01167755673009474
0.0027155763498476404
0.03411255714396251
-0.028257512478320174
-0.0017483367560254042
-0.01887066934192905
-0.027774943889935132
-0.03409901583970418
0.004818249336583545
0.01397757319820728
0.047449431120244
-0.03554096820904441
0.030707294871741474
-0.02673179814756671
-0.045175809978953874
0.0037184303799785165
-0.00481823396304422
-0.024260366434171638
-0.010721104318832305
0.014626034035397148
0.02720324659198813
0.01353821586961355
-0.01360162180257091
-0.04645992172775297
0.038841252296303495
0.034886727253758895
-0.03887725068873775
-0.036892082993724123
0.045165648193653964
0.041056799245619974
0.01394932919534033
-0.011031436880957727
0.026637517927926662
0.02936573421165197
0.025802446991414575
-0.05084003888296572
0.040561430190990594
-0.04322482028030969
0.047401195204389214
-0.016559133848243878
-0.01897200309220303
0.015319916577715474
0.0023835466013420784
-0.018783014911610746
-0.016815982713664714
-0.023211908367376754
0.024955900108233262
9.70214310758644E-5
-0.030034190756500753
-0.00638144510873747
-0.0012853254720236436
-0.03897301892593603
0.00246809174417368
0.026130554625165225
-0.03642858922646211
-0.040283875997093495
0.00362882943852342
0.017098479345696412
-0.02603222477404951
-0.03609724315270105
-0.034068315300787966
-0.02020773418623921
0.024726560653833694
0.01269415851077827
0.034036415959397374
0.0048482457402628755
0.02446396380023915
0.030911333405033742
-0.015691963287278808
-0.016553137982633758
-0.043182455531760235
-0.006171457074087168
-0.006986282202033516
-0.02731169675870263
0.030340343378496407
0.0433599624329802
-0.04553164520129851
0.019605360158553402
0.013367346945728465
-0.020892214494788966
-0.02017279904908303
-0.04740049055549549
-0.04486989652226903
-0.024386008336120302
0.046326933792255554
-0.009278901977475816
0.03360990045136789
0.022233578563376155
0.054332476073152294
-0.01689028626793503
0.037745123236557855
0.0361151418534044
0.028454359190580404
0.053983557152647015
-0.039831252297794245
-0.03522839347747897
-0.006380101859307529
-0.046029009415554135
0.045166322052181865
0.0071330409159391095
0.0028871932331825346
0.039208884845852665
-0.01998736193086185
0.004163896070625996
-0.02353863271033482
0.047087225506110705
0.0042661234281848774
0.002517256698519835
-0.01650020377769273
0.0011797009516796245
0.04756389597518537
-0.032085586028941175
-0.030220780905175985
-0.013945572089941129
-0.03627322190011172
0.020295787377850653
0.0010437588978629852
0.052881392313343364
-0.017403365473554217
-0.024591985261306685
0.04671867863407796
-0.04222406267787963
-0.04415716660717848
0.01649643887994776
0.003924916746445903
-0.00846131704728772
0.03675037107090287
-0.012112783018346012
0.015884499213269565
-0.046247319757001755
0.04943643723324466
0.017726287474171543
-0.0276867347172584
-0.035291134107761024
-0.04227976252442215
0.0469620806379268
0.029074599251529037
0.025284299475261923
0.058451020361419255
0.04454344302391024
0.017384788832244216
0.03964373836850014
0.054941819550331526
0.03736230781229176
0.0017736480315208162
-8.625985720761808E-4
-0.02546182575203842
0.05461669708391067
0.06430500915845518
-0.019567787806393157
0.021710248044432737
0.006779328483051285
-0.001584632352417432
0.030911108502704763
0.013650216404000262
-0.010490198336823327
-0.03372178946580753
0.04124396620747149
-0.022012499216574798
0.03785792309023904
0.010392012649776586
0.05371939728275335
0.014061167678757857
-0.03594349892202251
-0.0308778386930658
0.01865942072383666
0.04218006257583459
0.04822214080456377
-0.037087778055109294
0.03987220124916405
1.935309207424709E-4
-0.012221001475442923
0.05064343034383992
-0.00988747000959319
-0.030703895934176717
-0.023065163313773233
-0.04516814471708138
-0.026185508076362492
0.0029649257722636486
0.025511477169959895
-0.027391196411053236
-0.025174804803211777
0.018628863484128805
-0.003040301884111365
0.02576394589195621
-0.024228011366764217
-0.04546010381386721
-0.02551160325853723
0.017620416848167158
-0.010739024359185745
0.03935679625058772
-0.034728089597258545
0.0027093223522046263
-0.00322024519795697
-0.013509300424114593
-0.014536760315179274
0.0015656910748227681
-0.02966197955471764
-0.019588881834229608
-0.0413234992780814
-0.01814755657065468
0.051212798761862945
0.012412793177326381
0.025457543421589474
-0.03470628384730588
-0.02676744419374695
0.006201335904294539
-0.0073132324353230626
-0.03395115842717129
0.019787477561073952
0.00579536051767131
-0.034405800420245256
-0.02389484000727505
0.02540229726727715
0.028216608626458216
0.02325374813660575
0.0067669514828270745
0.05754778743239743
-0.006273904947674776
-0.009031805078922645
0.008085201973164279
0.05067655446011726
0.03671993924651597
0.0510963205805485
0.030771721512720746
-0.0020656442140169202
-0.03468172975075461
-0.027541193476392216
0.04330862536512295
-0.015392520620395556
-0.005765774352502656
-0.03276077176560707
0.055758645866341265
-0.012267229852572482
0.015580520773470724
0.018621058476159583
-0.04499008225387429
0.015085480851832063
-0.025763015968503358
0.01788312461742021
0.0162096322693234
-0.04678955143778116
-0.03293558539472519
-0.032327868590078294
0.002822499213570449
-0.014133427271573854
0.04529270033757907
-0.04665849615674525
-0.006720225512898669
0.024374068922184165
-0.035735232625878965
-0.04169303030260223
0.028430118216114072
-0.030916362741134306
0.049610501885427934
-0.017904425220004426
-0.0429290252990324
-0.038502484961893325
0.028865251237519436
-0.012946501318138874
-0.03815622865368271
-0.03822396108618271
-0.02861128479588365
0.024243473921129896
-0.021825518660807525
0.044889977195176414
-0.04407650852707373
-0.019507790924371222
-0.007288615696113027
-0.033368329600814164
0.02722597333314059
-0.023460098183437868
-0.02724476287053057
-0.02406476598468908
0.03569932287658939
0.051520494803802816
0.0025924327873095452
0.043154404279594945
-0.021573346156854648
0.013196962646551298
0.02190542404990696
-0.012425727118374206
0.031639625584100294
0.01576090813311867
0.018235226925498327
0.04471932122245997
-0.029839745696626962
-0.031861411054302034
-0.020838889635297196
0.013009173298016515
-0.02974243942942832
0.029758667202582578
0.04242388268589858
-0.01811802074363621
0.015440233713567614
0.05890272999128371
0.03964680961665535
-0.015327438724311911
-0.03560443023347527
0.011413157610393986
-0.02097274721914887
0.0034422430702791885
0.025133308990158282
0.005536207179051768
0.0050467311440757735
-0.043440220013245046
0.006949346245958154
0.004629551398958077
-0.026934183654926596
0.023811415193491503
0.0289923967409146
-0.023209999630608658
0.026587487321026823
-0.024005769257599625
-0.0104524960970875
0.03367470639465999
0.021246969693950755
0.045547676047441074
7.487994340123496E-4
-0.03792828269630192
0.008388732901810778
-0.0011280769840193122
0.020827738747577665
-0.04548426099322971
0.040313480558419726
0.019843178392396948
-0.009713649980034524
0.037948667954128934
0.007555227169906268
-0.022067967515131848
-0.03849397713577241
0.03986951226876948
0.0032771891384080548
0.001134319318441538
-0.004770798433291333
0.04931065182607205
0.04586811847585531
0.03528799636784692
0.026888106418328905
-0.04094445112718898
-0.009233251134188533
-0.02558763615665538
-0.02403279514804413
8.635375575088005E-4
-0.03965677034780691
0.004005039961505494
-0.011438967425053861
-0.025060821607116045
-0.04363921883191508
-0.02747219038816941
0.012337937522501228
0.038892694885808814
0.00808138939320776
-0.007531040387561971
0.03529725307452749
0.02605183670728397
-0.011552819158304688
-0.021117961871247995
-0.033966204983473615
-0.04225156393760333
0.021750051687897017
0.005739616866275544
0.02298031723659888
-0.03042954606984771
-0.017331180636943413
-0.046454805452226786
0.04325396483541084
-0.04431014167059219
-0.012221977222444341
-0.004093491426298489
-0.03593732479950047
-0.028159979179522884
0.019066724500274888
-0.037537749129009014
0.041744792906850556
0.022072519908945834
0.011304617788497654
0.01962139234131951
2.480428371487383E-4
-0.02495652017490612
0.002949074408618026
0.01567085495617702
-0.03739873520443915
0.020385890602556467
-0.022733840841820965
-0.020083430481259813
-0.047009529354654335
0.018523460348771163
0.034492956669997264
-0.018874524592740576
0.02217060351084557
0.02870020721255757
-0.04865496785224008
0.044323815998284416
-0.03510418565254473
0.005955378884103544
-0.040052530332585067
-0.04815459595971485
-0.02198734009201107
0.0036102867643166576
-0.0060505496284717864
-0.029315548835490052
0.004534982161816092
-0.044093217826982625
-0.04042144358391456
-0.02877338140490747
-0.03462498142470848
0.02627386421919534
-0.013181130632796724
0.04425159846217362
-0.02886202116428055
-0.04017716616761063
0.039051727529609725
0.0023585725198755026
0.03533926441249858
-0.011257876594434425
-0.03336319586678522
-0.03346325246845059
-0.03955623096353875
-0.04070995683507867
0.021710609883796098
0.003630747642410102
-0.04595653722867
-0.015471104816091144
0.019226244384058316
-0.014127879538746767
0.03442871051066594
-0.021334858758844024
-0.04036693340337823
0.04547241620994227
-0.04484722770695323
-0.04383460922256742
-0.0325347151445173
-0.038000622064173976
-0.048893471176908794
0.023331410223484388
-0.03727872933754146
0.024324398182820978
-0.039302695023144166
0.04551899534200938
-0.04547723121910541
-0.009589686283297812
0.04169363340064456
-0.027608229851014323
0.03478963107547307
0.04374066881790618
0.0446151786082383
0.04974952095602454
0.02154969122247193
0.009699208195689937
-0.041203354668269396
0.0316095084805867
0.002567623049610118
0.01455390411064575
-0.04771827622687758
-0.017443665275977488
-0.019115587623808838
0.030835135427421653
-0.019430314300265792
-0.044741292452745905
-0.05044189937775896
-5.517227731322744E-4
0.009617501704494104
-0.015192749158100144
0.01892742267702296
0.024046448995230604
-0.020537713025187244
0.020789981766710416
-0.052961522722344376
0.0326406233301865
-0.0019374882387562088
-0.036315948754521335
0.02370975274433126
0.03957141373857262
-0.01757818343971255
-0.02503152049595
-0.004967087287753447
-0.032891824868001074
-0.002319010886000843
0.008956569221762564
-0.027876776920212783
0.038236962493558777
0.01469564067315397
0.024616190067018148
0.023215671753156843
-0.02956760029265611
0.030714992725295237
0.009662918412765502
0.001454185391201648
0.008346889999504462
-0.020042183844068508
0.03652193423794333
-0.002774018774414248
-0.029333634429565398
-0.020332625685898838
-0.028427664152832183
0.008380731006407897
-0.048020891215819025
0.027699069473202914
0.018550910875860395
0.02465262509331868
0.014916113304168697
0.006741157281323634
-0.040293837041315644
0.012894416431356397
-0.05646498655335078
-0.021567521033055762
0.0025329516870908576
0.014921710529751001
0.04100235426886244
-0.013469010750386548
0.04035359014746191
-0.03178482703905472
-0.007493892941513015
-0.03992751350840282
0.028221909765659907
-0.0437720346865861
-0.01662049071242645
-0.012506443476465422
-0.008137637678002428
-0.034259642158095
0.03993477482905784
-0.00825089240879529
-0.018002843477067293
-0.04278741350882427
-0.020671953769907478
-0.009276323641941439
-0.04869663837698741
0.023377813731908025
-0.036588875470044635
-0.04094734227414662
-0.0037128673077821395
-0.017808506919108503
0.033782858375685884
0.01865932773585706
-0.015473676685774729
-0.0056800733673660845
0.029544072660430524
-0.04852310885762573
-0.033423992845734336
0.016442392401106797
0.03803884938914333
-0.016406721981765744
0.025607360118388427
0.025099043578560763
-0.03993865261784886
0.017656387056007392
-0.020878988303134564
-0.00793429137206815
0.010658002815807597
-0.043418207335943974
-0.02734809341579982
-0.03188911338445258
0.007794870271369295
-0.046846584588288866
-0.03364975457678708
-0.008153271011889597
-0.03145239575021854
-0.030145348486969637
-0.039957508618962016
-0.017213490037392767
0.02669656556181645
-0.004062482112413603
-0.015398757877775449
-0.02514675794574205
-0.023560620827256157
-0.019585994177805193
0.004251017088227572
0.020463811049631877
0.009592233795493075
0.03189754393692202
-0.011364771509641542
-0.03073441392926857
0.01482416083613334
0.03622169785300794
0.007790520669157253
0.032704113373608554
-0.029715173889285993
-0.029655858853284763
0.042119151293613474
0.03031355821379507
-0.036901242544807554
-0.021445375756538654
0.0124555023518173
-0.026937002033202467
-0.022666629481905953
-0.04574618450446158
-0.04460691527415936
0.0220077060603878
1.5354005972394952E-4
0.036889707859464195
0.03244440318129549
-0.029923666845362136
-0.026284146967642658
-0.04347886779858249
0.011745675060512346
-0.0028873546366600736
0.008080352088287515
-0.01172832264203792
-0.024792246551785965
0.01945221078662046
0.00528353622360786
-0.022587638820111125
-0.007186434520414571
0.04228838011768064
-0.03453257718874835
-0.01849999100574528
-0.03003800270918178
-0.05014734857121216
0.0374808275190229
0.02642259368590759
0.029779593326067527
-0.04348348184364774
0.027907891256949435
0.048913536294793475
-0.03327016466131494
-0.04030184792233001
0.0015786388569193459
0.006031514744634901
0.0322160665489098
-0.012958106793681368
-0.01778642141206493
-0.008380614786914901
-0.03943782819772901
-0.010320834893098743
0.045604047091507824
0.04207992159031497
0.008263794863997767
0.015669205888522397
0.025599763415316668
-0.03143958981673036
0.032307257463866645
0.04398818756975672
-0.0031986240848776606
-0.01943701221107451
0.029955631018918873
-0.03208582917268864
0.041737676051318125
-0.016636478916139726
0.02981630726416222
0.036315165163113866
-0.03803553802183266
-0.03912522088146289
-0.02334017003180861
-0.02003690237315702
0.04134777205718877
-0.025458557556690697
0.03918811036380008
-0.044558560775645545
-0.014750870960280741
-0.022221716545538193
-0.023975596142991495
-0.03379543961821218
0.04139810194991139
-0.024880215795879033
-0.009959779670467704
0.040387727411515674
-0.008354940836052151
0.009627097608156176
-0.05029944152971488
-0.031186131615011204
0.042140596251073414
0.031135811686386496
-0.007601309931386952
-0.02393623801982017
-0.036034118054678974
0.02802454246224009
-0.028898459453296284
0.020034811519155555
-0.003702053388923116
-0.041783328362303314
-0.0496990823050663
0.039692646034893066
-0.03177177946619727
-0.03527240454635226
-0.04804020964550192
-0.035141455330019264
-0.017550626391310716
0.046714879328157065
-0.03570004707561673
0.009083286007628274
-0.040096416024868096
-0.024657941148954216
-0.006368549818200496
-0.04511099804727972
-0.03395646541212413
0.03555448951073156
-0.02195147482559089
0.044864588661015344
0.038212056387783265
0.02703261578987734
0.02784319197602473
-0.0453274682301799
0.02593303117778775
-0.04063113743329341
0.0252694206117253
0.03775038623768172
0.0019274920889430626
-0.0089505637446538
0.045528714637068
-0.039307328667126946
-0.03810480148073992
-0.014360644180369054
0.010787290529813467
0.041536813223935334
0.04449226228490529
0.044873469457322165
-0.03504026668817026
0.028609671955346593
0.018662501724395066
0.01156052686033412
0.014865979110992685
0.022649968311492175
0.0033894071110835227
0.016257348406846516
0.01570022891155119
0.023105038320553772
-0.0240814373883532
0.02317251696139775
0.01978830756555418
0.0427157817962731
0.01853575377515737
-0.044017776435241004
0.031306172905694624
-0.016712535119265327
-0.006260183715960036
-0.01150377426559343
0.053042404378418805
0.027026613929806195
0.003202141676332852
-0.007411614112796183
-0.036175126081294556
0.02012010672715862
0.04116643743677225
-0.024499034449205755
0.03732664291594737
-0.024509217605024492
-0.006418427485515696
0.020139593381087898
0.022821792414894234
-0.0034977127321384237
0.03378590722564463
-0.024562177790364625
0.023036246757909162
-0.010054731806161071
0.03039214158939196
-0.04781512408022291
-0.029276762186183077
0.03117609590019343
0.04283158872238953
-0.016967981072764524
-0.034156768494231826
-0.024388181497057303
-0.022491591107974863
-0.009469483754562852
0.03963482245696537
0.02269800055050685
0.014568099072516945
0.04479805046920789
0.017608496483850603
-0.03706295902986597
0.04435133327386893
-0.03707510374756897
-0.01091331832662932
0.029343199902273732
-2.2624741601047062E-4
0.03721703433548516
0.02949952355784314
0.002262436907529813
-0.03917547753535029
0.03230566345190483
0.0014636502526771094
-0.04429349552329114
0.01154491138106055
-0.04458908083054897
0.013867643301038703
-0.002708339835081466
-0.014653472273297656
-0.0026830152607794787
-0.03372878822091157
0.030889964727380984
0.02983121619867278
0.025950427789164236
0.009446971458209415
-0.03981147287945815
-0.039908548541037536
0.005849520256605038
-0.009464785270710225
0.01754773325639812
-0.02378430652071763
-0.017048533052168045
0.04164339482602819
0.01232006036862315
0.029703594527640993
-0.01914788539367002
-0.026547444899494146
-0.028565312001499428
-0.0024999507294399736
0.029375694271204334
-0.006762600997722637
0.04694204227865707
-0.04416211537734298
-0.009377743785139253
-0.023165765496479803
0.013712487016823054
-0.027992728385597274
0.04424296582869901
0.0548661546545573
-0.001273188808755581
0.019025689026216264
0.02517838094540964
-0.009599395596246087
-0.012207108300825404
0.0313559745606974
0.0015408605782163617
0.008544971655728076
-0.007120389992808312
-0.03197608038349564
-0.001317735900910382
0.011126276540549533
-0.018286824172499515
0.00481293465082178
0.02529751045559407
-0.021475760546464537
0.02897033515065608
0.007531103625137892
-0.049775516892972875
0.02781428597569219
0.004418452441021811
-0.014980441331833598
0.046904649278292916
0.03461013648722755
-0.025532135665934624
-0.03406734321792147
-0.024298741856224187
0.045024198431817646
0.019508664411492453
-0.01257038601649507
-0.02769741993729387
0.012218855109293075
0.05425484480911365
-0.04497656451710767
1.3130298482358946E-4
0.04952825919851246
0.05051513254621261
0.06210616921713542
0.04337193208007305
-0.00788153842177042
-0.009615910423489584
0.013195189313399117
0.031127941769811488
0.040409947712108533
0.056382336984228516
0.015350583431217837
-0.023892252904144474
0.005260960774340387
0.010633564761324673
-0.013345224096716169
0.014985796044467157
0.009017272496753975
-0.019062983490156137
0.022021527000167553
-0.003499174151369516
-0.017913432872614647
0.037095865974322316
0.042625896706619607
-0.01974718169277549
0.0131443093423568
0.0023666134635420156
-0.035854921298476936
0.010177656832545588
-0.03902719679442732
0.037794315358144
0.04390546505212402
0.006966778650948294
-0.0390963066774157
0.046952525822744826
0.02682418030126935
0.007936073070854267
-0.04594146456034707
-0.030619063303929096
-0.01270935830751354
-0.054047751673132034
-0.02429618745826565
-0.008743418621060945
-0.01247101863192131
-0.007325245753251092
0.027771299589627464
0.017980639268108816
0.023274594003686117
0.0022378240554133044
-0.04348025654180358
-0.05169168184630948
0.0067579592168961035
-0.026964009704528377
0.02171466170457793
0.00627026594901114
0.018256297310497938
0.045101252342163806
-0.03810868996028926
0.04961289920239318
-0.03366784357669879
0.04536363815238121
-0.013881355438306592
-0.0171142759490023
0.00988744111430058
-0.03908888467107959
0.04677285511081618
-0.0327070211885115
0.0388251626679634
-0.02878610689618729
-0.013234351107222974
0.0045688996478164354
0.004191904705509724
-0.003643033271054436
0.011823671068808663
-0.01827138038661435
0.043426702371915586
0.05054598355563588
0.0450601324665537
-0.01626838661488496
1.630686677732288E-4
0.044171567166612295
0.025059857125582577
-0.04914704377515512
0.02407528307384041
0.013386007370650635
0.01999932291246667
-0.0018111387450783912
0.034607663259582075
0.02397007309584605
0.03487870663647461
0.04098353153725667
-0.006502518778106494
0.03822901325720683
0.04673186272684243
-0.04332620653501351
0.05812430834085621
-0.021929273553768707
-0.04129432264237826
0.025733211138573363
0.0057155211870808
-0.01460516029611579
4.853089980887499E-4
0.02355493881062423
-0.023085480183083956
0.016079764967526413
-0.029597116492079023
-0.0049104219516390175
0.03517070082912338
0.02109750037591389
0.03185233380607469
0.022805018310737033
-0.014929311605536767
-0.037063699794307056
-7.027447926024379E-4
-0.016107190420383694
0.05440862514408133
-0.003046389568432471
0.04400819374400728
0.05681188045216788
0.04280234704263122
-1.438762713512568E-4
0.052389894154143336
-0.002053449845326872
-0.010121386529823365
-0.03780084189962288
0.012132283439936529
0.03812770987316472
0.009309223301593313
-0.01699651027904866
0.019756962646990516
0.02879918282696648
0.01782824034461498
-0.042162150132453065
0.01953006725898057
-0.014916013750133131
0.03538671208616315
0.03941281677567583
-0.0030754042053070295
-0.007958857535737994
0.04696171744224846
0.05342946975684242
-0.01705463464784102
0.04990373692330988
-0.014960345767916706
0.01041181787998383
0.04142664055137145
-0.0331809795001019
0.02714044197849956
-0.005781400326180998
0.042312808410095985
-0.01715893762864525
0.010734577836247807
-0.03498252693367555
0.05400209185992384
-0.004769681278746665
-0.024145498294089515
0.050643837113434946
-0.03549694042650652
0.011636444416000901
0.01885298116137333
-0.03389848344967259
-0.026284888983324546
1.4265198080958637E-4
-0.05200700441228318
-0.050455067254893154
-0.023246428733900894
-0.03585219808055918
-0.013810944809910056
-0.044973617751476375
0.03076453362787667
-0.044830484057478234
-0.022005982368205293
-0.046584826488555234
-0.005406770778829784
0.013042393410489498
0.012418512683990841
0.015644104399167608
-0.009813745569647071
0.01727512821706693
0.00365673341820701
-0.007681220511140047
-0.03560775028788365
0.027517579036043006
0.003466619690112866
0.0014593293839000364
0.02268549017572675
-0.010351982355820705
-0.049442302495053415
5.573304505212404E-4
-0.005294120011547603
0.029823782326231885
0.03978463561253016
-0.01658126652699511
0.013743142802734467
-0.0027860661392489832
-0.04095488077304538
0.007013836419509253
-0.0430771412757321
-0.029108343587110518
0.03232885276847334
0.025189906405676792
0.036947523777563815
0.02853472355359649
-0.046190450097720034
0.04884078631925558
-0.030710730625539934
-0.04416527994731382
0.027632498710029665
-0.026776768716821032
-0.02359670101122177
0.031982458922719254
0.0029119084600858886
-0.04179091108320628
-0.016897206266433318
0.012028556676337926
0.005491423539545891
0.021074511145771118
0.014859790659852705
0.02475584430580637
0.020754834975837223
-0.005674302498028356
-0.005165706716806899
0.0466833776781293
-0.01807400047611563
0.04015876938461031
0.016295929787947038
-0.03900268897597421
-0.04862776779171813
0.008316152768234249
0.02503658324650104
0.02236975203583693
-0.012725735674306784
-0.03224199091627756
-0.04320412188412093
0.02569179800428801
0.03993219550586256
0.0450847348037768
-0.03085902716570609
-0.017025797899681363
0.032650507840199586
0.0224237308368477
0.040549463550111964
0.019458648026388397
-0.04009923757187353
-0.010883419776267023
-0.03938698726101579
-0.03817234240340277
0.03960671698372555
-0.04379912697498497
-0.04051164667185771
0.013288988322672727
0.03473355326448342
0.04582194427477001
-0.03918342299751196
-0.03413436278850027
0.04409120967493545
-0.03515610287453469
0.01281848208608731
-0.032481893731555085
-0.0010379086172192997
-0.014169366928154108
-0.03126661118220703
-0.009851859118806103
0.0349716642856542
0.009010121709176314
0.016634773794405356
-0.05397764116531694
-0.02498854853894414
-0.0017002464803623112
-0.05356267812389733
-0.0017426719764925215
-0.037491017422260076
-0.01003705395276744
0.016242573019095853
-0.023857512689530402
0.02798463005242414
0.013800457436912198
-0.010117786587529891
-0.023969242821341556
-0.019652966629170557
-0.03271275313430895
0.005802645574091208
0.023935526076926863
-0.034428602353122346
-0.047035014653214476
-0.00625405588208729
-0.05626573104974352
-0.019956738487051612
-0.004833210537183073
0.03253371861414417
-0.030421285057751133
-0.05103902197116991
0.03685116755893485
-0.016293399629504678
-0.031413084875054904
-0.037008270892827835
-0.015101001962757616
-0.04015958620722965
0.019245865043256018
0.03526704990813072
-0.050717316496835974
-0.013359887588333955
0.032054589451372115
3.7404545238056914E-4
0.009517242867940166
-0.05589303147401429
-0.049916945825683706
-0.034166523856157135
-0.008488671475487018
0.024127462443959618
0.024644374607647797
0.016295604066927833
0.011363209266943551
0.040369861904919646
-0.04569987894914321
0.022500574420625055
-0.040613520709869184
0.03798824801297433
0.0027155124022794864
-0.036278929015921016
0.030896141583134622
0.008703903265532768
-0.04288163308795255
0.005591166316207683
-0.03303576673510373
0.045110451295205994
0.036472208561872235
0.017183238469147606
-5.396214366981087E-4
0.0035745360215927164
-0.037706464516047734
0.023325676500545407
0.0307820494271799
-0.032592553827107025
0.03780382618407459
-0.05020073066590963
0.0011734596644247856
0.003716098305823489
-0.05502409050850305
0.03778122835333387
-0.03465323415627133
-0.04042806012041007
0.01744165287218761
-0.041102841043777254
0.0029787138941977276
-2.3610545549645443E-4
-0.026432916679220222
-0.01289784557563148
-0.010036903561615247
0.021798581888316106
-0.004070272583851974
0.029867649594926805
0.019159173863861904
0.03231928060764911
-0.012668466960340692
-0.040722164637398243
0.03502694376540998
0.02426897483768653
-0.03126521172935195
0.02646760975843861
-0.03818528110554472
-0.016505636883136922
-0.008007053253165907
-0.02421020011268272
0.0021530326735270176
0.032889773118081556
0.041240438950372174
-0.01745856244882805
-0.028259362622388786
2.1071821894630237E-4
-0.01445551793730859
0.02857655167397594
0.009169608640818339
0.02272708990446861
-0.025912212048250515
-0.03605470639355111
0.017018818971122392
-0.01755743535574419
0.03804764228596171
-0.039628498799662085
0.03822558605071132
-0.022014672714131638
-0.006982218268599469
0.01368178624099239
-0.0031067876704023215
0.027965958151560902
-0.015461934776955382
-0.0038716944140952223
-0.02725810596037307
0.0017288342446172532
-0.0437367050720631
0.023935432958684055
0.009622043293280884
8.464366742182359E-4
-0.017135448633574895
0.003628274343714751
-0.025802796326301974
0.036151609777087236
0.02553169036324805
0.03325236764896946
0.013667124132746077
0.028713229847078248
0.02547722530892935
-0.01581522026235279
0.0019179081846764307
0.03385835799776896
-0.015896800019573144
-0.04615744747717562
-0.05130068529701966
-0.04997655960189527
-0.030934035814557292
-0.033979568411252936
0.00789495899898886
0.019710437296113267
0.012335558672746013
-0.04284074764884579
0.03542014972441897
-0.009347370723837716
-0.005413538963599742
0.0306327278618026
-0.014742716717876718
0.02625887291131688
-0.013518582446433025
-0.0037717140497917747
0.01675611066001383
0.037988857173921024
0.009332203968944597
-0.041364786633279096
-0.004011517392044972
-0.0502432510453545
-0.009243572657726637
-0.03640948151115977
0.0293080283647372
0.0061309914959875225
0.03984512255458371
0.03507335574962583
-0.016947261938991837
0.006022911591381818
0.05002859877661436
0.029730358975788896
0.04653299554657059
0.007405163502027139
-0.022642022182944446
0.03241293639824183
-0.03443199226078494
-0.009432284475941036
-0.04156177354696275
-0.03580135196995856
-0.016089407525813913
-0.048030506032256504
-0.0019221691950519408
-0.023925939347556453
-0.011776922697295942
0.010993823264435192
-0.005689150961972041
-0.02311435055281544
-0.04423600998281606
-0.013841166981534064
0.04380459442453791
0.007761543914609467
0.006753548527025491
-0.03644958177494824
0.0478056950669844
0.00152584849768734
-0.019007636535138747
-0.026748304814613263
-0.0052217316451259035
0.0423026258224217
-0.02279356810292153
-0.039200157526824216
-0.022151253748146436
0.006862759669954758
-0.028028305262869663
0.014679383314011465
0.009776694019722598
-0.022739349801780058
0.018996016202613243
0.04383124330958805
-0.015593715626904843
-0.019785628214195283
0.03763818263428322
0.0159775671556518
-0.013761838162425113
-0.041384724227900044
-0.012705297370632952
-0.03335699274114241
-0.0054485905860386956
-8.811746506177988E-4
0.02886953938291143
0.025833241305002436
0.02148334345268962
-0.032482624907980706
0.007035149705429526
0.031668041213885466
0.03553392255531981
0.036663122314274835
-0.024663464967503417
0.006046038525919195
-0.022759528152077487
-0.028009795525865695
-0.011281446410848453
-0.01431278076950079
0.007200526833434351
0.04487324899284449
-0.004862064011793824
-0.0114846900682386
0.0341220425489825
-0.04081435553952602
-0.016015320688245707
-0.03864689397484618
0.04474375967542836
0.011633232460951867
0.032065225839615914
-0.039157183182998316
0.035014009387953314
0.052838007139633984
-0.027370413663159857
-0.01300985507881883
-0.006458714363726613
-0.02710125786346463
0.012769716859866253
0.006323930815204348
0.047609033084026364
0.01939812940687858
-0.01633639365581927
0.0289931773928042
-0.04399072777487489
-0.047952448398101345
0.05223994413982062
-0.01632846508159536
0.018033674629008293
-0.012135130079412079
0.006385557782814964
-0.02021397320264877
-0.04081670074231135
0.020465137240224144
-0.012341522711924008
-0.02646223967170832
0.002395102307492585
0.012905173268484215
-0.006693432225025123
-0.037781212577035025
0.01630234889408783
0.01682398373920244
0.050132664390986764
0.003918769951915572
5.057458163707496E-4
0.035300832727264427
0.005067718471162613
0.0037402094412036994
0.050425377719236227
0.03757297818497889
0.03282483901759595
0.036293968336512196
-0.0141028360527502
-0.012004921269506186
0.0015787990690137523
-0.041177980994210786
0.020393089642162868
-0.04275583213054809
0.01860742513712896
0.027852731492658045
-0.020272948667015595
0.055088181109121774
0.03375048895594451
-0.016456077501577935
-0.011868116859379914
0.0371207746791279
0.04878969628626866
6.170225894620621E-4
0.012682836789380019
0.022118620975458553
0.04903333902144395
-0.050896010934830364
0.007781189711723587
0.0031756441906300188
-0.04486314786752562
-0.00870915138571083
0.034672847865242905
-0.041165205155937315
-0.0015801196489481347
0.003029167725919437
-0.033179057134839006
-0.026021531243955516
0.04543653676594694
-0.047177295523407214
0.0033856717236463575
0.0230511169529346
0.05093949930428221
0.04439898566367108
0.06154596992920493
0.05192581482534626
-0.008663148124957
-0.003684040316102723
0.025760184060807895
0.008773692406942072
0.03890713652667558
-0.04002611987064385
-0.008710254999927175
0.04685989487000866
-7.288332692232249E-4
0.0055422699638988885
0.02570503303797273
0.03766286556534845
-0.02455640741856632
0.02826310780371525
0.019356010750762282
-0.017816443801074958
-0.023174640287519286
-0.010312782119683733
-0.009141985875487715
-0.020218879926668504
-0.025403093324784184
-0.04390356654062787
-0.019011775524522073
-0.02597856120432129
-0.025738480844815188
-0.03809752810991263
-0.027203120111669907
0.014060132810181697
0.02413535069977891
-0.0192133016335036
0.009032612182507442
-0.026735927706388392
-0.004951326237392077
-0.003206359197194821
0.05996838418489257
-0.012463398726670757
0.006598026905467699
-0.0077274691998877815
-0.010161196467741093
-0.014182532453875445
-0.013058495898114891
0.010308701829746908
-0.0400802084789513
-0.03117560382264532
0.005006458502037134
0.029014745511044382
0.030074730930305334
-0.023496330097711644
-0.011400354161156515
0.04132554367232703
0.028815142609867943
0.06503118250963956
0.031156967092396584
6.923297457656211E-4
0.01744800848046393
-0.04028868723312566
0.042654576379994646
0.037600513335923805
-0.0028379715034318794
0.040516800202728395
-0.03308938915889778
-0.002796223672765763
6.976688089164999E-4
0.033116692690466354
0.047598950371215955
-0.013396101430825539
-0.005531881570485655
-0.003228122378109394
-0.008558879501672258
-0.0015319503411690642
0.020453597864262242
0.008563841520832565
0.009729810800780255
-9.529353824799027E-4
0.05579850322769984
0.03804029907910282
0.036687710468260484
0.03095644363901435
0.011001014518527745
0.030662728237160344
0.045525430206612635
0.02494665642833698
-0.04323617750068936
0.02597093882414299
-0.04047342635176208
0.04250434672415847
-0.04488298900320301
-0.018533267554291154
0.004110863379820268
-0.006871600311711581
0.025962679022784308
-0.05139005279361051
0.00508983404428128
0.013662154420799322
0.034348756966269725
-3.237180064781683E-5
0.02649042867585674
-0.04461848398389354
0.026238272142237316
0.037086121566417454
0.026728450044695137
0.032749090481010844
0.010705316866869074
-0.01652274109822287
0.03544739915177798
0.010391797516295383
0.006478911340167487
0.03805507458064212
-0.02086662044328492
0.03099436641097332
-0.021549775418793982
-0.009511307147639396
6.888459316722E-4
-0.007594825540093124
-0.033844798588865965
-0.020495710799856518
-0.03955976371709975
0.013949779676366075
0.0027929867498099935
0.05770603454958868
-0.03728324693033261
0.01098243186032151
-0.020007533096212938
0.03372613827316854
-0.01646858954905842
-0.04284486525520751
-0.032097761016843876
0.017162700370780236
-0.017900051031913458
-0.015703720507737197
-0.027763506819331586
0.007701047778087619
-0.008681770156522722
-0.025442424695054866
0.014027792975620776
0.04384382556140874
0.01144137964644055
0.04036020530533628
0.04452131912202626
0.014019816788168589
0.030941869171328785
-0.03263678857380527
-8.373962037131091E-4
-0.01820129534805431
-0.001169473623634246
-0.048795711283953574
0.0477108969559412
0.005821973882513875
-0.029948392249756286
0.052629568752159406
-0.035070123317286005
0.016805356425473574
0.046037670406025785
0.04910206587155344
-0.0398193133303846
0.0039167940134209895
0.029130384629035763
-0.02860187681585335
0.008153508046184288
-0.03067759637267923
0.0070045439534277025
-0.021834339709167754
-0.04210554440434278
0.04266002197483028
0.04087639079875077
-0.025607055910213377
0.03639411938732338
0.044324802261150695
0.04112041639218122
-0.013382362005636087
-0.049024029376120604
0.0261355828607346
-0.007808187214690294
-0.009659757266091749
-0.007451580448919157
-0.020582649049617957
0.02516650510281592
0.043388510183701615
0.016874507287942035
0.047937812014259104
-0.009626843001004541
0.03966145586323401
-0.036022471498839845
-0.008127814998031512
0.0282028814560835
0.0010728371543768994
0.00998893807672333
0.03340017931761464
-0.009719369017361684
0.0557469806411401
-0.016365086343353295
-0.035699571206200785
0.0174016875529985
0.02999414582044704
-0.017539600274420943
-0.04789614077443501
0.05030236608891537
0.019219838117950208
0.043510097254633485
0.03277102035405922
0.0034206364295817342
-0.012211690924504347
0.013970448824149115
0.05507219292124118
-0.04144158967097168
0.03368976575085045
0.010152886637110364
-0.005747205972219521
0.03313637045312157
-0.03505633692665608
-0.025300437545131498
0.0011843029130076668
0.03515350366271891
-0.04875702525083768
-0.020321922833380256
-0.010046893444610893
-0.029081101709918906
-0.00862911557198681
-0.007646589893339749
-0.013148001922948755
0.04096273997624107
0.028896944886449113
0.011583475001830804
-0.04478951796778482
-0.04782404482174467
-0.015209695174896516
-0.01818421040063975
-0.004295954898049637
0.04180499829761851
0.04516323865809761
-0.03418062436978021
0.04044064352528983
-0.0304958474181059
0.03766129929209084
-0.01841730733493208
0.009814516437522826
-0.0504908426194252
0.02597738342280142
0.023095685888690598
-0.04393703182133042
-0.02590779739041735
0.012864740637081807
-0.026516224577746973
0.03695156135720186
-0.015364583975693262
0.037080147325993906
-0.006510908190151757
-0.027170602210050365
-0.04117876534936542
-0.04792754920120898
-0.026960419259633526
-0.028440892987775527
6.407994333460209E-4
-0.028429744774504728
0.008192663073492387
0.032540797512405316
-0.0022094481844513523
-0.00690024733429587
0.03745837922670937
0.023863608149618597
-0.04598965953598061
-0.005543512693285601
0.019880885477106074
0.03116643149229302
-0.06401045661464912
0.04770314076161226
-0.04071174972057798
-0.03489099335055374
0.021122330011539486
-0.0225814351345886
0.027312502984589402
-0.04729368834835589
-0.04236885095113281
0.0047203347099165766
0.036452679652275506
0.03152073389276518
0.05235833965344815
0.034342630562476335
-0.029680037606563917
-0.04369831779009273
-0.01490086653647277
-0.03181967578455676
0.00488598987831415
0.03252904520862823
-0.03472130950010999
0.04200312593393314
0.020975940355889653
-0.02618121426808904
0.0364638252307104
4.322788914444767E-4
-0.02692916602176924
0.03138912118169851
-0.02198624005076029
0.028350356025013818
0.028454269664026186
-0.03398560970729396
1.3284917431463962E-5
-0.007250506827671288
9.571068076871989E-4
-0.018276859250209228
0.023597188695243392
-0.01022003332652113
0.012163180462531016
-0.005262036072325414
0.03688614093519005
-0.024586306737432093
0.026278246460605205
0.022242409727103236
0.05185590851356588
0.0043043155710043605
-0.03812168028318937
-0.05849409549599946
-0.031197098678825447
-0.04010013709514399
-0.051392036972315404
-0.02068297540917274
-0.006906728810467999
0.024648704381870803
0.005708700209187472
-0.035520343832219865
0.026104356897289974
-0.05722972609594495
-0.036903116146064285
-0.04956900565616706
-0.03036063821643762
0.009773438725453061
0.014849123587574174
-0.03501177848999467
-9.636759665416171E-4
0.013060391445753603
-0.005526517124538243
0.01594749257532606
0.042211167679349376
-0.03946145089853435
-0.0410657611227215
-0.04394132046966939
-0.004268413773902646
-0.011344824778453895
-0.014387685028493772
-0.004818459701457088
-0.030351260988546642
0.03907083442627202
0.02718526581308851
0.009388832845850138
0.004334700498123735
-0.03613009268593947
0.023166512526866214
-0.01977235586517306
0.021019282744225504
-0.027843398395301547
0.008485277518058491
-5.209631445091691E-4
-0.017099322028462156
-0.035311848440343165
-0.02365625785542836
-0.04457361437094545
-0.05652406550120591
0.022889294228488077
-0.03728809720116852
0.04588225271133622
0.03703874726414376
-0.014936245203172908
0.015573532251664366
-0.02111816640936486
-0.040278148028108786
-0.011241902982365817
0.03570178382752433
0.03314904536777012
-0.015610166633466404
-0.03862190436470825
-0.020926454990294496
-0.04711551892600893
-0.03390901257842544
-0.008403063382431072
-0.04116826866846107
0.0014950459915150055
-0.021008917931411457
0.03898771937676003
-0.04673611770696804
0.018153951658129882
-0.010628688898325451
-0.03941680025347732
-9.439304069893378E-4
-0.044207894942886086
-0.0161120967738766
0.03653781028205901
-0.014495462898070457
0.04706282976214494
0.031075391741527132
-0.05066209755116603
0.02261522149895749
0.04337085391158946
-0.015435183866679265
-0.022206299260104295
-0.002824138375697525
0.03652863746658017
-3.702069834419299E-5
-0.034590410507220365
-0.005345138225386346
0.008905193556039892
0.033173863764911105
0.014704304093443525
-0.048583921691550076
-0.014741839343992442
0.04050706435067899
0.047773377253366334
0.014828869004774321
0.01002611959015703
0.04312924639997141
0.05226959530073325
-0.003878330345280692
0.025410440162939026
-0.022853044108584703
-0.02484123175570576
0.008351564798305035
0.04788887051527577
-0.03482555341954482
-0.0402408410255895
0.04044576021282756
-0.021325711730219982
0.021919831595940575
-0.0375323104051311
-0.03569813988235177
0.023509248595944963
-0.03976009278640868
0.027952289213334796
0.03278587859817615
0.012543526641736018
0.01221132350948721
-0.03956987611428328
0.03470290441575832
-0.016669199403010752
-0.026846543509396904
-0.04533299764992844
0.0081027302180653
0.04480431792399975
-0.05409862750475949
-0.0031486540881284315
0.027781360809119172
-0.041291949473479785
0.01070850197908452
-0.03125987730766752
-0.018594808262029486
-0.02315464208370363
0.003194746741878779
0.013429307556133788
-0.01817582715991839
0.014700274792865006
-0.009240205955916448
0.014641477009925883
0.045477907265976045
-0.01503309652398806
0.04567615835736189
-0.018013931399787336
0.03907680362384418
5.974027733085114E-4
-0.001695958416483456
-0.035076896349522844
0.05212562790389133
0.012205672918349996
0.0022889055345370027
0.008964062611005873
0.039487505304270816
-0.02819695231647177
-0.010173902004257733
-0.008027984651283807
-0.02364033562073902
-0.01312446590305986
-0.01242724357518814
0.006432265479299405
-0.014806775577730226
-0.037757961319143774
-0.025754757163027737
-0.04267606824422946
-0.03156961601568876
0.03772451122821426
0.04378284653123054
-0.030982317765870182
0.00948607246223487
-0.013491519502156784
0.038964076307354184
-0.015748924924892164
0.009331214357574539
0.0030686583947127487
0.009151224209701542
-0.0278804810519208
5.738244788271157E-4
-0.02854858532060462
-0.04257028088213787
-0.030766570755290924
0.034241288303804726
-0.024823561807357654
0.002358088862955843
0.04328174111518237
0.009914207879996898
-0.04383191881730795
-0.04703318764135152
0.02912560821203753
0.006540791814081824
0.04343998655608754
-0.04701583950473706
0.016543731337414987
-0.012577828996384169
0.027892422268696152
-0.029122409841370704
0.03384846869058598
0.03603218254477982
-0.03783828768610569
-0.031734866811027766
-0.040300385876127894
-0.04467246476241088
0.031025771829684717
-0.003277045995336884
0.01301577312986542
-0.03443023529858962
-0.03889746261412057
-0.03870041003755386
-0.00801914093824424
-0.03421427722941304
0.03679641465295491
0.043718916719981
0.021978875216089065
0.0020392328155043144
0.02489901633440405
0.04596652095529112
0.02134363281749337
0.048208606997443657
0.002551220432218264
0.019669087762716347
-0.01634648284923383
-0.024075495474192903
0.03771705537309298
0.01645958474840864
-0.028062071531612207
-0.02635182571814614
-0.0031715935265653646
0.0017422112523851603
-0.017640738930934367
0.045509832486083625
-0.04153059469090758
0.004389036925094357
-0.0026181704485153854
0.0015929660091110417
0.02578798712729669
-0.039482493217705465
0.0333170451728899
-0.001326325471679609
-0.011868911347277572
0.02256579474428273
-0.006223874457012108
0.043241012467393335
6.539458991999306E-4
0.029403900591438045
0.041554091893255846
0.039895697868638426
0.028131748267479512
-4.567853381641011E-4
-0.013243597495329515
-0.03744232493642738
0.023989073144355062
-0.029330185488665037
-0.008628585860084423
0.03566092585731973
0.0191408754585862
0.0053118359916704445
0.010877659599444495
0.03592716800063024
0.031955140024956454
-0.004180367773034083
0.026147487146417098
-0.0397177844934398
0.004586095514171586
-0.0173495575025611
-0.03776811078489247
-0.020357074505416396
0.023301457434333428
0.030876877464153702
0.002129880693864977
0.015975725192171875
0.04945039531318041
-0.03754672986298387
0.01739704470172138
-0.026445990185711917
0.018199991909767652
-0.003715146859960247
0.03880046260316281
0.0097588661020602
0.022567331864568038
0.04442077358134763
0.014545533875760637
-0.04157571242302684
0.016681945069578683
-0.010443031456661549
-0.025182853123281158
0.017764150051890765
0.013511624870184456
1.3093014070470526E-4
0.019332715212111756
-0.017678986202395046
-0.03875668677563847
-0.033390304173300904
0.016063471437683715
0.022753489534884767
0.02306570091227685
0.006723836392442323
-0.013165556910681749
0.01473098182893982
-0.039658913478529755
0.043987815495405154
0.0014393789317958617
-0.011230584195328918
0.03212131913212647
-0.020046337750497478
-0.008547893564217953
0.022185000609096745
0.03098519239772502
0.03785382387092803
0.006504823890438134
-0.017048535882204296
0.02446141386423885
-0.04226274248765637
0.040848066295874015
-0.012301483573659617
0.033229988737505066
0.03867829137245629
0.029344401272862305
0.04827186952190881
0.005818972692749598
0.01507201695971522
0.04672220859896479
0.02027993281387086
-0.0028548967319345104
0.006917416305058083
0.008549906470667295
0.00613304197785108
-0.03630800846155927
0.025137617977250996
-0.03549263685179129
0.051114485368937736
0.03167405112574908
0.016255872631945507
0.0584719565233174
0.04348729273179545
0.03586538422468669
-0.032112549207306565
0.03699492428641558
0.009077397536851238
0.028389812331462372
-0.03384548139240949
-0.0465941453390683
-0.02674768134560271
-0.04858369474714277
-5.715034427630436E-5
-0.023551512184431734
0.01947937244147067
0.04369824598195874
-0.06462021266347132
0.017105177417522446
0.03172938658788907
0.03903002587201859
0.04276639007295659
0.003889483878357873
-0.04084539322819436
-0.023863425222056263
3.917275762120337E-4
-0.01682642283631044
-0.01793086403634493
0.01667367412346903
-0.04533229402795984
-0.027475362220312636
-0.011007735619168896
0.010510169646215218
0.030431656850662164
0.01568216938600091
-0.01647243587243695
-0.033942599727215694
-0.03131310802875686
0.04184028117778351
-7.360737395306404E-4
-0.030306441216116874
0.020646390805635923
0.047138058716954485
0.025467647669217545
-6.536482343873092E-4
0.008042147266480126
-0.0058349910365962385
-0.013814083910189477
0.05303964800415975
0.040764066129202754
0.03315720206639666
0.04331146379745984
0.0028431520616016954
-0.04379101369785593
0.05956394675567941
0.06427916635814174
-0.02864922575211
0.019371107838999452
-0.014519699836690747
0.0479460816164089
-0.026908364653679358
0.03850642297354193
0.0041131881536586885
-0.0413817075425047
-0.03312374873191142
0.045010797054168286
0.014351928798652455
0.002021912377687716
0.045985813781175056
0.03721763138841426
-0.001275514247855442
-0.014672947587190113
0.03605259858568962
-0.030614100575132717
-0.02477303947229002
-0.019158439552797776
0.049990851725504576
0.019223483063171603
0.023319283130628157
-0.014883393064887368
-0.005977352072459832
0.024434223873040745
0.027715031026104415
0.029462327831125828
0.025911631664286373
-0.021530726431015754
-0.04239092343904775
-0.0044100128425177245
-0.051449384276185575
-0.05097710297414009
-0.05142980369337083
-0.0074827711983624255
-0.02474591923106904
0.04061807070453588
0.014718966099472297
0.011629251586010832
0.022307620528618035
0.026304957172688954
-0.031060753410522102
-0.018653287531040542
0.007732041086390564
0.005274007622642754
-0.020024860442800888
0.04474219317595153
-0.015038337252133334
0.05316558832159478
0.02193646528845217
0.002077010411663183
0.04543664984129055
0.048097159549195655
0.04578317216687424
0.03005434867927847
0.019448390715324546
0.021911801700442813
-0.0013834048577509497
0.06239378494561568
-0.023820508703585586
0.03514556567808167
0.042830651341681764
0.024017684145253463
0.02118769032521439
0.005422216739861991
0.054848602764827954
0.045379192051174855
0.03213698334545944
-0.019594001549925532
0.03911924205549055
0.057047762553123195
-0.01849156639333208
-0.0018807811335250744
0.010360735182951896
0.0030272504977443345
0.009741136020678927
0.008451684850391977
0.05256137762927096
0.005746493546046068
0.04779653050729453
-0.028995958420037674
-0.03787978481118038
-0.03756320425042714
0.025394796216517367
0.044779046575279965
0.034625121481843546
0.01924310149828014
-0.03945986390332363
-0.03865662869246491
0.017988674016782807
-0.00766837194218294
0.047196700181252584
0.054238579756879374
0.04850095521995295
-0.039408810302213985
0.0436030381602355
-0.03684266067758859
0.029435926472398077
0.02546694600264736
-0.041333517802126594
-0.043633459841944194
-0.04771479894164985
0.031555704648485616
0.04060066011053162
-0.01636288646742138
-0.017203807889258946
-0.0030863132526056138
-0.022708785711174923
-0.020298727538818066
0.011672149236106072
-0.03875548005560341
-0.03441984159019666
-0.007772713060234613
-0.013203188355530695
-0.026337182550570572
0.005801967374657557
0.03353993532402496
-0.004645756469525849
0.03745016471053469
0.042485450280714085
0.03421614311048092
-0.03362752452682228
0.007131691573466329
-0.03045661631693131
0.02365151096263778
-0.03440839937763239
0.013872463697578774
0.012559000314038754
-0.016815927594212132
0.003804708446484457
0.025425616571756005
0.04352034370243237
1.2988437584374537E-4
0.01942718739822207
-0.011443287766750933
-0.010642134501625303
0.003100578533741229
0.016416580674641624
0.01777798359982729
0.036392919324459906
0.0024381074893682388
0.043968884531612254
-0.028585415789189356
-0.040138077036535415
0.038254163522964145
0.04121114616363965
0.014331425302207946
-0.038711499284747763
-0.02706343954612433
-0.031289806550488845
0.03584836196694171
0.018517838149635087
0.02074936984335205
0.004771736033838471
-0.02481692437265675
0.004658777095718181
0.01896927858812845
-0.010899402990684629
-0.0016949288828402081
0.04218491478801963
-0.043526894315350055
0.015059884431093186
-0.028675805767499205
-0.0346012613640999
-0.03578918886410047
-0.043680346000713494
0.05001552080684815
0.02164726399513101
-0.03541015839544722
-0.016468254917440684
0.0016995449923002854
-0.01257488979372037
0.03520602685662906
0.04280948506367989
-0.029157085656492398
0.01565489894092327
0.018840250638378842
-0.04851469626690146
9.665959661599966E-5
-0.04614039210880342
0.008824488353632342
-0.008959342525360743
0.024626352588007556
-0.01683997899737458
0.011028873117113515
-0.05037576420037131
0.013079090309757587
-0.02870715823329196
-0.038346756195558496
-0.004830686635797669
-0.002194131955214589
0.03940903707527356
0.045118387548025884
-0.02360900851993865
0.02527435540994662
0.04262744774194173
-0.0404654112548467
-0.029187608581225828
0.026753573841647463
0.03229377704610941
-0.008222430372024551
-0.035871841456499964
-0.016175547708886632
-0.04826254296323848
-0.015283338853909749
-0.026640086629154507
-0.002860085962549361
-0.040090686070659624
-0.03684955534211794
-0.010301788193742223
-0.02525099320436615
-0.03459462643642951
-0.029342258839084513
-0.04766098133651794
-0.029831814989952767
-0.007489672919663391
-0.02787305644938648
-0.02914848480167309
0.004343771268358507
-0.04140213566648868
-0.021022821423551146
-0.04673077800384524
0.0313475817976511
0.0016896878286898841
-0.048287934196496844
0.02050779289766029
-0.04498450584357758
0.041465105120688496
-0.024044028542519115
-0.0113232026147089
0.03998923685733621
-0.02451922302423757
-0.033090718513235855
0.02195401640115363
-0.016670629960807874
0.01594990203332487
0.04165747106277664
-0.03582106341972424
-0.0024807798118747985
-0.014590373028261407
-0.0060346520222732585
-5.105955612757497E-4
0.014372935368924053
0.009741938188664312
-0.05044361413443905
0.02717702138335356
-0.025265169735679827
-0.04078698810724028
0.03577532950729436
0.022847159218092106
-0.022662059823625187
0.007451048946829008
-0.007698345181972301
-0.031156771171149948
-0.020192918305585436
-0.0450483457341403
-0.04071313028849511
-0.007371091807543323
-0.033910438357796044
-0.008699720964319018
-0.028306592466196434
-0.006372427517305345
0.019548782511364323
-0.01732038559621139
0.025416213775402204
0.026621774632339223
0.03457162609037722
-0.04921230923434371
8.598574525598557E-4
0.01885140163561416
-0.04662323141690894
-0.04806100294825312
-0.02424027617654904
0.02652483625840439
-0.004548794749742248
-0.034335129443095885
0.018641068775282536
-0.0275290431345199
-0.02720175914794555
-0.03781375627002544
-0.018778424937683707
0.017380185885722398
0.03819484473366256
-0.021826010623039144
-0.03401654964233975
-0.017843823506915137
-0.016036343905830946
0.04247635598011994
-0.03747670655183054
0.020356490643099363
0.029580927518174163
-0.017941527079399052
-0.01993016716539894
-0.03514335768045275
-0.04630118543321546
0.015262830960599943
0.02125028470123864
0.0010492308123176417
-0.010977576800725313
0.049069891417882115
0.0018546553548949068
0.009097730787146525
-0.036475770014746174
-0.016512012413443345
-0.007657176954281809
0.03671022872425683
-0.04743086645473697
-0.02625812691607854
-0.0033806420573781666
-0.003398853485875477
-0.003959482628420551
0.012464316816816976
-0.04410436076202477
-0.03407118120868026
-9.279106751039831E-4
0.01802847237913624
0.02143428428085498
0.0027545462723848357
-0.02092251072632766
0.005324447102361363
-0.013530718791886404
0.027401522292907304
-0.03434642522303403
0.01728366255224376
-0.04350689389045038
0.04077329556948483
-0.04053616218536943
-0.053648310744726264
0.038437487442958176
-0.04477552783019751
-0.02216975365450837
0.018214223993431186
-0.003373707847494118
-0.030146958700304698
-0.026667091561258478
0.03743952102320371
0.04501280397615178
-0.03852523925219571
-0.04089381572422768
0.03761920072419937
0.014251943326432533
0.030211130320393458
0.032574607095160295
0.030022650888487854
0.03317699973698454
0.039038808374690356
-0.02398284871913184
-0.04916828790719188
-7.650957138962263E-4
-0.012335646492290145
0.032284935478174
-0.01842488315997435
-0.0255285335472516
0.01752498101727283
0.04524567765271604
-0.038015075217462425
-0.0035903127367112727
0.011934621224737346
-0.005308775432709551
0.015190776338826468
-0.00643746524564751
-0.009830462657421567
0.04784004674605457
0.012399793839597934
-0.015761362930524263
-0.014310726438430524
0.020115097360035108
-0.022903597608121065
0.043894979206683955
-0.01581615387110959
0.024867217075544467
0.039538106281532044
-0.021742969172143172
0.044244042302499856
0.0324040299673387
-0.026707918992255022
-0.011474184805923689
0.039571705920160676
0.03651032942358597
0.03508951831680838
-0.02009238912378336
0.001921654314262127
0.04831128969593265
-0.020223279552137086
-0.03313330352719604
-0.04307938276832058
0.03236984783729919
0.011837906528640842
0.03314176211723944
-0.004674997816188193
0.001512175333844457
-0.049893941822722374
-0.020460758962012115
-0.017527352743950002
0.03623255746150376
-0.020440982934409976
0.04129745647952178
0.028573310439964396
0.03692227216881053
-0.007949125047586273
-0.00472032105437716
0.01398206840648246
0.0487853435704875
-0.001982599547822993
-0.012076361219142642
0.042931140326596916
-0.02919640048010833
0.0034368751881461595
-0.030304826231520775
-0.0041432988294452825
0.04632773560072035
0.006074157975762919
0.05412235517928288
-0.004118548179674742
0.026775521504058434
0.02617035401567812
0.029091154806912385
-0.01040735597023156
0.047156752471737215
-0.042450737729574445
-0.024408074450128856
-0.04241577620157041
-0.014162478553362189
0.04798654201345086
-0.0024992883454088544
0.016928113706893667
-0.04196731076684722
0.03438813771043299
-0.04232771507880725
9.078227990449481E-4
-0.023779798879104443
-0.02678924265622405
0.05174032659292904
0.029969071529370218
-0.020627729180301164
0.017220412794084695
-0.04471054726805632
0.03495124851812953
-0.026371687275359882
-0.010574956680622924
0.016538960587817692
0.00729218192071451
0.016586353058316905
0.05164952486680551
-0.0032893628677953144
-0.012921909227495143
-0.025492699777332675
-0.016620872317582178
0.007181846725737852
-0.02836631006926887
0.0392065409170645
-0.005942650156594678
0.005232595430550232
0.005693149251002516
-0.024291234153404923
-0.018328920192749034
0.007417964420769988
0.016936182181519464
-0.021003392294166957
-0.027210833081049803
-0.021605934780084022
0.042062245939373556
-0.04252961567063842
-0.020693490177597064
-0.017028502641252184
0.02777445074291409
-0.026542983048951398
0.04402366127894218
0.027403857512369876
0.028434234669834177
0.012068435049221275
-0.0051380507587876776
0.0015485015256562166
0.01528793871842023
-0.0118105665025851
0.03391332100163396
-0.049187554433957247
0.03673184727100388
-0.022133857616124013
0.005642088979502062
-0.03942725484193707
0.017159684276640993
-0.01098022210872651
-0.042167835691744544
-0.0025613822347705707
-0.01876631590259663
0.0386760321923059
0.029090928211809856
0.05014236794914559
0.014219190696835124
-0.019899962971800928
0.05000737936962205
-0.024920306490714726
0.04480915126175385
0.018282161608290923
-0.026126093346892195
0.035071863715410774
-0.029630036647157458
0.01813756086995121
0.01809598000989887
0.04382853780912783
0.002786100630179129
-0.00915619220473653
0.03544392073085827
0.013855411526205761
0.027895581947403388
-0.04013933793601863
0.016006283619034486
-0.020102043934891053
-0.013643382681233857
0.03983392869864913
-0.009936375527291336
0.0189292382000914
0.031047342814733894
-0.010998988092697537
-0.03518704046448095
0.021197462198424857
0.033196719220124446
-0.04150024892736398
-0.004395834352679223
0.0412034683075035
0.04859532314949007
0.00805157533354202
-0.03519896330649565
-0.01721749745017544
0.04747747382795237
0.02704007345270342
-0.04209832331043994
0.04367864628003565
0.028171645452280677
-0.04192929756789821
6.973672215830521E-4
0.019180756734952932
0.04782501245023452
-0.04376612233967396
0.029078202931481615
-0.026990615567656178
-0.013953178540503281
0.014063018504886235
0.01261671738966551
-0.013947676250571745
0.036658975443633494
0.04480451007220804
0.0417408430701595
0.037974777659622774
0.021665786307297107
0.03502211494002259
-0.027937813231654004
0.02164803248083034
-0.013553035043195195
-4.0556114065208804E-4
0.030679736529667264
-0.006164072098767111
-0.025710923950687706
0.02104795964819638
-0.03452050082642355
-0.002398434101883087
0.033247047588002135
-0.012799001043753882
0.008767354956588189
0.04866250824937198
-0.026005339102678885
0.012903918564211926
-0.022628977765113332
0.012006475440498965
-0.0035690239927605523
0.029622474174395452
-0.03795521861545519
-0.015075250177123727
-0.04910153428664475
0.022838160953541423
-0.027255866924724856
-0.01986547539636842
-0.050774146885799155
0.03534114035019276
-0.019472047227279653
-0.011349600303332685
-0.0332415485181371
-0.03519072436291946
-0.030192378908760385
-0.01302057715149932
-0.04077391085570807
0.029245971185923123
-0.001936086276555359
-0.024313564414096555
-0.005157938798130962
-0.0202177563145755
0.04729129396981473
0.03587541701461336
0.049388550187507284
-0.024598992092674268
0.037487744509904386
0.008921813350042341
0.020030584483569102
0.03515443730652758
0.008222735429439328
0.023415856388964283
-0.04580915819196785
0.0015811811120715073
-0.03329458383093368
-0.03465301596800834
-0.0032216678911962666
-0.035408272415994854
-0.004386940803532156
-0.045783590983913644
0.008459429898880435
0.019968638843214693
0.037748913940013014
-0.003709974750797798
-0.025096312279875615
-0.004090423358845623
-0.008223889343780069
0.02688712311496912
0.002472506730457869
-0.00620984554383017
-0.04870350426123467
-0.016006960041299634
-0.05564390465807352
-0.027088811454636416
-0.04599044218716101
0.008728497342826302
0.04398973136107529
0.024572261100978824
0.006981159885442287
0.010354286626544739
0.03733265975226928
-0.044755672027875865
0.04058444047054528
-0.026700627597395263
-0.04873568362425834
0.014047178016312337
-0.005383106260937269
0.010327297076510141
0.06208510920975009
0.027389290484611622
-0.03414043196651517
0.020580796495925056
-0.02973919192827212
0.01084016187864505
0.03876698989882981
-0.020217042590693114
0.028737198789369325
0.0010980129502097084
-0.037937430193819156
0.0020773904446488405
-0.0025302477219529534
-0.010194716852160186
0.03917915471040215
0.05742243354266511
0.007076512297201265
0.05541669301984868
0.028191194584098377
-0.024637333610192623
0.05447210847386326
0.01729744362599331
0.0524369721622338
0.03185666257570101
0.013937299711241323
0.010974527854817734
0.038136714144637804
-0.013784964071247496
-0.03225877549300031
0.006018446639095891
-0.023601947063341962
-0.04904817036852617
0.021931313062563153
0.026249178483915697
0.04103526626858313
-0.042745761949772636
-0.03625439971828169
0.007901578821811245
0.006506785427679369
-0.03966657500752822
0.01835446189341171
0.048707937014221554
-0.014790678034394423
-0.04237758880064022
0.03498487668166205
-0.028553983057809092
-0.031462928274159904
0.01955180563218458
-0.03864415814044193
-0.03717255218197068
-0.016592398774482615
-0.04167179144432476
0.03413393005204442
-0.010181270203631784
-0.03073819001190472
0.039531515674327146
0.04179883622551635
-0.004878302781899198
-0.022443461506754223
0.04151297991006537
0.020264870437677045
-0.03523584439393833
0.046631799871927275
0.0075358062858804165
0.0032904195674292
-0.026020545544043767
0.04252317567032709
0.006753688917700019
-0.025637964634090068
0.04689002438917717
0.027270188043565045
-0.007985219232746522
0.035113651476054955
0.029602395153948226
0.0042728281730240346
-0.018604557640889162
0.0029950782423338136
0.021861201301485937
-0.02339611010807103
0.007791417018992303
2.1956109460468827E-4
0.017596939711467547
-0.011973933543800483
0.05134240366909363
0.007102615876753948
-0.013769673087839596
-0.004896869187544809
0.05081888599199511
-0.0031233789404424167
0.015177842947231828
0.052309434426025495
-0.033264472615324274
-0.006246290741078319
-0.044366288366970895
0.04561644763751524
0.05924510823366796
-0.02542184770929756
-0.032307747002314015
0.02237142051925692
0.0012562328735011205
0.007304047005187145
-0.014619872522685077
-0.028496589413711564
0.051940391005474734
-0.012618147807608325
-0.03779824138334639
-0.015302650754969312
0.04731996201960881
-0.024799069392477054
0.03607200457062328
-0.036307915546364075
0.030737053654971758
0.018114870736443012
0.03025500062823788
-0.017350278854213884
-0.03484107804939521
-0.03341201311529288
0.001460681454568543
0.03492662366534608
0.03252279772577499
-0.02584053975481503
-0.02633569013540133
-0.037477850766356666
-0.0040847334165834215
-0.0029099263885099375
0.05341523190392964
0.02563607808704265
0.04692638953573748
-0.0435104181254321
0.03090199950634937
0.03633742200111546
0.00584406143080699
0.018135411520082894
0.03502730023304668
-0.015966824270408745
0.03682624077957475
-0.04482168312105953
-0.03652274784029384
-0.03218828345433868
-0.032103136456863704
0.045577773380867076
0.01669003450141399
-0.006710714881462603
-0.03758768893566085
6.201673028376161E-4
-0.010251709586306928
-0.042691181807333306
0.0017860988576685064
-0.03192571779496464
0.028552574190150313
-0.021383389437142627
0.014560597330711193
0.05285685735641387
0.022830622951241424
0.028689797072475594
-0.039144804019429
-0.04358152902166946
0.043119918544291466
-0.02478541982564501
0.03834215929637114
-0.0025252644566384546
-0.013563291974766903
-0.043264410440694304
-0.03623045415275219
-0.005523641576155588
-0.02330208311197084
-0.01821954446909905
0.026128437320744238
0.00607796026370329
0.0044092533990074375
-0.012177249285320001
-0.01918265775507609
-0.0041581230502628075
0.018242297003608646
-0.01126730936517515
0.03864927961502286
-0.039136072764947905
0.014615856235644372
-0.010110607883254791
-0.04442033649866316
0.03249912475727619
0.02704798508921063
-0.0365118152450336
-0.008343700382529141
0.002461646211067872
0.025365724906007234
-0.0020761915837552362
0.03508374254052355
-0.030114088341401616
-0.004100790407446832
0.041210730463681164
0.00808544139802977
0.03916759699817698
-0.015970626598122033
-0.020284473636269798
0.039713855248063534
-0.004272651770610321
0.022749205285794584
0.002159891964014541
0.005456459865460247
0.04853208016843727
0.01419115433272486
0.013334345623796146
-0.013436182922403433
0.022479549765219525
-0.029123459440704883
0.03562666991397777
-0.044573425775316304
0.018270807051843183
-0.0460865660272391
0.006273531857314261
-0.00823505223618274
-0.007117923102515899
-0.019972247631504188
-0.05451447149442431
-0.0248162267032516
-0.04627402658056875
-0.06400347244849737
-0.003043706729653166
0.01993347634832244
-0.02410469341995187
-0.027891640238365708
-0.05451654506744105
0.03396576568374829
0.030378155162627485
0.052127791584352746
-0.04364022004406524
-0.0247419337339223
-0.008051472856495198
-0.028152573006680857
0.014726143980317383
0.037002263747168834
-0.02632627622783244
-0.0453732509642549
-0.03311536561322756
-0.029038681982888444
-0.020936628133995515
0.0022068160860899185
-0.044291247643556485
-0.03427037041822722
-0.02569879345481515
0.0159607030927298
0.03453665997445934
0.014412776493003017
0.031137620707892135
-0.004648734758015707
-0.03988733105040447
-0.03117798784904546
-0.049308056563964524
0.031509487798245
0.03977846810171707
0.04839714074372121
-0.013281785843494
0.01993108586274816
-0.015732680912858326
-0.01977426110906878
0.04588566904720206
0.054071030574701605
-0.035045209505798765
0.0012296934272026704
-0.004203815489983419
-0.042086717819794624
-0.042618806150843694
0.023441347365853477
-0.03169425800089154
-0.05105183492326381
0.03817361976338666
-0.010170150594312085
0.01652681958486121
0.03256224594992337
0.005134569262303918
0.021582738544854745
0.032084598990259526
-0.0395456041147166
0.006907655058182584
0.047757996846976514
0.04295981523007861
0.014349812461961502
-0.016071034756031916
0.001242512201371212
0.04688791399479641
0.04625968130244292
0.04377131237334963
-0.014874031007916174
-0.03273966654188633
0.04829790546447254
0.021931113023158536
-0.03536713329972223
-0.03186209178052805
0.03526915138143386
-0.015173325313619195
-0.04273001152493481
-0.03618756745921166
0.0382631499316652
0.03026386201540846
0.016198162034219442
-0.037210454129376916
0.012689034168505786
-0.016516903745979247
-0.009478902541220578
0.01509785065564045
0.02984126640868937
0.037855102991817324
-0.02382531122855786
0.043741158115662
0.011801525232980094
-4.577178820081028E-4
-0.019092092126731165
-0.04210754676223204
0.014788887601830713
0.045594889460629055
0.015198646546418153
0.023406946735835897
-0.03888800061751794
0.04614105494244013
-0.012370519661738699
0.022464861386396258
-0.023649113641302767
-0.011917671004500254
-0.01291748666963695
0.014233340552383051
0.03403854332076143
0.028014651734615103
0.03448598076307267
0.008723370510161222
0.010834022720483252
0.04710800349381758
0.01216064380331133
-0.03622276740670205
0.011991364469019479
-0.04143165957616493
0.01819233480172735
0.012403969874628457
-0.022382115737205926
-0.038862108352132926
-0.041477353756266606
0.02439587985022619
0.018048674413537195
0.04252970115312969
-0.03983311291565298
0.02081525442464327
0.03330866664615912
0.0037250667549897864
-0.026557912938896058
-0.022633194193235995
-0.038626263182997424
0.013300358206106826
-0.006917714698455802
-0.02486020202863408
-0.03724363639981429
0.025147146310297862
0.021210932884537098
0.017007105161882443
0.018566141217950905
0.010760645665375086
0.012311075425547163
0.04081723434506938
-0.027396391158856295
-0.0013403979670337926
0.008476256498491501
0.017257974013928652
0.020917592023932886
-0.0030700314938161134
0.006335723981669462
-0.014481652105047768
-0.016237012553513636
-0.04467348931946707
0.025425166618092333
0.018076289810349897
0.008859450317475934
0.03303269681716403
0.01028293182949313
-0.0032486893100992214
0.012499069810650139
0.013511059381313193
0.03286901243601526
-0.038707634112500666
0.04792763676756497
0.026539925515130118
-0.0344324337832569
-0.04053121336184742
0.03197289879735259
0.0310529786215499
0.03284179965433887
-0.012064569471622825
-0.014819998774229926
0.03034087537270496
-0.002455016737068386
-0.04049414640847224
0.035251229202466386
-0.0417191742510641
0.029727495194206036
0.016023044105875888
0.018429200222652178
-0.03343014578052044
0.0016366898410680546
0.041688610999830955
0.02841955493619737
0.026904516378200752
-0.04286032510056083
0.006808901392757904
0.036375555391649946
-0.014868860084882026
-0.046433697873105216
-0.0197973039754146
-0.006063109031536226
0.03520855947348169
0.029810166922008823
-0.02775187663482683
-0.027684116315543073
0.057400333529339695
0.007237734699427799
0.020888462223355875
-0.023889572967834234
0.014208699545458043
-0.01653693059651146
-0.0018018644431186813
0.028618206217502603
0.0415220942210498
-0.02204412902953829
-0.039845001385492185
0.04442406071240676
0.0562946517990473
-0.04091015019635943
-0.014110739049795606
0.05620226377006854
0.018497427722679358
0.03928226109287405
-0.027192761457786097
0.04293386785041602
0.02150643288226803
0.017826775364110876
-0.01225762720345249
-0.011670412701041999
0.015406255201082058
-0.035052058628151535
-0.03369130797286051
0.05764111953007269
0.031974747406881956
-0.04120080733622728
0.006583152330689805
0.02553515637475331
0.01965435551164826
0.004050949038296467
0.006933232247444751
-0.025129296729469175
0.015018038741007496
0.04434997264286239
0.04824354977638391
-0.006790881961630667
0.030641768202870744
0.013704963604133761
0.014163101478444571
0.0280596467536135
0.007600421721009992
0.0076326503099167645
0.04623255371023861
0.03993283731332457
0.02303377575515842
0.027108285814932
0.044887589930098525
-0.038954403624997844
0.015581933226686018
-0.003705019263815163
-0.016231899385096955
0.04668329603942393
0.0368002505655725
-0.01259115693187608
0.04071501067747907
0.047624920859973614
0.013989217026687603
0.002044246947694424
-0.017104636114553498
-0.028595732399385853
0.011639086144332624
0.01823243876467788
0.031872376777550206
-0.0062923165956972745
-0.020371043208535555
0.04320882729621426
0.0199785279121092
-0.04679905335698463
0.03239809244540458
0.011535805710518746
0.047192283384260555
0.04846439847474342
-0.04599513372980038
0.0426711634801167
0.043557211471949644
0.03781527627447432
-0.011752948072225277
-0.018893925802937618
-0.005152274164212114
-0.048329957430749394
-0.028167037961758838
0.030459894426414297
0.03517765531321022
-0.03970668851596387
-0.03790159783554015
0.04354776403969488
0.001309501339200379
-0.04270694031905206
-0.006780038971392213
0.032620597372664525
0.027192318926423906
-0.01878154694112273
-0.008314709076126527
-0.03116149575355577
-0.018389404508161244
-0.03852449179930124
0.01812542952441671
0.032797880489772606
0.006978203853617269
0.034560347631071825
-0.0359028243891462
-0.022240778224323417
-0.02639835062989719
0.04985001167736214
0.022450416206284993
0.04585156055412119
-0.016923903247362957
0.04868877993017674
0.0017966277853641993
0.010096785822541603
-0.0031880748452191255
-0.02077804659309637
0.032953198029923955
-9.20431014289085E-4
-0.022443902793424578
-0.006775737833696929
-0.033989909470632115
0.03655368454346268
0.04968141944827569
0.011145083464909902
0.006126432307740481
-0.008869871546345432
-0.01780434647187793
0.05212905968906472
-0.01825382987498716
-0.0017468336891355667
0.023056087267289246
-0.012086884641763563
-0.039812836802376274
0.02045110643739461
-0.01549177717611015
0.048116192487457306
-0.030639256904949508
0.03486742115623086
-0.026436067365656932
0.014495065799239775
-0.0163572233231357
-0.03612260334474812
0.04652311923712349
-6.920460470595414E-4
1.9007467635437353E-4
0.005887736491972717
0.03846632360737979
-0.020932995148817968
-0.04451090530906461
0.04904639773862682
-0.06005446375179415
-0.0322326411461839
-0.016751867261988733
-0.043514271792445346
-0.023562191188100372
-0.03509539599086404
-0.04743001733042625
0.006352912935401349
0.010474015174022409
0.027549907259228228
-0.02725824494352026
-0.045534810655099844
-0.05474874537434508
-0.0069692963986963
0.009107508424519423
0.005506278569109621
-0.008974708781254196
-0.014697087418720427
-7.868628679772526E-4
-0.007306529470764018
-0.009802573085423308
-0.050026566458097964
-0.0412960628542477
0.002873855693942635
-0.05159161397316781
-0.021173002391251545
-0.049679105591694146
0.0026462041820331478
0.02863639123747888
-0.03128597069922161
-0.030295122253465638
0.0456381918332045
-0.032597659124992615
-0.03821483508268481
-0.007213865295588011
-0.03315333497319955
-0.04826934205782827
0.020441326779641344
-0.0384353040968996
-0.026855413612247258
-0.04418881043161789
-0.001938723417548367
0.018250248685937373
-0.02074048820664014
0.027035039014137684
0.011948322674386065
-0.04045498709434521
-0.048591125225332044
0.027094485777838854
-0.024836245082750796
-0.05342445025355715
0.04688997825844318
0.025676061391138615
-0.011859291069695396
-0.05488680052329368
-0.02083107273660354
0.028434779056373535
4.3070003010369916E-4
-0.031053839508406525
-0.017090343816261677
-0.045026447494027615
0.04755930943598371
-0.022913921411311763
-0.043049844472802405
0.0350577240562384
0.020747184894818735
0.04904896101345021
0.023673829995093515
0.017415521803617544
-0.04119118231440821
-0.013932523129698546
0.02419756283891053
9.960514263628389E-4
0.03204160295211438
-0.050353042961776895
-0.025547820925567746
0.00362070524742185
0.038680420563416244
-0.010314367209310941
-0.04380989334227042
-0.012091774258319473
0.005592050930706665
0.031538630996263875
0.04627110895390264
0.007117578966640465
0.010511992239338384
0.03160320150893641
-0.006904689816738215
0.030588386708884103
-0.001177677700140942
0.03971982710789848
0.04200439157316578
0.021325136258285905
0.024033085156476973
-0.01304710960346698
0.03291294457268064
0.003244452491385903
0.006755563511235527
-0.012059335227125332
-0.025951709765464934
0.009178001008862112
-0.017382272498632632
-0.02817573219378753
0.02498239882366181
0.013848827517635191
0.0309106189945365
0.03444221202240794
0.04418127841849995
-0.025826289071397154
0.050622645596688595
0.011785618477065142
0.0459007255412256
-0.008789501391948281
0.02141418183258226
-0.0184611159951588
0.0331054462536983
0.01534843490673429
0.005001046462523529
-0.02221476905260962
-0.010032258055698195
0.02294372446034727
0.024387496814417806
0.004198184980098571
0.013636199689146434
-0.023999772568048472
-0.012515121283632488
0.02726067874587187
-0.046902687649604494
0.047190184468545227
-0.04931507701500612
0.05300182179220294
-0.008711951379258655
-0.021256343307072337
0.038946101377064835
0.010037118834426524
0.029955289616108143
-0.0281328123539953
0.03965282124477081
0.04857949587015319
-0.02905233559579379
0.06363941270612197
-0.026667138340169715
0.0551618976867823
-0.015702125989639163
0.015395630923929399
-0.03441671894297519
0.018662882003978355
0.05970902099752607
0.02697238853477187
-0.025934628377275084
0.03128429215380927
-0.015052271430836027
0.005779031584219275
-0.02097775031920931
0.04263865189224744
0.048655343833190076
-0.018225983884710358
0.006720154576912887
0.020256232776851044
-0.023097087123338713
0.0238263585651632
0.04336883901628518
0.03767062665024038
-0.014244766137443056
0.01752870546080735
-0.002271281316880661
-0.024171014316829508
0.005689233347092689
0.021751556325343327
0.03156108711404815
-0.03396915877037293
0.020046916916364853
0.026149097165227352
0.03558793336653341
0.037467192810064734
0.04805673080447306
0.02302000822442904
0.04546111968371175
-0.02635216447101677
-0.035328457799038815
-0.01571702499958207
-0.04250590439595578
-0.034653794494854076
0.015445519965744274
-0.011156736389249427
-0.03372482129284318
0.02446715736747336
-0.0023820015180025253
-0.012485437778743716
-0.03326714801284151
-0.031010184563839242
-0.036697027538121846
-0.00651234590760434
-0.03258531121728422
0.05098888869851095
-0.03927014434840745
0.002870483727692151
-0.009790794119021928
0.04973760702986752
-0.019642015267707223
-0.01273550002087325
-0.0061761582345371685
0.010604250546189747
-0.04665820866106758
0.03326488214068797
0.037358067780143854
0.028922826615235375
-0.007347753876974018
-0.005420947370218627
0.012961612211247883
-0.019911913709148667
0.0024824836571056444
-0.01488555597485512
-0.0027606073652996083
-0.026382438869084344
-0.027310811775630373
0.02380922067973275
0.0016276260681186664
-0.018767307202640665
0.05640773633468658
-0.020139539677347596
0.04553934550823886
-0.002589172516369893
-0.0065111718235846845
0.009473149875722597
0.02006129715473415
-0.01927340732611005
0.03087148357662098
0.021248516457016513
-0.04036699496297063
-0.025118556362810896
0.036041051210899115
-4.8059480155390245E-4
0.028632641600092216
-0.007400298587739019
-0.02039325483537156
-0.032242016886039115
0.0277689425878044
0.04708983405135938
0.01277990547721831
-0.019000381059211965
0.008928973473964201
-0.04649724372220661
-0.026168539227198556
-0.040758145916035965
-0.035336551896432096
-0.048392994515278794
-0.03595327738493954
0.011334923184001327
-0.025137965793907896
0.038262314217337834
0.04717531915110724
-0.03481415336432204
-0.04274942397194626
0.04578032987907351
-0.023042437798143273
0.039674719322842514
-0.022766884498864326
0.023482865553922167
0.03266129786698279
-0.014277754828980634
0.024696339676935478
0.0291235172229781
0.010502412610992983
-0.020886501073857894
0.026718839602520195
-0.022887022910289684
3.9630205754199386E-4
0.05229769612323819
-0.03578303513514094
-0.015322518258721496
0.01931913733126023
-0.030692564290438165
-6.599021348218612E-4
0.015035124323675621
-0.005880207947372377
0.01879326824652564
0.03260998449589487
-0.037436523649774275
-0.038156712446427495
-0.027078525403852444
-0.03475476408892451
-0.040378048004895285
-0.035151325857724944
9.289198804658695E-4
-0.02123746853841625
-0.013250335154310665
0.0441041815198266
-0.03998242424226591
-0.013412578442593784
-0.04802634432299194
-0.0032505953919268866
-0.040202594649379114
0.03845441660548304
-0.01173542849866998
-0.0550676912629159
0.03277520464641496
0.010887994518549087
-0.02248503089605526
-0.0231678297039245
0.03199588263228873
0.01715711362388874
-0.0014662371702440736
-0.04443554076522865
-0.018549845737896566
0.024778618896982397
-0.001059196949257357
0.013360290308023853
-0.0023445245725775264
-0.003926326784423125
0.03348355668530094
0.030282272304017532
-0.025240677497689212
0.0016664788254468564
-0.03913621827101778
-0.009221599560413617
0.02929256539765481
-0.031092534621339665
-0.007483209733831516
-0.03932141673130986
0.022919585462063345
0.014807503329865648
-0.03106632499600549
0.0349392674428297
0.042709347337351065
-0.004151377420868991
0.018388270065343815
-0.019709632540884023
0.020228967318093587
-0.04201603489350192
0.047409020615288
0.004771785166710401
0.02668674134369602
0.021537174331721927
-0.02237210557558771
-0.0325316120249246
0.0463673978132577
-0.02935589895277282
-0.022874400122305044
-0.018126329243237083
-0.021431310785744763
-0.021289999968612437
0.005408258318102074
-0.05188741388655832
-0.04538652235163376
-1.0282964698737204E-4
0.029796951752734176
-0.018243571350313872
0.0303421613205928
-0.03310655975756684
0.033346082402767596
-0.04794214680701186
-0.0258845098522595
0.023769583641595603
0.007048814742502638
-7.879567799535424E-5
-0.013291454435964228
0.019691431541636134
0.001693148552166073
0.05209954403217365
0.011428553254269698
0.026003864582392153
-0.02042247212822017
0.032145952222588044
-0.029251491835615505
-0.023972673312707197
-0.04440887540017306
-0.03612463699841869
0.023243263505671373
-0.007680963233992755
-0.024427806571595243
0.014841341551099816
-0.001651523931742052
-0.02683992745925603
0.022931231849847553
-0.03030701438214317
-0.03412622570322474
-0.0028762288686286046
0.02633657966939485
-0.0033370527305650872
0.04522684389503511
0.04706531739998424
0.04455307658558712
0.016857091397885625
0.013031385650211549
-0.009341506204471543
-0.027552205248476323
0.04438611747805812
0.04451026402811416
0.005877656650011791
-0.03591111842904899
0.02654125682583263
0.027925585509351897
0.02175661349332844
-0.04575910886372995
-0.03782641245863573
0.03616591406785524
0.032914631143704125
-0.030479719769800375
-0.04046196993842747
-0.04401674944669176
0.04141739552503545
0.03175609132311538
-0.02701965739785596
0.0513892156352916
-0.020358481423943472
-0.026156599489069975
0.03530707758864894
0.00886707584968217
-0.0037359115884872496
0.011943860240086299
-0.0158271551545448
0.001160529506957851
-0.012603732955012752
-0.02507333584550778
8.21139218662151E-5
-0.01598616484366391
-0.03421685635041676
-0.0460591848078234
0.008261235479183672
0.043726266067154074
-0.0010485242603050383
-0.03983687410065815
-0.02749351149261497
0.044426811187650676
0.02493138142829144
0.03203482701734233
0.04178333208318481
-0.0034059541755471876
0.033502325849720294
-0.023739595387305395
-0.036303848803534565
-0.050940809553568174
0.003029664657870542
-0.027523275030701354
-0.022887352616765933
0.04430167748647138
0.03462517848658838
-0.02615760592779549
0.02063721092467814
-0.0171010318139667
0.026603236114033105
-0.001123278258756224
0.0016094850331793199
-0.015896245057593024
-0.03588460518718163
-3.3327782656698563E-4
0.010323420170804813
-0.029413984426006227
0.006435283298149789
0.02026321251046476
0.019932233290559754
-0.03554569763724316
-0.026898368975420847
-0.001271937298501398
0.03686785740783257
-0.02398595768464412
-0.018952395915764645
0.03279025868259276
-0.025886528819852747
0.009176237202799163
-0.006945723454251422
-0.009722045272567481
-0.009588907579055488
0.028611136571272077
-0.019783001667655207
-0.02864264087811209
-0.042229816722570514
-0.015978410658375377
-0.009013075536006172
0.05558680176785839
-0.0027598354535576498
0.025159245375106807
-0.02662730967897733
-0.009500190926391278
0.01761860826675982
-0.01649150417879177
0.029693083154318775
0.017491298737718777
8.932241612443305E-4
-0.017813429109368277
-0.012477817999505834
0.0036573868869092425
-0.02418193437609129
0.017552707030062693
0.0087093260949723
0.028617443243437072
0.05087396209759961
0.04550497789554604
-0.003830462521391966
0.022173016772661414
-0.01091524902615884
0.029015672648984976
-0.03571869892069439
-0.03331089088877444
-0.034620181501679816
0.03284707356353893
-0.02605816778290472
0.052176363472513566
0.003864504666322033
-0.02812256395101866
-0.03323892936797812
0.04137769324025874
0.019117851208010152
0.05437271203012661
-0.008554262175465652
0.02932257808292735
-0.0063424263559559175
-0.02648269941623532
-0.03519173628985105
0.00390727472308052
0.04064867079952361
0.04213173495086038
0.035812596422069944
0.056474612827647985
0.025678623729037495
0.045125070576964826
0.03551926183277415
-0.03716867175105057
-0.006107254770833803
-0.029835827482204876
-0.030294985985490203
-0.03819443682137404
0.03801304221713227
0.007570118566848511
0.00356031458471595
0.006839649876120121
0.04708221280476412
-0.02417869691785625
0.04338167229961893
0.03558738895233611
-0.03448499397806315
0.00366744925402411
0.03894104687233886
-0.006872484057842184
0.013594066567443582
-0.027420451402219898
0.024347650933579063
0.0015857267234277107
-0.030720294227590844
0.044147403593895546
0.03860325235726551
0.032319695057704004
-0.0013677007500053863
-0.011664729272771132
0.026398194052881768
0.05041129556622403
0.020231982814181877
0.042623609061139905
0.0565487142672618
0.05549271500316427
0.020726057134026005
0.012360396620963164
0.05070008535092654
0.044138652499259856
0.0036289056220515526
0.03174166693214203
-0.007250129891278946
0.02510487388164513
-0.0361001031317859
-0.007855781234422123
-0.03323759579473328
-0.03217015250786693
0.011643267826172721
0.027931979847855455
-0.028260063862932856
0.024409741774633176
0.006924939595542305
-0.03166713222932175
3.917330579160398E-4
0.02409332428770255
-0.0014343104891590451
-0.00895191368602696
0.044143389525432536
0.03546455838757922
-0.038517265189481134
-0.01814373081465258
0.05403165151742889
-0.008014967855704267
0.028120753171748846
-0.022912514354577928
0.041538400360007346
0.05337837189438307
-0.024831748702780633
-0.03103438564327504
-0.031461266304433695
-0.019306207620659675
-0.019447498468012487
-0.04794129787950898
0.013329293647457269
0.015822422329568313
-0.012195969907329829
-0.02421705158987636
-0.02297214023721179
-0.04098936152651712
-0.008115815793261257
-0.0025610836289196477
-0.02657451668156951
-0.01855465198197003
-0.01885901260187814
-0.0382806224289464
0.0012452398107351762
-0.001619856251192044
0.03321449829753637
-0.021429265822699
0.05523059117201171
-0.015252094348492276
0.022993945251010665
-0.0318753245109255
-0.025583288827215653
-0.028589071194361743
0.022654596690698213
-0.020584096118601427
-0.001946889020173115
0.01908416867524763
-0.04105993418983465
-0.028032735152353515
-0.042524796236327024
-0.005096893702411323
0.049053962125887744
-0.01894523329582748
-0.031030696398160862
0.010442432420058705
-0.035151211860506446
0.05103428074049689
-0.008862439442136901
0.02115301878202143
-0.0423881246373376
0.03674055378614702
-0.040555960490447955
-0.007950629222614471
0.0314295182804269
0.02350120810749453
-0.03716579472846266
-0.02254183698616913
0.012631388892117274
0.019603334947617075
0.0023234812452944814
0.030790058147616674
0.013932989584859915
-0.0244700571479714
-0.04842206068683176
-0.040429944197949305
-0.00597413417350273
0.017397293209261967
-0.029663807404646247
-0.03634714139654409
-0.055225046379484284
-0.010597712928863414
-0.042495459087309756
0.02855512389699895
0.039224987188092905
0.031786521642055435
0.0026042090300527616
0.02245520700164586
-0.05852215292077763
0.0457524608913218
-0.006350281233985056
-0.05270062378000522
0.011648380725136796
-0.06884924978442082
0.01819148826356035
-0.03704245420342606
-0.054439197179034234
0.016177793861113735
-0.0018278217371196124
0.04233531372321293
0.017337222818188572
-0.022647618557615174
-0.019071447613657148
-0.04081504090437233
-0.04955446198153535
-0.027670390483069993
-0.04516925406552661
0.02706064779433362
0.04380282255555053
0.02419520334467851
-0.013826900311056196
0.02138599778468605
-0.005517006689621268
3.1493371874489784E-4
-0.041514972654450824
-0.05463484423934473
0.0387915731676026
-4.967844696273122E-4
0.014023462973686543
-0.019517045160208878
-0.028010977505537715
0.0024752427813220586
0.03728543616552677
-0.043117916912829006
-0.047593981394549734
-0.031712045283510334
0.03795086884264315
-0.048280514810586185
-0.02082694951813725
0.0278500489160933
-0.003830745312631425
0.03252222217949154
0.006653161292740501
0.035551938827008064
-0.026788787183848327
0.0046289459595293255
0.019604362647562375
0.018554975000879794
-0.029527920074818532
0.011174544057370854
-0.01301006518108482
0.025893100660624835
0.02858013873509721
-0.06199058973939023
-0.03717407034071647
-0.06180730748588755
-0.03150034887648021
0.034950254392387504
-0.05203346269598393
0.014318323883385112
-0.002380470635954406
0.002466630540147603
0.028531918073711804
-0.00480391356545611
-0.005357403166858827
-0.03540985625393429
-0.02167311138897582
0.020533938081750327
0.006473052006866955
5.597032025674104E-4
-0.007059512349803058
-0.0190773408943433
-0.052050707573186035
-0.051731131971808786
0.018816441304840083
0.017269885666815348
0.027127239405003056
-0.04470473219974581
-0.044505860281046625
-0.03136321497826804
0.0439537446313498
-0.028896687586243565
-0.04090272960173499
0.022488658496387974
0.03210269064001835
0.03665808446169703
-0.05143188837335702
0.03495900301834601
0.020039899396669142
-0.03148907337715241
0.01959530955576827
0.049145310425935215
-0.038372963387207755
-0.040188056960221576
0.046691224238551265
-0.017467793260270554
0.01532497142514931
-0.018866376218817864
-0.006067890619987785
-0.04238701806500377
0.002024488407979403
-0.007522385821145904
-0.03267902229348409
0.031025830919911398
0.021897240279722573
-0.02962911257391792
-0.03315587677254614
0.03962319358153006
-0.013312907514042566
-0.0023388998483259843
0.003151784673254172
-0.008465753380572837
-0.04459470708103952
0.006867254887581773
-0.03675395553779824
-0.011684283135960462
-0.013501125223646132
-0.013035569757515235
0.03527891079512101
-0.031191285702981374
-0.03283014604345
-0.011378596517062595
0.051537579504015135
-0.005725277496099574
0.009006512133779149
0.051190312093869136
0.017775020795961095
0.005520788923315437
0.04086689006549758
-0.029671999818055763
0.04410784098648767
0.03282773152007661
0.025124850066387112
0.018295044740676617
0.04210009260061193
-0.010736457898066064
0.03721619831045654
-0.02751596291423315
-0.036033757026584005
0.02934580082658363
0.027246894801457904
-0.03578336654276049
0.019875729701268465
0.023377995240185006
-0.039180684677469706
-0.009998655540416278
-0.043633989566511745
-0.011116169687796603
0.014048473721475621
0.021484308424995022
-0.0021444636632062366
-0.005946522130983319
0.049633643630078786
-0.020100365480601082
-0.03627055823869851
0.04393767527176216
-0.02714565560189246
-0.01776663485252235
-0.04462288906957701
-0.04712036929721322
-0.02946874968598128
-0.0028236829168212596
-0.0030890642074002856
-0.016628258773523894
0.0398227188551073
0.05200626490779367
-0.019259764271548598
-6.710274258562209E-6
0.052047921909895455
-0.02269144945917428
0.047855109201510704
-0.01828619725292817
-0.033908680548076775
0.0436334110227617
-0.027346168198840115
0.014169071098962531
-0.005422812991324769
0.03476257205851408
0.027955674086851637
0.03614453733606871
0.010426772700764359
-0.028589929706962725
-0.01880296359164988
-0.029971753228891687
0.011629137131211146
0.03390915955458141
0.04169634530961408
5.80260716128145E-4
-0.001213546821696262
0.025249853154429847
-0.010059822029803172
-0.026415270550373002
-0.031029448822304007
0.008564466540680889
-0.0036797506276133496
0.01935124334653338
0.03884907335286563
0.027558351491414883
0.013308742699076207
-0.004155914255522766
0.05826422501375053
0.03836396331773517
-0.0029901238466432697
0.035308616863377315
-0.022752606890946915
0.004453302089204929
-0.005730922813214751
-0.009178793725599523
0.03302527621591242
-0.039265013400490004
0.0012114886381686834
0.010140557774279187
-0.009937303043194602
0.019267889900312956
-0.03637390821017225
-0.018222212701711107
-0.022406205300746294
-0.02276656286646555
-0.03311819511975693
-0.04320981965326632
0.017912156139777605
0.012448482420979446
-0.019480676654538363
0.03274644575021545
-0.04107488297127824
-0.005614200777522286
-0.003660708501631509
-0.032891031674036994
0.007735868353427124
-0.0013396676274383488
0.026447835770533692
0.021651523548167302
0.039730518520925566
0.01156507443109421
0.018470912062053084
-0.018368182607146132
-0.04070954643043039
-0.004862540334091861
0.01783432752787958
-0.007100930810049811
-0.017172490142999708
