-0.03397864241741237
-0.04455263218576944
-0.04725486330437877
3.8120476624883343E-4
0.008800962840546926
0.06718461546076156
0.03396393304513936
-0.020999710345678647
0.026240908317617842
-0.024159172908872286
0.02292935492106919
-7.555955535319557E-4
0.059342732648209405
0.050943909820223156
-0.035679042217158376
0.037104436705747264
-0.04394950729802539
0.02746989416045046
-0.017689109907418604
-0.01098915910446143
0.022209514437299134
0.02713268693810728
0.02938857248689395
0.04692672551367587
0.045961876431344584
0.05234592326812392
-0.013757151691396312
0.03389703534046544
0.013024127210942824
-0.029915757945495978
0.009194821049219188
0.042286633761949674
0.050773191312361854
0.022117155889464564
-0.0030276423317206437
0.010256914267713886
-1.3265786909416187E-4
-0.02402502135867722
-0.01095436707450329
0.041068680872311074
0.04716819089015306
0.039514061418707766
0.04420181726753362
0.058650119590302495
-0.041540425217674516
-0.014434208084449666
0.03351592476541681
0.017918414112460614
-0.02968862399123827
0.014079433036832735
-0.04087748095998855
0.020235947223118503
-0.042540661710757786
-7.827554080235758E-4
0.032375972871144014
0.01982787157289687
-0.027128967402978744
-0.0342519211154994
-0.0025342140445709115
0.037701386787113794
0.015225246735199004
-0.02604352095958405
-0.003657631799850118
2.0782447089021162E-4
-0.0445100421333066
-0.0057457427550405
-0.02365713395775601
-0.014194600051999998
0.02810733815326297
-0.02726641097985615
0.01742361546511627
0.04176256965299771
-0.023706218330080613
0.0057425631823878175
0.04498079829960101
0.06021160956805692
0.01929013171772208
0.04523286189418163
-0.021813628258598665
-0.003868733163976132
-0.025598672192442183
0.0060053685072922035
0.009645617306435964
0.06263969412449874
-0.030138617621366607
0.022006373300715986
0.003138350648308539
-0.04252691263775679
0.0034081694789705346
-0.016705162147345926
-0.03352856875037933
-0.04757035415843203
0.03125208926579227
0.05721222173353695
0.04259460487073808
-0.011949958434617224
-0.04748152196049788
-0.010595701085778021
-0.005038058639481168
0.04739265836042045
-0.0256311835259119
-0.005669445571155183
0.02953558764081508
0.04767967765169299
0.008491941634038066
0.01268269350751083
0.006097195948979896
0.033492804887653355
-0.0024482744432927045
0.04932995158136464
0.05294109586261075
-0.028437696267287784
0.020419416115972474
-0.020184739410021878
-0.0356802011825266
0.017249499775857813
-0.029191732823328948
0.016685371305052082
-0.007542138607106793
-0.026212602474190248
0.02498158053578928
-0.010468558782429334
-0.006444495511225608
-0.051470334265189675
0.012906926238436341
0.007511958103456095
0.03267893244776174
0.0317987141262471
0.031082871832773477
0.04531787593066172
-0.04685315960770409
0.0051477041953398575
-0.04360652145089084
-0.028116438627854966
0.022199931703699972
0.03179490945563215
-0.009451956421344445
0.008494667335944792
0.0040878933657876
-0.022430718394258184
0.05234950141568232
0.031175200311729198
-0.0463291397962788
0.02052693960400111
0.016462055448964653
-0.043330399171613285
-0.04276283605045056
0.03068863597569739
0.036628098980986214
-0.008943024062574226
0.011296604899333384
-0.03806459362188417
-0.002727295089083226
0.04208834850228219
0.002106442159749717
-8.027264482293711E-4
-0.019210545457301952
-0.02387975481352008
-0.02712979431700217
-0.033298908974349235
-0.029082669901423587
0.04317788139049823
-0.006418287842444161
-0.03549740148803976
-0.03949096695983798
0.03370099603198712
0.028328707360509207
-0.006129485653089809
0.04978620468949383
0.023966159605084504
-0.01432631827826108
-0.01053530863744476
0.0192905006516463
0.009241813144704748
-0.025891744533846527
0.001951337366315811
0.002038430071196593
-0.01368800576254759
0.045301086756461995
0.007662718708457635
0.012972688338588249
0.049330503695452624
0.029531831826084612
0.01768472607113957
-0.025381034950078634
-0.03953941325768853
-0.03402449520073218
0.00585786838626514
0.0061978217504718965
0.01154478606178418
-0.011428257856485421
0.0010419666252011613
0.00859322529927656
0.006583844374016659
0.0069045163725977585
9.216752965729322E-5
0.027769456293568116
-0.017632611747704786
-0.02113555899884552
-0.04734592369275172
0.0472430563756899
-0.04804636763189255
0.048344159267369964
0.04410833941498953
-0.04654435380064204
-0.021333512392558974
0.020377785335678723
0.024228350183756242
0.011790009670609225
0.03919331190972131
0.050496106962694035
-0.017122737639960046
0.017773804424334707
-0.04269370986162062
0.009256893681405056
-0.039884525227259444
-0.043501722833063985
0.04558347135129806
-0.03531949150939544
0.028728362896885174
-0.010246740811024363
0.04382701540360995
-0.0059191325585770714
-0.02461917485414945
0.019355346360245017
-0.04942895126596991
-0.04200867616798187
-0.026401985618606967
0.015419475043399583
0.006432224675058761
-0.012953109260106892
-0.046583898425748956
0.027103580117977765
-0.04901587618647381
-0.022499682860121245
-0.013056087900558047
0.00681025747355357
-0.025714885317967656
0.041987177952519404
-0.030894929864126567
-0.0373419908397493
0.022905992080779525
-0.034762373387251654
0.026919969782471662
0.028816059073227103
-0.035909865132305215
0.03474106342053431
0.0024171665528944825
0.023349790927070107
0.016937209927477218
-0.040730890291979606
-0.020820592489017718
0.032334580345763836
0.01720700232566373
0.01062437009157314
0.007926912442836215
0.021943002470578312
-0.029160098188028217
0.04352847687487707
0.01803641800305145
-0.04542804689178021
-0.03484137383851792
0.013375657419337295
-0.03227208418507565
0.029791247219400328
0.009954108727174093
-0.03692594895311985
-0.030359998974320856
-0.010016911143005357
-1.3596270854100196E-4
0.0021972236467597372
-0.02080499451458714
-0.03362357090076291
-0.01584288545733964
0.0333447349266758
0.028169304718082395
0.02905942885389667
0.03857458009425482
0.029307602345553258
0.03656708410257108
0.04539048611889575
0.009732336700924188
0.002483205010077666
0.02545521632982767
-0.015861771829029613
0.003733182874391135
0.004418201958556841
-0.03555660208203168
0.016347676683133784
0.023698661773838926
-0.04738591703676733
-0.024641265807025303
0.011503433522637958
-0.021056816384472217
0.026864867850417695
-0.017523932597591985
-0.029236274590952432
-0.015203431495892837
-0.028406412678036865
-0.03702354726229617
0.0025202803034806882
0.021692679663013307
-0.020307811664627473
0.01952682389532388
-0.05464993278387957
0.0035244240120627076
2.293254530929028E-4
0.0012854651544515028
-0.044181676052930205
-0.04656724242794055
-0.001286957368793421
0.030967776659698604
0.009641941437814609
0.04169393382831106
-0.010066827332221313
-0.023093518846199115
0.04151554614814138
-0.0020946161126929133
8.546904193185347E-4
0.03489590281720414
0.04181665437058042
0.009297066710538709
-0.01512182047147784
-0.034570686735651376
0.02397839902341021
-0.0019659650148958993
-0.028507414035008283
-0.017116186093108374
0.04278898109097707
-0.02136882614043892
-0.05249563989925844
0.003908945527865227
0.013016139907763392
-0.009530486813987169
0.0061907092862195845
-0.04243563541267184
0.03633078339638405
-0.044527695445590904
-0.040240838656068666
0.015222378903151066
-0.02777112386902302
0.03945785821606913
-0.0356936211001682
-0.03360165086462023
-0.009698813357719133
0.027222349148734407
0.042664191651348236
-0.009119351274513944
-0.0024521427710346828
-0.04701745152072713
-0.0027311086961781016
-0.04181405105061861
-0.047963536742045634
0.02622748806308294
0.004064026302054087
0.028157020575306654
-0.04167481300104867
-0.02907160341149236
-0.046329181497782444
-0.04869759754374692
-0.011493122696468487
0.0053259729351728515
0.03035555856410931
-0.023639060452944134
-0.01610942247217804
-0.05373854485120164
0.017482900802200167
0.02008139946578332
-0.02638840529160257
-0.049693738049781166
0.013489410287106176
-0.035467133445189945
9.206546566042015E-4
0.01799112257537579
0.005484278913750166
0.015434169888075232
0.012656587770787119
0.010222272137573983
-0.025168957443585226
-0.05778876685716202
0.018777812596979616
-0.015493981451165987
-0.009185472280112841
-0.030219874203847173
0.0016403385895158073
-0.013979270841085722
-0.002876492406946068
0.02964965480267623
-0.04861383863251584
-0.0373287908069989
-0.027047929667620214
0.03795031569078647
-0.053615003354957294
-0.004042090470162901
-0.01675674198757798
-0.04685674329868608
0.0060967060453617624
0.04051148174915636
0.03629208513739247
-0.014841501484168348
0.029132290111579653
-0.028270206654726706
-0.028190053693637356
-0.04399828654932658
0.03298748478045411
-0.023067031690101214
0.02394860824031396
0.03915655446971593
-0.044250424219558465
0.011737576931056473
-0.04714661699882411
-0.04449019993942672
-0.04678907964475518
-0.030710214228391926
0.013125886435615245
-0.04432817987564445
0.043088203664376684
4.2131700559131327E-4
-0.014540832878558719
-0.04928459322094533
0.018486184349955706
-0.010594171817696407
-0.04425198721493499
-0.03539776290445717
-0.0244031044811947
-0.03954851101799474
-0.04631601558324807
-0.05474412090460362
-0.017522900959450673
-0.0038746059277111108
-0.03360507207479423
0.021921594411270076
0.01134585606393244
-0.0076681603626436575
0.01887394144274209
-0.011084909503265848
-0.049410970649205195
-0.020782805512620413
-0.0266222867961676
0.01961936064164475
0.009479419256496213
-0.0033812530073989017
0.01980294952803058
-0.011029960693831909
-0.012627342813689801
-0.038758513494353455
-0.02199034097227017
0.04293991324556383
-0.007122635611802799
0.03523083712776869
-0.02903594070950389
-0.04814330264804686
-0.03028275128167677
-0.046210168062494617
-0.002796496493029855
-0.0016407393806614316
-0.04634062680872206
0.012532095633124248
-0.014191287030412897
0.03909180085056325
-0.0533840899484252
-0.04821768739691472
-0.026058195195560848
-0.03487263621903409
0.023807454571175907
-0.0452004362306338
0.025804780949700026
-0.04183356216377623
-0.01706111422200507
0.03996807019557777
-0.011136409925861603
-0.024416367798947448
-0.023153424729946366
-0.010197215439104963
0.03692309744433796
0.021451227419845773
-0.03391673557562969
-0.04560850743464325
0.013272377574081487
0.034928072323622675
0.01657059015466781
0.004798232008188747
-0.025479209251271544
0.019680871599619468
-0.03532420900667523
-0.0025687454217899097
0.017634779909483443
0.03071822946151563
-0.04121718722900712
0.006599858038723434
-0.03266298758087208
-0.03550656211046475
0.0027983142823033054
0.02044603233270484
-6.163935929397009E-5
-0.015496139066934199
-0.005674562851103599
0.04430492621769463
-0.04579110157179404
-0.03841074151265259
-0.012967053013499845
-0.03790230167353365
0.04117145019825529
0.013358616092972314
0.03163023538583683
-0.039154998152932545
0.04589457988833324
0.045935932590451915
0.03279500999219031
-0.00209664393370433
-0.005552415524683378
0.0328983409778249
-0.00840870767653424
0.03260740883381149
-0.0209759057129067
-0.011944854216676452
0.029542518964874503
0.033252995800919
1.4193372597799984E-4
0.04228753894011672
0.026281005292520948
0.04965238953336121
-0.035196950535714575
0.008323125086959624
-0.0417187940121843
-0.025382303283083697
0.021881711175564995
0.032567247153516866
-0.012095394528739449
-0.03584976670099788
-0.013824678021249218
-0.030461188831318653
0.0067726260006067155
-0.003511425062322207
-0.015902585703225666
-0.02895219127517065
0.026905863835914604
-0.02502378740521466
0.02050949162060655
-0.014128014043136832
0.0286376570000915
0.007908470375509341
0.00481694541540941
-0.017669450107302476
0.028726367373282515
0.004908933737047092
4.494962791094802E-4
0.016090525830945217
0.024944466300217936
0.02690413594559791
0.013786379339318883
0.0011527467664000732
-0.04128939045439324
-0.04214986558125522
0.0065091335666215555
-0.013693246586566737
-0.02506104744608197
-0.01779902347234564
0.026135293632002562
-0.011489500107100344
-0.04330431501629767
0.027760992168844232
0.017162379171983357
8.740721231566529E-4
0.03785006365964299
-0.03024515873200177
0.022311952732878764
-0.044218611394366523
0.003109351526046133
0.04703350039085565
-0.01158979596025204
0.012127964578893966
-0.015050251733972245
-0.008668028392979926
0.010848935434894484
-0.03626600188148801
-0.04477536591496512
-0.005199998658033832
-0.04662161230634639
-0.04173172426144618
0.03665415210529842
-0.04913622554755972
0.017351224345967493
-0.03722265552785159
0.036408517242717056
0.04408025433275411
0.027511295773913886
0.004201643539767473
0.03210307066579459
0.021949889673494715
0.019355941621450115
-0.00973423212200878
-0.0176675246951486
-0.0375473307253172
-5.662322104591195E-4
0.03127832684003208
0.04632914460606388
-0.032031513418691836
-0.02360988349791813
-0.005410204560557974
0.01999249768053569
0.04344829588904616
0.008234967354773968
-0.04158735557340851
0.04122790771464323
-0.007791058468615951
-0.007722605279919182
-0.04461642222158985
0.028403221193384325
0.0310356439192713
0.044944097375202954
0.0025320393844827614
-0.03897405420815202
-0.03359989377169658
-0.007299025731298113
-0.010039857774531659
-0.012469071812434599
-0.014969289788083776
0.051005401184449184
0.03687526007429103
0.0014980322607152322
-0.02758467393693574
0.012861862418651917
-0.009510683216673666
0.05254059108182703
0.02609412294501541
0.001076332183091648
-0.0059435293575549625
-0.040425090182598135
0.016284534074509756
-0.015601423048253715
0.046339984208030933
0.013949687657120242
-0.017452929193624612
-0.042641539410946
-0.020535066551890066
0.010675640197686262
-0.02699439526390463
-0.037773173950309845
-0.001664730980187612
-0.02634835760225009
-5.97718420825246E-4
0.009655964304895917
-0.004884546035609633
-0.03180420674183395
0.022181791796205486
0.02342287644256163
0.021249152012588843
0.05046146561578615
-0.0076294857910481325
-0.00967610019932961
-0.026833527681029444
-0.009809543966955589
-0.0011722908207546993
0.028533439861741925
0.04598855780610574
-0.017248311718519063
-0.004588720219486991
0.029868061678640152
-0.017609548121453343
0.05260377548619442
0.039194133599192674
0.05773833861601645
0.03853976230299401
0.018836099426922697
-0.0016987443730508017
-0.018303568423527216
-0.035227113618525194
-0.014724842958064872
0.04469156851486139
0.05559792441362331
0.021748798969363832
-0.019351618415192978
-0.00854759601489483
-0.01957289959419776
0.02695302826830443
0.04302355389894214
0.018006276220669745
0.014382908919128518
0.04667262259947823
-0.017088512241122424
0.02012836378449972
-0.004783931160970262
-0.023311637768154928
0.055555863459329446
0.054479470456598775
0.01167305723982935
0.01414444072394833
0.05144596693788204
0.0071978332555144246
-0.034485630074304933
-0.03992444226118972
0.047534162475443474
-0.0359553862944334
-0.009927141823703354
0.03161649436173275
0.015271005029370838
0.024115412306923902
0.00119321167186245
-0.010792237791020811
0.03471041081885769
0.027862240170044614
0.01891964396717215
0.025589486080550172
0.040934788314311764
0.032909112537849006
-0.002588869578405929
0.036424606259855115
-0.020348246621699352
0.019936931207095037
0.007748628140276486
-0.0019427446306801133
0.03917567871831482
-0.007505575418461161
-0.0025688920153192217
-0.028307237712543298
-0.023181694335856155
0.03977512509990966
0.006194480418804547
0.04776332192168521
0.02071166821455658
0.011140779898527462
0.02975739589775687
0.059644512154921545
0.05643526410652752
0.046109890241629606
0.007854457453175
0.01819748061689417
-0.03127972819821455
0.05421535849164912
0.02568881410769856
0.033234601791505995
0.02656748608025938
0.028759678984554286
0.03945090086249332
-8.600845980118338E-4
-0.030212144612221815
-0.025874997860757826
0.04079501984893385
0.034891849136636545
0.007614358430749562
0.028175900437867038
-0.01904990264156976
0.049326550809530606
0.04898390048360852
0.03943698297924968
0.010959817285983645
-0.03714624839919518
-0.0024703428625367178
-0.01971450124695357
-0.026829283830393853
-0.03426745890876359
0.05004048333491004
-0.010878798225614664
0.00812772053104806
-0.024866795056650185
-0.0031947064478568747
-0.030452375629249438
0.009466117040022742
-0.020512533790148887
0.03921778191134254
0.02666062537218527
-0.04261548575031321
-0.045454742999488956
-0.046933930373367495
0.037547232322475255
-0.007209750126900685
-0.046635386178153375
0.02513637184545092
0.0262038138744125
-0.03059596095657099
-0.03817347559085204
0.036336714252532376
-0.01787105930146015
-0.016034734625217203
0.035898843184329995
0.023300750568088828
-0.03890196766070591
0.03513079205594947
-0.020839765752225056
0.01804950101342529
-0.028729455738292962
0.029591355398642653
0.038662611414759046
0.016104235348948462
0.04880076569873034
0.03618609191191524
0.050695163931498984
0.0509220926290371
0.02497193711779951
7.60022629769375E-4
2.8393865499049854E-4
-0.0251981416936316
-0.016382867738049603
1.1639776486094567E-4
0.03993208064068466
0.009681451979687854
-0.0396067566898775
-0.035189956714104034
-0.04024768305881355
-0.01260117032206096
0.001795713148909427
-0.011592946549923959
0.01054592445213319
-0.0067961748438288856
-0.010913500508234085
0.015227132097749814
-7.944398682969077E-4
0.016187316456804726
0.025481739749717083
-0.030747068303256752
0.0418412095101999
-0.005831687080690921
-0.015158849783189253
0.025688168331487005
0.021238772342850706
0.017454326799690396
0.03192705269019153
0.007802400177503519
-0.0012272147665373253
-0.03152400359810275
0.008803373194613705
0.009442852821672508
-0.015314879252227073
0.028073196643538877
0.05631706016213173
-0.032317496888844756
0.047430663325914064
-0.04071167632247591
0.03485030169299333
0.04537618344336289
0.0073610940384964485
0.04563562201202802
0.006616335914320989
0.039383797119809515
0.017679969056291416
0.010676391041188699
-0.014142775947091346
-0.02818568011543162
-0.04122510501102387
-0.018448919818217786
0.028469309993120896
-0.03494026511530184
0.025880356809602274
-0.030633857243045192
-0.039395203705440036
0.046737707123636646
0.009454633369364062
0.033419862913750015
0.0020852662127693444
0.03152080674063794
-0.0340258694181127
-0.03791032779581271
-0.005202472599069372
-0.002810256259362104
-0.02365405082327803
-0.0024577708013293676
-0.028409114910703404
0.04610190911368139
0.007697383856767851
0.015160562842027553
0.006678294076036025
-0.0325687410745406
-0.04294447060242186
0.030364850418629477
-0.021682644333303094
0.011399319342060045
0.024907329677154193
-0.023361943543828947
-0.04713758258425932
0.0276778557647203
0.025728183856224284
6.033955228207064E-4
0.014525796372208093
-0.018077411589342732
-0.046629006276291844
-0.04784836958030232
-0.041860630349936805
-0.043782431990497105
-0.039085746238336085
0.006211734644266024
-0.04674207171208958
0.00798747457211033
0.04439498388160753
0.0037574086406180636
0.03871048880629335
0.0019212841969291114
0.028128433277631676
-0.01669956008645169
0.005639134369138204
-0.04093315442865791
0.04215369372813499
0.004656005346774699
-0.014005909067020256
-0.03192149999999579
-0.01609557538227854
-0.02777238496979757
-0.009769966264234915
0.04033344732104959
0.03454581592276534
-0.0029848423438835294
0.013884789127856153
0.018487967229993952
0.02403675177089917
0.026195264885850406
0.022848155990241606
0.0031833087358641493
0.04287299720033208
-0.004911464968103189
0.002496066432472022
0.046531611512298406
-0.0046307356491150555
-0.04774843606262046
0.027297349159899863
0.047151498390383614
0.034533776145482496
-0.031127877132717866
0.04817759662205363
-0.0344675745635783
0.0034844002605861984
-0.022701849059323466
-0.019014813015566727
0.007976581009748292
-0.030706226646364045
0.04882683539331044
0.04377882544225631
0.009900322760806999
-0.02710529172541674
0.019605812303367002
0.03648430477376076
0.03329366611649616
0.0075352029320340935
-0.02283866397967653
0.021160355097949918
-0.004375936852260497
-0.05314200089679747
0.04280142800384301
-0.0505946765058754
0.007954451940112652
0.015203654380773188
-6.528107751938707E-4
-0.03247882042721214
-0.02134728415356119
-0.048688907143862155
0.008335211008976303
0.010492120423704293
0.007604123739833298
0.006292629455807352
-0.002135622513123544
0.04721380213086834
-0.02746355762437587
-0.042563157842975055
0.009823178354838166
0.035216698881865044
-0.004845765307786688
-0.025749053609187052
0.018525900275937705
0.018194012570871148
-0.00798412931138521
-0.027664432319911298
-0.003027582164187352
-0.0024558175628063847
0.004522673244173217
0.04446860502822222
0.032651616398750485
0.013319547166625046
-0.02197235355377467
-0.029025124740749517
-0.021759913063283853
0.01267784159557583
-0.02627623274487077
0.03527974794839516
0.02249381618704772
0.006623889390003834
-0.0230097164696144
-0.03691771563544629
-0.014969579970575929
0.047000138504486484
0.021600457962130278
0.04608303108328708
0.024138945520174197
0.005712168579943593
0.026509501463709676
-0.028562082339940596
-0.020338673747296608
-0.015805445641227753
-0.009328422790994143
0.004333288869744316
0.011581580444267945
0.02398725971259069
-0.062203615023021776
0.004179990913034155
0.0401234888078449
-0.0029178116698497067
0.003523958545774528
-0.012035455757129223
0.037942524874058636
-0.032510523754092545
-0.04469546776718599
0.006540842534852542
0.03448503638347693
-0.00918903649174252
-0.049914627518277424
-0.008499850202569003
-0.044035060996527216
0.013961061824651606
-0.014058431773167571
-2.688308347307986E-5
-0.017274936479776876
-0.048989593871840445
-0.03477391728049346
7.097191263832734E-4
-0.04438677400739937
0.026022712065302184
0.00294869733735185
0.027039663982956003
-0.021459852044457658
-0.04283527370739021
-0.03459960354961761
-0.014109368103346924
0.013336404118056781
-1.6462611292412187E-4
-0.005834252356203093
-0.03964606612717611
-0.018911042700090423
0.034107743894744885
0.03126499833541336
0.016054532538884735
0.017049437725634695
-0.013019320476899658
0.012547108671325554
0.04265054027403773
0.022673998004451874
-0.00926858754031147
-0.014670442761958516
-0.04635760636941024
0.035496561990940693
0.039228421789108854
4.213806910615891E-4
0.007960868544202599
0.031111201792143134
0.007061630931305653
-0.006299827200334917
0.037403646744677325
-0.01773826896585988
-0.01712694115900246
0.033938820180781794
-0.05156210071718698
-0.04369296601674207
-0.03936476913464472
-0.012355548113250594
0.01437521081980057
0.027954118873864814
-0.022684776963620302
-0.009856498582375008
0.011529002800429487
0.04387652851306193
-0.048104683049495695
-0.013009239671139494
-0.05278883783323157
0.0017231136598865155
-0.042513305117504195
-0.025988067444485553
-0.014324078267815529
0.0029526986512586058
-0.04146141388858822
-0.0064767012420371825
4.8517658081552917E-4
-0.047684659879444535
-0.04815005180367661
-0.0026450452452660006
-0.004418882400667846
-0.03444996383168444
-0.02295845037448718
0.04427254964207394
0.002363751974442396
-0.049182253178199256
0.020512663911704785
0.04442087091095529
-0.037980419423422784
-0.0371074605995239
-0.04154133115663639
-0.0449298744802843
-0.05591104159796515
0.002256644220328748
-0.010908184009300834
0.017003607592302926
0.007796921848159483
-0.03836504865513189
-0.00754489535716618
0.04179176788341807
0.034872042517414825
-0.04027700012875542
0.019584859032128876
0.018336903218472377
-0.04389078138409931
0.01175350273176929
0.010244420573850093
0.005100794855868951
-0.024114528745376184
0.006995653702152804
0.036719961368488575
-0.04532688672467397
0.0405421233559642
0.01921241733527844
-0.0023755449513950767
0.002054456474230701
-0.03719933936183577
-0.02661685005480857
-0.02758184938080729
0.002349590691894456
-0.02722248761428726
-0.007960929231478208
0.01733633361595955
-0.027599906411969098
-0.014851380618859947
-0.022206629929523956
-0.03827234292622428
-0.03052470527179996
0.033161911071506164
-0.051558313456435245
0.006849192779021563
-0.013703803552511827
0.02619948368876447
-0.0320917860506331
0.013774095164239665
-0.03320895061915023
-0.0296689534114782
-0.043282803707515
-0.012661153431461228
0.006063166086706005
0.042489530659678414
0.04233488967638247
0.03934573043540684
-0.04973873387699046
0.042495510973610706
0.022948383775451452
-0.05001997369357801
-0.023627933873841832
-0.01294902232771228
-0.02124461589244068
-0.03957462136593122
-0.03250884286901176
-0.015603030002011865
0.010597228414738596
-0.03218274064960343
-0.019011333464725815
6.539016183394095E-4
0.01130073202207139
0.012488952683898122
-0.03411484665121629
0.009757792532590397
-0.02675375690830605
0.0017537210165348923
-0.036399171757424395
-0.031172729395065272
0.013735868710523602
0.023733855892574224
0.0037558053919607816
0.011430889969182966
-0.039603489716865746
-0.038193594819764635
-0.004655637731165798
0.008574312251806443
-0.01607711220647806
-0.04131782625851099
0.03289752282659774
-0.01109014372792757
0.03445141681862656
0.035477262329203556
0.042498645442209805
0.025381784424769765
-0.01631311805863777
-0.03079241769606123
0.03266721010581983
-0.04599704192744458
-0.0270556547661294
-0.03966021691134127
0.019126555196207977
0.00603689388687586
-0.02037228935775246
-0.043890042202373615
0.003954940064564961
0.04275178876908456
-0.03580999697793352
-0.004842231016346916
0.034657777492484096
-0.010542548263148797
-0.037699019170766214
0.03954594469578862
0.00262831191618749
0.008596146906320684
-0.032868373756641936
-0.0164914133749243
0.02980108342762856
-0.013437253949001944
-0.026927846496273288
-0.03440681601096252
-0.01936596916979053
-0.022729557850137676
-0.019867211685404982
-0.03998026810800716
0.022723117593298786
-0.020246588393028075
-0.05030887629842675
-0.02842473911829865
-0.00567041476496141
0.02277622539104985
0.03178626796907513
0.020536534340704432
0.04635892537075471
-7.536911648078744E-4
-0.028116891869566136
0.041433361593709306
0.049475610278564744
0.021657821521725337
0.004663645930923864
0.046803317790773756
-0.04511667192007727
-0.029881150917757216
-0.043232599126110785
0.025891167465259747
0.029424877874387065
0.05180246338010982
-0.035216821956857915
-0.02169569662162066
-4.2589365843916224E-4
-0.035309679629678216
0.047942225254669645
0.03943637976264467
0.025602890892881636
-0.03604945372721538
0.0024403659522343156
0.048606671001289875
0.0442926506666913
0.018677569987255466
0.010167687547701774
0.013726399582844382
0.021361938895295404
-0.02383055702351334
-0.031304187911547224
-0.0470030229641428
0.019179613390841413
-0.025806179755032896
0.007911648027066016
-0.01015681630910611
-0.04300431451548414
-0.026124743506390432
0.04233601833341441
0.015536600363251944
-0.04035090902798216
-0.020937316306343916
-0.007928794577820782
-0.003149609656589424
-0.023607963691885326
0.006052602113644754
0.0441947625753107
0.009547239041219471
-0.0038060562386417083
-0.02055881158707679
0.010097427900353484
0.04263630466731715
0.032698021168892456
0.013145316500911107
0.035698193482695297
-0.043234991994174264
-0.011922023985182785
-0.02613914612691833
-0.045147861148153674
-0.006519114618175617
0.05164961486219471
0.04721865982147414
-0.0460596726439323
0.03819112220360225
-0.019665430024680748
-0.022115218209658123
0.005081296312688994
-0.017701272899106387
-0.004723855168531901
0.03902118723208227
0.02849050773605468
-0.025460889329427153
0.006294162796677483
0.0038142269270776403
-0.010710753072655541
0.0061111043163680065
0.04150730314593184
-0.02431976948506845
-0.041943034483650915
0.04590853135253994
0.004159913812276817
-0.037042674230121905
-0.04250256386921149
5.027523999089487E-4
-0.004143757645783488
-0.03152008691181414
0.021773026522725322
0.048435792151289625
4.0721895392297137E-4
0.03556672562035752
6.642343594535943E-4
0.019592229766646017
0.04177027756481577
0.040414449586651274
-0.047612310616614396
-0.011904422631497281
0.004814008953312921
0.0150098183929921
-0.030893938809243203
-0.022792966251081733
0.02960951397438553
-0.015881978966250713
0.011754981541603536
0.04740244105518791
0.03905894889659395
0.03260146805997921
0.02924407545795805
-0.03081298326277959
0.051878722204151115
0.015152711244997119
-0.014563712306344926
-0.0013452641365038248
0.01672551686921006
0.010623745224711356
0.04968835075683331
-0.02813868924351464
-0.006256629799518178
0.04108744656375805
0.06414792823761027
-0.011401996401131875
0.002220823781068693
0.004978258171056552
-0.017568568407697657
0.02135210720137297
0.021101175236267297
-0.01862047519171472
0.02576340162065857
-0.019733681964515165
0.009358274651663721
0.030267170383240647
0.048567694870763324
0.004781301454752626
0.023846961747896644
-0.005452797477994089
-0.020020669201947564
-0.04856487813080928
0.0037591896442216283
-0.047693580653372786
-0.04941065500740063
-0.04329132033610882
-0.03303096714287549
0.04218318561535205
-0.017778959312117353
-0.012590720379172818
0.03577678012186154
0.04412604208263516
-0.018141792783554402
0.0511987206486293
-0.01412859348672715
0.016699880585651472
0.0068122037904196535
-0.011910776602078142
0.0067852917741653114
0.008026080369247587
0.01179587759995068
0.06365181043699622
0.048706470871960575
0.046658581048673466
-0.027708981293940366
0.0180570055658853
-0.03163875791587107
-0.023048032611758192
0.04913483424229547
-0.015099071791821099
0.04970291592781112
-0.014049772814579663
-0.02415518581627217
-0.03493614108363603
-0.02748134694244481
-0.012886627298698577
-0.02863469238256666
-0.012093726716652462
-0.011185196498239505
0.020482631903831428
-2.1563127405932583E-4
0.032792232374769345
0.025654281314929177
-0.03657198142444289
0.02892873340732858
0.02804895493515972
0.005754758895258117
0.028458194345638486
0.0074785526333213176
0.045976943540538724
-0.009315710207531452
-0.03024998650248878
-0.02427374024847787
0.05160665480808084
0.0453945892935723
-0.018845700059180022
0.029422941690322633
0.010687477220624348
0.006486897120611568
0.031250080078747494
-0.03566796518842312
-0.021479340827931136
-0.04760650656086885
0.041371159234719165
0.021463607820036187
-0.01159143987893577
-0.010361367077013336
0.04160821655926597
0.03971869624590623
-0.029722595652534718
-0.0013174471363796422
0.031639452314165414
0.011330275704279835
0.003698028462536366
0.03505159442856702
-0.032710506609186
-0.020592873083758945
0.01772006946797224
-0.032586859306600546
0.02608535516918896
0.007392328447305355
-0.03609751284851695
0.008151919448150443
-0.03052437391008962
0.005812119500213796
0.016534837769304773
-0.011594187441266767
0.04468175249007661
0.03221292573952743
-0.0075098852564514495
0.027344138280980347
0.03535228976769155
0.007462744818105544
0.004321541449701862
-0.03294880640522682
0.05218272078412798
8.132680359165311E-4
-0.027103058237990012
0.03864627105642703
0.032675639725310505
-0.028926092826244146
0.04221657852002591
0.027850436020805423
0.03757157516755185
-0.005202558771643666
0.007506238063835543
0.027389576539803274
0.03060297049627285
0.05417571422196212
0.0056348107674967654
0.04612078150008406
0.04211356084885773
-0.03858048354069174
-0.011705464463511716
0.014815007934715855
-0.041058051343726205
8.448235110032769E-4
0.005415573986950911
0.023680653829409287
0.029075731938243515
0.019492271460090527
0.009343506737140704
0.0022440143736049195
0.020793056000223516
-0.024908221724925413
0.036944941069847734
0.00899193271954958
-0.03670848986815611
0.03255823342586222
0.011391688157160022
0.027871754345843453
-0.022244819516272326
0.02772696170040335
0.0368025881028681
0.011540404496325395
0.04649632713906643
-0.010748442141418145
-0.045494470012347694
0.03679828160393043
-0.03643911653074886
0.031184125218917617
0.034763268175281255
-0.022407724823691744
0.04015152375556676
-0.011253233804083688
-0.022467216677466983
0.016795390829645963
0.02510571334699656
0.016635801011014136
0.054275898056705005
-0.009056356500625732
-0.008554782565791858
-0.007942985888900885
0.028127319410044847
0.046139591934302816
0.0359713452675612
0.04063695191659421
0.006630296723510998
0.009451615218577562
0.044434363520446156
0.014245092252533937
-0.025703124197327197
5.667419300480266E-4
0.04762121848220704
-0.0180167462366304
-0.014204972778098915
0.055831891723268155
0.018209419245090036
0.012716823378323097
-0.017725838471235378
0.015322988507429827
-0.0010280706452871803
0.021867509562235096
0.04291080952758857
0.008480323247812291
0.039431397636498396
0.045889602524610974
0.021999462185724367
-0.04473014323574291
0.01632235265928537
-0.03772651988035279
-0.010871843533839095
-0.04797613703599688
0.003680684818618481
-0.04213235218776226
-0.013439814741178363
-0.03141521686742478
0.041006625138542925
0.007098249371092633
0.04311440984641304
-0.007929554346847426
0.012056317034808979
-0.019392443088785103
0.018585830350255305
0.04607183868378781
0.03842728776353038
-0.0487079511554631
0.03196279719308018
0.03556308969365561
0.0047126389640654645
0.018840187862278403
-0.013795395290360722
-0.04140594370633767
0.052371517566123
-0.036884865973739626
0.03726077701203529
0.02952239712993442
0.019384244904075865
-0.03851352805906711
-0.033024910700646656
0.021990031122914425
-0.01934279822981531
-0.04697282311069789
0.01003259469355874
0.029656078276976142
-0.017707444247820187
0.03091521230765847
0.005008484994765049
0.033955829600175375
0.03338840844507484
0.004620711183901045
-0.025739600552622727
-0.01727381342479383
-0.04707526806971369
0.021318632111459252
-0.011308723868619273
0.010250962427935759
-0.03242068562713792
0.03856931293943032
0.014858989753493507
-0.03530746919267066
0.00292493386989432
-0.03211554011673462
0.012730072757235632
-0.02233299811580471
0.02822609447491421
0.0056428930374462
-0.042471258320789525
-0.04174437720675373
-0.02637390103249823
-0.02585620151617258
0.008310957156892836
0.007303919756731683
-0.024053342246372424
-0.03137278481048248
-0.04792480017934838
-0.039211358736048536
-0.043093125366315155
-0.0253692800128086
0.03561685273892623
-0.02746437379195209
0.01474230534440294
0.03088773149058958
0.0389127362877911
0.023906522440111894
-0.04852186723256949
0.03556483182467409
0.046992662266570236
0.047713477870969405
0.04046002802089782
-0.028474493129676207
0.028015031003376403
0.003897782922541369
0.049859996117449346
0.004040452957829794
6.314828991857883E-4
0.003830030510898558
-0.0466301268095206
0.03956278980530071
0.012566111508505338
-0.022799404392341002
-0.011284493026197905
-0.035387076244262745
-0.017062149180592054
0.003114518963264878
0.04230278616686
-0.018080542668539482
-0.01294565919952626
0.024205399059858024
-0.007629178829319673
0.026619283174166966
0.03563600294072658
0.03783888134151819
-0.04953404223448859
0.02939672534882437
-0.02580003707973496
-0.060104559565180696
3.1401585472291837E-4
-0.04428510512683325
-0.044558662905912025
0.01433134663859711
-0.048975571270172165
-0.014438931087850099
0.03209926428509383
-0.008401466314751131
-0.024840297237408958
-0.0026557263563345957
0.005778999078085667
0.024221663432666383
-0.04806874263934939
0.03515635922289863
0.019998632374291902
0.01603477872598006
-0.04261600484302219
-0.005885290974464242
3.777972103613729E-4
-0.01833348949167088
0.0032781351276377595
3.788265633471034E-4
-0.05432933810003398
0.025713116673538445
-0.04941458034611474
0.01249752972583266
-0.004967709240658032
-0.03997023221995015
-0.049833292840960386
-0.05036148382240968
-0.0041959476090443456
-0.007949083703719023
0.02855175978764793
-0.0324429089245879
0.006193682893308399
0.03587319741448483
0.010636024910565128
0.03213697180953435
0.024206921146233133
-0.02109249890322782
-0.015037539524323624
0.02100391968502902
0.017434672736445316
-0.013141631344655805
0.025513758079404345
0.012508227475843006
-0.024959733381914203
0.006473524893102507
-0.02298415797894163
0.04501420862040041
-0.04183109624186315
-0.041060799974991374
0.020813113923546615
-0.024823445371858634
-0.05206292558893167
0.015222523721820258
0.00898313936213078
-0.039970169527455475
0.022413870284034913
0.029732284631956724
0.012835293736383448
-0.005128776404796151
-0.05389743566691862
-0.02293895842959766
-0.02914331465223886
-0.03286589603282188
-0.025888032443118277
0.012245484681966269
0.003481424277294559
-0.0032694669388233515
0.012278520364629607
0.03795103382473589
-0.050060737065198285
0.022450507673880016
0.012136173227917978
-0.015100527746680966
-0.050184344224584815
-0.0022051892398376716
-0.04683106110774467
-0.030200941915948222
-0.023623606273018558
-0.021446718124332666
0.016383630168246312
-0.04873780320298343
0.02633924170540197
-0.03734436919241293
-0.010354031921913765
-0.040320312365832424
0.02772396830605868
-0.016110496564320575
-0.0036984132369631975
0.03486993917840329
0.02569255317203521
0.02723326305312519
0.005309307522420473
0.04230364987649926
-0.00649542762979783
0.001647575006476531
-4.7766305038985865E-4
0.012147821413184856
0.02079583109657236
-0.033257562011056674
0.0398414607807398
0.022434649522670762
0.034334120595631415
0.0068306318836311355
0.03272693461137077
-0.03516923849674869
-0.038245695527500706
0.00432538328927328
0.045697021623784556
-0.033828840881420866
-0.04062830554283378
-0.05165161496686352
0.012123844725560908
-0.0253673292038938
-0.013559775437448029
-4.6404644506633076E-4
-0.0320091392248855
0.02703277271903942
-0.02749874568379226
-0.050153242006520896
0.025211902375597495
0.030023707397894582
-0.041100978092957215
0.020450809944278312
-0.01968521369530084
0.01237827530834885
0.03497541835502327
0.028824494787471133
-0.030792973209568187
0.009593983648710702
-0.003412270928189467
-0.028422965377939324
0.004954648388237374
0.016094693978231597
-0.03883039682338225
0.0011255564861468374
0.011415303197694373
0.034888662598197465
-0.009439544032079836
-0.03676832038796699
-0.010188143872189083
-0.015386235011515991
0.043104537010396904
-0.012936587018232752
0.033387936168631054
0.007914912699178104
-0.023624569853362993
0.034664982431490333
-0.013389653410178169
0.039103733653069156
0.030074709092318894
0.019972411169315935
0.01170765472269442
-0.018585475670975286
-0.020568513800849248
-0.006167172333511465
0.015052962565784072
0.018657487724950787
0.022382449213525613
0.002337889276522026
-0.017087951741532607
0.028195164247539626
0.025576542258595993
0.006512935253263902
0.01316049124722685
-0.023775489227734658
-0.007491703311300544
0.0065432080312195365
-0.011579326482066605
0.03481633001835616
-0.00337889012714278
-0.044686590098337545
-0.037825392943779665
0.008744104960074687
0.027437441885447347
0.0388632748955642
-0.0157656503679771
0.04026863655645763
-0.0426109925612426
0.001507688963264368
0.022794291820219748
-0.0030274046646731907
-0.03535260182685505
0.044666537312508484
0.0020194236653282016
0.017814497502838724
0.032031998795544026
0.010609344909369621
-0.016160121660049705
0.0505548392403035
0.011302434912352834
-0.03156111434590529
0.004020378129750337
-0.003432815810679129
0.03866597444354294
-0.006292950214142318
0.04546662634970238
-0.047011321828649776
0.006207250894034687
0.011970051671223631
-0.036630598792459924
-0.018927286168799556
0.02472443397584369
-0.04754978105334327
0.0019504125755538692
-0.013578706279067031
0.013609608077068397
-7.960386222505174E-4
-0.02795369074019092
0.03771715508792591
0.04910575689898406
-0.028709735712195112
0.047177247623090064
-0.0428618632625066
0.016660756975863153
-0.017629221537629493
0.02844436040753393
0.03276875574593058
-0.03674165153233865
0.04469238046487364
0.03242283297566625
0.028652109941578723
-0.036581244822698346
0.04996890406374756
-0.033082794386548896
0.02815951346815796
-0.034034422983928794
-0.040567737637778094
0.0040945157580753976
-0.021328323007128246
0.007603946949393205
-0.0031130053964783127
-0.03006525152631407
0.02945483768555354
-0.02918981473552888
-0.004075907600688929
0.04000992624194833
0.03678295106489632
-0.044874242106386825
-0.03346680923219742
0.028869133444267128
0.025446414602814892
0.042588525731105
-0.009068460731398071
0.030825042659909197
0.010438148060437337
0.030471795583499568
0.03521932251219904
-0.04530487633230381
0.020178116477961198
-0.027837233064976808
-0.03915213730081577
0.02046691185561589
-0.03250673067750501
-0.04092645158620385
-0.007165749396000434
-0.009582143374755903
0.010781122275415198
0.003824836451923288
-0.0368110232995228
0.025148674696647107
0.04013947136904881
0.04940004471278243
0.02182612537606485
-0.023833990541492517
-0.03205820772700163
-0.02667694311113449
-0.04098661021967062
-0.014625877134887942
-0.04727731239536106
0.013898051879711217
0.016618092957927634
0.01121990715240267
0.016863655961640016
0.0033004465220255854
-0.04124691880703037
-7.626174635944188E-4
-0.03741689102826551
-0.009519781598841353
-0.001859894020800469
0.026127050399526872
2.8100821661848543E-4
0.023748091639260734
0.017820957504955954
0.0020847670776629828
-0.043863868152463986
0.009641009934622429
-0.0334533759517284
0.03349544620997959
0.044939850399531724
0.009961563468631626
0.016064791637422894
0.04698860426706882
0.016763401280102008
-0.004349893583687101
-0.032797033769546576
0.02751615910834187
-0.007730057207494853
0.04061865103113841
-0.0062720001476991565
7.972880350797776E-4
-0.01438917930908387
0.02689722937714761
0.018117133690295068
-0.0064553846511024885
0.036836580594796546
-0.03762691806821311
-4.493340374023328E-4
0.005269955507661686
-0.0025667267948006924
-0.02094422724578912
-0.023357317889380926
0.04871036352216518
-4.4755473518260383E-4
-0.02249382300648508
-0.012034507300062204
0.04682072240734391
0.060268233359286785
0.004782256506245534
-0.03347822171975985
0.05854015765615592
-9.944107051855231E-5
-0.0107915340640248
0.034779530870660276
-0.019806849665594727
0.015906739900306884
0.0057466414408608325
0.0508807509158793
-0.04260798839183236
-0.011506267776752748
0.018530855617039415
-0.035985265470463816
0.035929415007078615
-0.022301704509448544
-0.031852061905719035
-0.024068744124840533
0.03645312225411298
0.005931498777430079
-0.04314243793329806
0.04149219171734433
0.027412169399284366
0.015341805378602295
0.014942496004248448
-0.02465846607925866
0.029023697821754256
0.049409817516103745
-0.03078385691079197
0.027076869261350944
0.040679434375198956
0.03443824131151869
-0.0015793717291607496
-0.017557997280588707
-0.007734237282057876
-0.04399244906095271
0.03841782584757392
-0.042068560747338585
0.043729753788491435
0.013940531820043709
0.016277487316010857
0.023261013377245766
0.03655039198409958
0.03186126793672933
-0.005189486968120413
-0.024088229324881694
0.03427222542043791
0.018757318707240022
0.026474415972936666
0.05427983463520733
-0.028089573018065278
0.02394570591911278
-0.022372762865440723
0.013036682836254424
0.02156229477507252
0.01936272344221468
-0.0010699585583644824
0.05508329760634459
0.011765808929372977
0.012750010388058024
-0.031097054445036375
0.03960813403716868
-0.013765576626688002
0.0010360977654310724
0.013953894231370624
-0.026019161526932854
0.032276393211795554
-0.006899529993136538
-3.655606846592038E-4
0.023840181976280295
-0.006902365069650187
-0.026179937680372578
0.03860733746703574
-0.003073984523786597
0.05605011985894541
0.013303467869686511
0.055056025002694055
0.054514375223976966
0.04524019574695093
0.05534547213981491
-0.018463225590482663
0.05745074694389819
-0.007404938238183916
0.036558741332378825
-0.009360389042941251
-0.020165065795968436
0.0488903707028825
0.00395969375705901
-7.856148447191244E-4
0.011143975364522206
-0.027100082487203938
-0.04484834014031038
0.0013353996343098986
-0.037470027702483207
-0.029070262815463287
0.04684076115995835
-0.008526649513524796
0.026751529147738817
-0.010888390029504681
-0.038024162661565886
-0.012667133291654333
-0.023058833947811892
-0.02799845576868426
-0.0014819545021554608
-0.008009098603323902
0.018499256416532266
-0.024395641712017326
-0.033242725661441694
0.02621225389815031
0.03289528286011784
-0.019008243947566214
-0.010957115027075295
-0.03288291601118931
0.013247565407662667
0.013716264273217212
0.049025354269471584
-0.04573076533797068
-0.017315706281679784
0.04904917358006656
-0.007064899528227124
0.03507667951492478
-0.03518828552891117
0.05594397126463902
5.540589458387519E-4
-0.0017044095906581197
-0.03183987402184005
-0.01891782073695337
0.03266886642636402
0.024011590805316195
0.020730138246973298
-0.04712912346954396
0.046966918070429964
-0.021628767822265804
-0.03795757996221353
0.005416630276105625
0.015561312091657616
0.03096949573105009
-0.01665901956627257
0.039804165709418145
0.02800327938916448
-0.04283348967158724
0.02307976210678493
-0.005308378376926693
-0.028766794397606762
0.0534153816768902
0.01137160719919652
-0.02114899076164839
-0.004702626226785716
-0.017741414559621718
-6.661538208879587E-4
-0.029078003717245858
0.00839213175837553
-0.029983545333742083
0.028491374986137255
0.010674385942029841
-0.00800571906573523
-0.017581659028922156
0.032754243568875754
-0.0203799185751288
0.04615690532718305
-0.01181335229718922
-0.011358869070895103
0.010188370753799561
0.03195499255584497
-0.01569385099549969
0.009996363729810774
-0.026592289604306867
-0.03391164046396664
0.03945265882613081
0.005972207549801093
-0.014172673727960132
0.04165732919790236
0.03318620578475248
0.0024111404340063317
-0.01290649107053326
-0.027178241581035333
-0.025954221475240947
0.016061584225800007
-0.03609551681423497
0.004840290288282008
0.04596862473392889
-0.013251521103465063
-0.021468292807267714
0.053897774781191066
0.05663744725982062
0.010596673063237637
-0.02679488853089984
0.0024176395187542406
-0.026173187783457078
0.040955156680853554
-0.046274236642632145
0.020554814208251147
0.05578605476690781
0.012678264404620446
-0.014370951440458416
-0.045518919734857
-0.03391996388785447
0.031155477307435314
0.0312861816741821
-0.028413454387937697
0.01899903081717201
0.04414307111267089
0.05172566977274959
-0.02676103869629612
0.030099768111585913
0.026051079110292398
0.0443820777500432
-0.011153586800023284
-0.009054881797166006
-1.307021478414907E-4
-0.03610878961560582
-0.026569338439110746
-0.024691739762269863
0.03196779795775642
0.02434202076871601
-0.020528893145699532
-0.028162307373272678
0.020459956034712855
0.0419615381697097
0.04522987704919966
-0.004691157055804304
0.013224243205147593
0.0016026265508481468
0.017068136875893786
-0.035239972444620064
0.014098987918015022
0.016761832309051868
-0.03676508800686962
0.03024694752482248
0.004151495883796698
-0.009378508329459502
0.009456887249650747
0.024792103430968403
0.04742109438105777
-0.0051704956093111
0.0494565566473233
-0.009777077098301263
-0.04670626460780625
2.4730886610969293E-4
-0.012892268125198676
0.021711334304342276
-0.006029258251571991
0.03294109311462053
0.002874631417608568
0.012505425470515153
0.038445852597373466
-0.040295475768295314
-0.03263457165863314
-0.03155633037630806
-0.020604625102111782
0.03902274897476374
-0.034837954835883665
-0.04786772747893888
0.03009757054984618
-0.03256914036746999
-0.002456295030967516
-0.014936242090223465
0.018632348314203833
0.005520273338050099
-0.025805261795588837
-0.014434070020710447
-0.038249811503542695
0.03886072292430722
0.0199342274246657
0.03380357539811945
0.03762923899258596
0.031191646546973664
0.03448223405995147
-0.0573802243527917
-0.053823615864181246
0.028804306539976926
-0.007494696628300352
-0.0027386982859056407
0.02304831758813398
-0.02952987957729957
0.022223264238507543
0.004256777195530464
-0.03645943159836015
-0.026567048483288877
0.05154815764668236
0.01925981741408039
-0.0037622013275647693
0.043589379895936184
0.046861364910679514
0.0037101102275984826
-0.030501601562004745
0.04842904474848352
0.016592760098764044
0.019447104974728954
-0.005427289119005931
0.006976765244891985
-0.019606000735171058
-0.031029281824563222
-0.010824856371772525
-0.03414460248423429
-0.023002869210736073
0.03014806737753058
-0.024628143835961517
0.00904684225281052
0.020492619235838304
-0.0034143988016695193
0.0471248542558153
0.034990025622270104
0.025730409642586757
0.029189564117606266
0.04378036422357547
0.027480793673967895
0.007508156852771999
0.003153060164281663
-0.03851289319944963
0.016778369977888508
-0.02430977967611993
-0.03823074729254965
0.023509852545007977
-0.04292836967429666
0.041764053474236514
-0.03939939437369958
-0.04532302889663363
-0.03841605254671495
-0.021437743702240726
0.017478671095374893
-0.020773230253799933
0.030194640076991058
-0.006596050133348357
-0.02398820653092115
0.044208772118554576
0.0017311512638081498
-0.053431141601868265
-0.04388128391434263
0.005590461900877976
-0.014098026692185711
-0.014974159512956059
-0.04450764840647657
-0.01898181393074141
-0.05106535163495752
-0.013425957894601711
-0.05208986412367388
-0.022594902174693118
0.027205676533479276
-0.03070909969872306
0.046933919054695315
0.016440290081301243
0.003618568496155615
-0.037834665084660254
-0.04861160942378663
0.041108887027545477
-0.04633963675087138
-0.03427841756824473
-0.04347258818786307
-0.03765028312113168
-0.03731160601739516
0.01883552304304024
0.025198714116071417
-0.008334323818102887
-0.038182923890539656
-0.035371966541841486
-0.033397281564089144
0.03612420336052259
-0.025424121539762253
0.007569213872044173
0.0048805415514191364
0.03958158844442284
0.028738422938754293
-0.03767037609964
-0.02592874764085766
-0.027478737997641386
0.034300219046394756
-0.007082508778554227
-0.04921226288138516
0.04130741711146075
-0.03447190748366174
-0.027264311901251427
0.00770881259688797
0.045905116967837736
0.04752838339570068
0.01926806014661535
-0.04330351428991207
0.027657381550944733
0.03083462663572413
0.04033083706274314
0.011655083153870432
0.0212219916483033
-0.044865579450099675
-0.023775145002374255
0.02247533577656458
-2.1148004106104622E-4
0.02538836760805004
0.0226622871362437
0.03242330016922279
-0.041364228714239
-0.018968726362468376
-0.040041175047213724
0.001064163694593417
0.022437576746454604
-0.036780241375453195
-0.037349896970906384
-0.029730453685389582
0.039054267937091214
-0.04830656166554656
-0.008740389562642953
-0.012200567800612471
0.029348999173472667
0.01925807831692686
-0.04880723946811628
0.042271857317145896
-0.019588723460469207
-0.042332539285298953
0.037883483597105916
-0.023759630394515348
-0.03849041167883751
-1.4619399213548293E-4
-0.02707985275189959
-0.012139110929797099
-0.03796709661039673
0.03518727045010989
0.02589263311930875
-0.017446599002661482
-0.029359523627277794
-0.03376260569474901
-0.04170528107239692
0.032095126527264116
-0.03882818722938239
0.02953479492817907
-0.0014738162288915097
0.03387146488571151
0.014871343789089119
-0.03873099985444663
-0.03366404583659193
0.001637078754967903
-0.048108398775259346
0.04935839100979789
-0.005221936256087829
-0.03142040177750717
0.00893020898311435
0.03739820355147671
-0.03091260465725661
-0.04654430890632285
0.024898596546570517
-0.04120402115247951
-0.03806372675513418
0.019322207963377202
-0.014006667929983226
0.01980871999271841
-0.009887591582245506
-0.04583926917481454
0.038550693885628984
0.023606300143715023
-0.008369677264641044
-0.03511870057356681
-0.02220715713366957
4.5140518615700744E-4
0.02949562275685113
0.020984642822764715
-0.03890973352720676
0.020007619038159813
0.029410849347664778
0.01453789710292533
-0.03198221706518389
-0.04598453709524635
0.02275632985112286
-0.007540133241550626
-0.024706895631031314
0.021848981995657824
-0.028312232760855694
0.01230040559987285
0.005116289405957953
0.018294413075881606
-4.2947606706362633E-4
-0.04756690045709243
-0.007174417493018446
-0.013713392374749316
0.03862860976652732
0.03820852732902875
0.045865746602363006
-0.030404147470220584
-0.0022639954126819736
0.0021556013808664387
-0.025285925052992406
-0.0270209935123198
-0.013522184061723456
-0.0011563689700594148
-0.02776126130540477
0.04533845246098207
-0.02016571037281227
-0.031640526743919276
0.01804544060431879
0.03580137048891993
-0.03574020880822868
-0.04040950868269339
0.0349325757081411
-0.04970318806182436
0.019315809323883933
-0.009437471585350235
-0.02044586530761602
-0.03964988857060221
0.0018326871569275618
-0.0025719241286413968
0.04500490544144372
-0.03288157238934791
0.04611958060324503
0.03529339004685564
-0.028782918166229597
-0.030359383421955047
0.04420378474711588
-0.027914944827608618
-0.020725885825410253
-0.003578522266657262
0.03357284065035104
0.04222294069299224
-0.03899425520572777
-0.033305272807893825
-0.03941275836511473
-0.03326098611961304
0.009935910822329209
0.007987026490609318
0.020560323032357112
0.048953609163363866
0.053281887363415784
0.02374046613776874
0.0026514629501535572
-0.006838418669070499
-0.028824810919584998
0.021486941234034565
-0.02326589310581642
0.01659778062625542
0.03056497143219543
-0.04282890497663536
-0.008941910123944612
0.03783717188490017
5.00837758287843E-5
0.017190202285183222
-0.0328277460180463
-0.008281560701732858
0.004503895835319452
0.04106443770744292
-0.02493225597378905
-0.029742079875452396
-0.044197087021035655
-0.03990093997620935
-0.039892771479363306
0.011520046791295651
0.015195665950114127
0.008213719493271116
-0.030491702021476212
-0.0037954175649340073
-0.04600985644403763
0.015604455356180916
0.045891513396066154
-0.024645603384327308
0.028648407926911416
-0.024452998224069326
0.005833240200242411
0.012591636844440986
0.029482700850537287
0.006931261703047229
0.022100709729113804
-0.013544449585880301
0.007222728447528018
0.032393189774155465
-0.0021812251781731015
0.04760876113337786
-0.004385089226598611
0.005789714807291843
-0.017644651664092136
0.04603063717426415
-0.02106585974818906
0.046321898723812746
0.010021618522993032
-5.099022757856528E-4
-0.013886458008563638
-0.0227790258450171
0.011973102082353334
0.03748094594533067
-0.020527532649236718
0.049798963940235634
0.04710118378427018
-0.01112582557213793
0.037348278580640444
0.04419791816507482
0.011451151007937482
-0.0030162658498185165
0.0013448139527314407
0.00420891870934434
0.02864960331751001
0.03851972703391908
0.036032154710551476
-0.006787671297301633
-0.034140377951310745
-0.009898648101227318
0.005957308839943728
0.010678140954307707
0.027249204508721966
-0.018359615925961942
-0.03409005314311925
0.003683131593724737
-0.027830457036516567
0.04633229876684265
-0.03769633929006222
6.134877835457304E-4
-0.00619428714272053
-0.01741746238378556
-0.010931618913878581
-0.02512601215432775
0.015512667372153966
0.03850788872394618
0.0031757225473953367
-0.022840945103176257
-0.021191357523291873
0.01740816523195931
0.03826041274217281
0.04924359754363212
-0.019604838107571187
-0.024092895825298662
0.021277190615695496
-0.025012412718322653
8.485965615411999E-4
-0.028119736190771374
-0.01626769313715592
-0.002409808419162116
0.02332190482296548
0.03736705103521155
-0.033210764490007864
0.04046906439767809
0.046520695155994315
0.04184319501735558
-0.007745709873323266
-0.004952959340775229
-0.04358508186334709
-0.009806485843787034
0.02776390198751984
-0.04341200819307388
0.0033572263661761467
-0.029073094450171443
0.004851133777375232
-0.03792931179667322
-0.03493491449817469
-0.03684750895525569
-0.017470251955341413
0.03457392199501791
0.007013058651910787
-0.023883322855709006
0.012172326149080278
0.053013773802213
-0.017576113098477376
-0.015041431626126266
-0.005172511049485635
-7.211529301858102E-4
-0.006656212255218523
-0.013962344877335931
-0.033845893809386976
0.010000143623495657
0.016998472605897486
-0.03547532415283241
0.020195252981278302
0.029248049684276876
0.04645755232669477
-0.0502267296735286
-0.027161367341539996
-0.05241322184924027
-0.030840796840742767
-0.012711116675911814
0.02553918655155857
-0.003060797692820092
-0.01934523190729065
0.02845651978020998
-0.02999446446313159
-0.048357415972282256
0.020278812215639142
-0.04114597168804257
-0.017986661267987692
0.004195815482024427
0.013905371151832822
-0.039563320182641776
0.018815721819631342
-0.04795859991750433
0.02560090866808737
0.01833472008734737
-0.01721037789529617
0.04405965564374133
0.026427291298842893
-0.0164950237934408
-0.03267930928789524
0.023236891512421448
-0.010085562747948954
0.03490712450773796
0.012873171988675478
0.028729901902315
-0.0034238117323935995
-0.007503756354499734
0.001143800916818638
0.0332150670709182
0.030680661381136766
0.019774323578907477
-0.026355643933722216
0.03971392088048663
-0.04657057393966884
0.011315914922682737
0.01432698417928247
-0.014094672762336745
-0.019535024175858867
-0.030386659180385352
0.012452390014110816
0.049102847463966016
-0.009350559384255826
0.013144229926572937
-0.040812939073764605
0.043117229484666404
0.04089541166081615
0.023279205931313548
0.03268382183582006
0.002872635550366465
-0.04010937666574639
0.03021527428874444
6.023223523156417E-4
0.05223030021360346
0.005462578646432289
-0.004573327779696968
-0.02428732940751922
0.005455866604689571
0.061128700862085265
-0.02448593072575408
0.01881772331444687
0.033389889457954895
-0.030217211663769953
0.04275724523371672
-0.04877790478568224
0.04576822747128987
0.050863816121063145
-0.03975863366422899
-0.01975012179525348
-0.01304160121351938
0.04407927034659423
-0.016870187280618155
-0.040036593544692176
0.03090106573348575
0.007679376942142276
-0.014782861450336684
-0.04245719158674316
0.0038632407430502767
-0.004142779680295434
0.0236904350521637
-0.010499707290486547
-0.012566089941970374
0.04181885366347514
0.05510197327384318
-0.043982129706411646
0.015330631919810225
-0.019675542870451108
-0.002431973577272868
0.023463695176575202
0.01568343554332198
-0.03547602941723263
-0.014048797482537213
0.025840937206474353
-0.011143648681098675
-0.04115158816836686
0.01201968669419188
0.05122445706641962
0.02838750542973345
0.012847114750059415
0.045012316367672216
-0.029552234796589496
0.019326184733130348
-0.014580663127542557
0.051245154962326164
0.010473873234063806
-0.038253970196734315
0.021863580663665824
-0.03835084370298378
-0.011165676580687484
-0.014093237067786948
-0.003538349393277955
-0.007092288510767645
-0.014715295019878597
-0.024537296243478442
-0.01998428899907038
-0.0048713448392104074
0.048322572428735944
0.018761704757866912
0.05585983311223519
0.011116369163011182
0.013889067545484437
0.04465520235618714
0.020528455827212744
0.027385422076537134
0.04989458256491162
0.04227013081152056
0.032833663666475145
0.03525101480450391
-0.02711823689327876
-0.010689865332949366
0.015931507246293233
-0.013475068902779002
-0.029541162522398648
0.05134780195013876
0.04089884129318429
0.043418255418350746
-0.03041499087110481
-0.03757207380827583
-0.01743452252554186
0.043839412912331
0.00766794602153192
-0.02228390979414432
0.031014855712754683
-0.016283385468459893
-0.02766668898527765
-0.04466398947591771
-0.008698889783867613
-0.00972367400171602
-0.03435689874933867
0.033632929519711766
0.0024024468262895723
0.023882080320863804
-0.03905463728860746
0.012618083522574383
0.0028501718733348574
-0.018520174735712755
-0.004803702511114199
0.004381711281227131
-0.03647268475608256
0.007895964708409767
0.019406360477490576
-0.017643183797311338
-0.013438592702866117
0.006968363893720029
-0.015697970963251186
-0.01739756956537165
0.057692689546570655
-0.04323652957448703
-0.032443875330398955
0.016529153745495254
-0.026051597849323323
-0.023956627414871024
-0.03996798691551854
-0.03968777488743481
0.03965793235395817
-0.036535761347208526
0.033232114768042775
-0.04318658460895129
-0.019538625092197264
-0.03619112117540123
-3.2268654479420837E-4
0.0029140858908146524
0.021326726626759974
-0.0047476733705174995
0.01423432399841427
0.0027859349076523976
0.025588105289196243
0.03352770149838532
0.03973169220698889
-0.02488281830757345
0.027667002840640696
-0.027322765022694238
0.009713498211264434
-0.05276385972143465
0.0435763790798252
-0.01880944799368772
0.022689606854609596
-0.007676011272668279
-0.020975640324330257
0.02516601369501292
-0.0020730340894324637
-0.0407577045862175
-0.02538505118053693
0.009952625735431332
-0.043174487298606935
-0.02891628792991925
-0.039321159112319704
-0.00593091348860767
-0.03642889210018638
0.024273255973797328
0.003626846635119426
-0.03880701993389304
-0.008233513765267321
-0.037892744890806046
-0.008851283990122324
0.02097117337186535
0.0010506281067848228
0.04189199420896144
0.0020714281705911082
0.02484092905402903
0.018862540313424034
0.03014294782785244
-0.04892310266015643
-0.0028431092992376645
-0.025780446780713093
0.042263300846364496
-0.006786127274515825
-0.022970638383673986
0.019261371843201626
0.00949592899882604
-0.048905003691545934
-0.0031158963012175725
0.03813243673886703
0.008573783853557986
-0.048730825884475776
-0.03056838862181981
-0.04499298554988248
-0.03564692711967854
-0.011793918527848573
-0.003034820639169471
-0.038747569761933345
0.04736075169804049
-0.008570483227177805
0.018646899072929605
0.01677172433928327
-0.009081844059679283
-0.050960905228072846
-0.013674082276429042
0.028403856455273366
-0.011178210891058348
0.03681957598447721
0.005826504753080704
0.03667007149106723
-0.02268356493957295
0.02424052280848786
-0.048977027391701795
-0.006058076543460003
-0.034234626978680904
0.038579807009078454
-0.006803993169877802
-0.004029807373703362
0.04335964865706135
0.017944959009767125
-0.0012706381563866163
-0.02342245687137348
-0.030635480586912085
0.0383490756657604
-0.03458052308815072
-0.015039860579903048
0.0016974485918216293
-0.013765720852501766
-0.015102757105670824
0.02151307098492162
-0.03157505664614424
0.0037503818822411483
0.04820947383631327
0.04880861571961269
-0.037650719930811136
-0.0345353388400047
0.018385452925014145
-0.04632252483399665
0.010480807636974275
-0.03908822440412703
3.8186600048683704E-4
0.022760238657298055
-0.006321716806520026
0.02860143073602859
0.033433198738490696
0.05346328728010916
0.008791139784603445
-0.03957070021211886
0.02396348410134874
0.042197391566302415
-0.04421250453368936
-0.03251830041325731
-0.049570709887896344
-0.019616720087034255
0.011088780696420445
0.0017692292884158498
-0.007098492082971752
-0.01596928061690307
-0.04939371067905757
0.0358602009929717
-0.010572010738004666
-0.03442198851919566
-0.0405836405059522
0.01718002504249837
0.0021477428569304804
0.017244541112708355
0.04756824671360556
0.03710800819749813
0.04333296302722016
-0.004190377836943175
0.005986435097855563
0.010352811599186029
-0.04454090803729887
-0.043585105608064945
0.02165368680832016
0.03361360133952928
0.02551597239552659
-0.04513332657639364
0.02762209889814558
-0.03461374367851334
-0.004733671172267346
-0.024116312181107727
0.0013354428072396326
0.01200844753801073
0.021453793742109147
-0.015154261326849362
-0.026125244826189484
0.004171409966651984
-0.010222696288114093
-6.354690519246276E-4
-0.008526101946799982
0.03409912793232271
0.022791524703752206
0.0075678302709140536
0.007009570045129353
-0.02803942816378728
0.015759929107011243
0.03104195544387068
-0.008038543918537106
-0.013789187825742396
-0.027667167242569467
0.015278945745619745
-0.047352521413978735
-0.03855091705435673
0.04467625990913083
-0.02951776448220011
-0.04371233898435886
-0.033980893927639866
0.04440255595214092
0.024492728765456172
-0.022790153112129893
-0.012544234117137319
-0.0404280199238443
0.024440631191376225
-0.016387991831464666
0.030758589115529974
-0.0034174313622560753
-0.0024579911286171196
-0.013143692752650423
0.007926374675702152
-0.03493822847768162
-0.029843676406400264
0.00943450322984432
-0.03882115724108952
-0.050192444858413926
-0.006465025241078267
-0.019935512666085054
0.0022626190276508525
-0.02584481351018857
-0.03923940024663228
-0.01713598261597482
-0.019796938048928844
0.027190411834462715
-0.015233054590434085
-0.03049685746059881
-0.04257038891278114
0.03235888968291532
0.0033635501012973224
0.009538068215669037
0.007157038006494994
0.005436671182516834
0.018951188674420406
-0.049791559247957994
0.017689866068854282
0.02926675308239458
0.026737308504490274
-0.04816923707999779
-0.03432047878869257
0.041151323893733494
-0.03958580512316963
0.012019748639554446
-0.016503504639369577
-0.01882724315245492
-0.029754981659340797
-0.039683056090847775
0.048408675283906175
0.02041737228144073
-0.018820511212886838
-8.664455032488829E-4
1.0331309388570966E-4
-0.028381340849869034
0.009101347329335235
0.028163769165685953
0.04834937790489475
0.009516254493369417
-0.02392750580399464
0.01402220613444107
0.035959022736573316
0.017592947769237578
0.02771687826882993
0.05039063617680314
-0.014234054114705061
-0.01586328390497391
-0.04080050792323346
-0.04491958904690108
0.051418714275256794
0.0430821472057921
-8.110580007058623E-5
0.02981193414079157
0.041987950113772904
-0.04108131069975398
-0.04678599062605473
-0.03433745065878115
0.02993579469783624
0.01483542261828017
8.92999334387924E-4
0.007498542239190974
-0.035102639950958935
0.04077668449390024
0.02580112608441567
0.027442055426297615
-0.028962678822122993
-0.025009480224660416
0.03846189026542914
-0.04248168495260896
-0.009777632519274885
-0.03235061760115931
0.014269288477582492
-0.00922057278009938
0.0028831683698968056
-0.011777934513097542
0.04804285114304751
-0.021289970917820943
-0.012803134287744912
0.04672250820256238
0.05544847428345269
0.00652295349436527
0.010893378725477408
0.0013389772713444737
-0.04376566156459427
-0.03293891583950137
0.012037155716733305
-0.006412201869695219
0.05486931824581808
0.040394794574707175
0.004019440349971636
-0.041040303719491036
-0.002401450843574541
-0.01331241541806115
-0.009310659758393245
-5.703805196158547E-4
-0.00765917754970623
-0.001106480569128609
0.05268362863756597
-0.03416904201256414
-0.025471513731192875
-0.025320380405296945
-0.013084519236071743
-0.01828346176469782
0.03416120923931524
-0.019354395436089165
0.02432089630409764
0.006688729977022842
-0.017712511080984174
0.031147829318918324
-0.04447912819360635
-0.02671691678105501
0.0014407131338409972
-0.04672893073669594
0.03417771241201528
-0.004104364001307539
0.026297073034071018
0.018898342228715715
0.05395278979553611
0.05040122032338518
0.00998558248772451
-0.01002610322827263
-0.018601292132902583
0.016191477914622852
0.0076247610642567005
0.04355133401588183
0.029321858333855876
0.019976118622272238
0.04268816514163583
0.04980768666281055
0.03862483830894514
-0.03440278288198863
-0.005734062357019314
0.00874330208009061
0.0497377722210206
0.05324774174828824
0.012180197492446278
-0.040504271255645076
0.014410089509417152
-0.03919493114313678
0.05421177404502703
-0.04175758935654645
0.053920171360824574
0.04224562482313957
-0.0404428295255534
0.0455954005394043
0.02763515383922226
-0.024876263669743093
-0.015029585848778575
-0.0048562899049982835
0.01861569321404925
0.0017140412762896046
0.045374181145251796
0.04327348970157349
0.03794504883048528
-0.03802713215866254
0.04607200560432217
0.023597824283719582
-0.012864826300702336
-0.044350530010366686
0.024258058223663354
0.04455588025823875
0.026023007305208665
-0.03402725969009676
-0.046389060903869336
0.03364257648817115
0.026075491457445605
-0.011400625837144757
0.02816347984200279
0.02173084273722708
-0.03809087106279174
0.028817336896687404
0.039119443475114514
0.018356232222745905
0.028797142015037264
-0.03764457285893265
0.009238899097294766
-0.038493972236688476
0.023789333548653577
0.007840877519571555
0.04636383126020169
-0.03318973287989322
-3.412759490101096E-4
0.02866660652272647
0.01837093639453224
-0.0016573901020393925
-0.009551519548160862
0.004743066337392324
0.02166334002839649
-0.03764051457491303
0.009013001484930741
0.035170648276840306
0.03857958871577276
0.023432307283372818
-0.012525448977341737
0.03463936800597097
0.02525455479671755
0.046472357074451305
0.05348875279374197
0.03675441771398545
0.03931869040624313
0.04883304957454052
0.0399037777633451
0.025331504312828306
0.004408907250747519
0.0017797936657943238
0.037800541356842264
-0.01903686719833816
0.018359577939722302
-0.037676746738162195
-0.02304230904383901
0.03906301215908762
0.04875788546368163
0.04533916596915226
0.049714835142246616
0.03852748287179686
0.01630169647147671
0.03163393487609473
-0.0114880631700899
-0.04261462640240679
0.02053198474960894
0.020001777866108524
0.036334336983322904
0.055002867773720446
0.01662661804999649
0.03373873878897874
-0.02328526648051373
-0.009193861427447103
0.007657254049255211
0.048726061727707784
-0.011776058094100365
0.049113160346617814
0.021423527083668216
0.0317710599429138
0.002426234237542604
-5.884900196918225E-4
0.04439832664291861
0.010293394107457268
0.009136805315083683
-0.003474423676751585
-0.05053054726852234
-0.04020539237397291
0.027286522820391585
-0.044482293760391915
-0.045205928749380946
0.04123621967041098
-0.04669709273979097
-0.00643884487239804
-0.016816330030779397
0.008249633488378925
0.005830850505328072
0.0025802951632079556
0.038075630681124614
-0.03621759702502999
-0.03283029033662778
-0.027371375423490208
-0.0014005283568998628
0.04535615478224576
-0.017301735736755367
-0.0036848943660203184
-0.03126103590441485
-0.001176668190346643
0.018615379636495833
-0.021945578907042344
0.015675290537918496
0.022178715406672326
-0.030849599596287528
0.03414358994144487
-0.04112848164180368
0.04021673546929118
-0.04402900333173202
0.03898390400176531
-0.02921063230484385
0.016116939022703166
-0.04799196657422804
0.011017577995932728
-0.045956420164259035
0.040868430712647716
0.03374592277058702
0.02047194572842149
0.006098322277841693
-3.45025824996812E-4
-0.011758789817676023
-0.026669898719959933
0.042755645214487756
0.036483203908044375
-0.0010003595941006972
-0.03310140949739164
0.022985161440708158
-0.04495186846446109
-0.019483229998013243
0.030731246390460747
0.02656898593235205
0.006698423592296564
-0.031695542811828445
-0.002618310676456862
-0.03917231143539011
-0.026418374799274964
0.03056245244070718
0.03900875857681455
0.015809635525295993
-0.021159589388328084
0.05153662160776401
-0.018309792016175393
0.053012270607294035
0.007849004392189541
0.024167589314582277
0.002356441390185274
7.959193052715807E-4
0.005273101901051393
-0.007239948915358489
0.014515873741752654
0.05544077900702912
0.0416960806193191
-0.01637145399135109
-0.025407179611584643
0.01791656913805298
-0.038486064469327425
-0.013737772954547735
-0.03749783285146805
-0.03130810078839925
0.01567076124295343
-0.028038752487407583
-0.03580107468207106
-0.00892354029572214
0.04101930181385354
0.0017870937994126585
-0.021369292933423774
0.028084324368706975
6.467714214424267E-4
-0.006266694741457305
-0.010789172588911643
-0.03602713728906648
0.030902745037429565
0.01300605526003793
0.049644789981027865
0.0018330114088057617
0.02941146988666309
0.01602677094731307
0.0014466561743433166
0.018684727789207937
-0.030795854917821698
-0.053329171191225495
-0.004197044876540044
-0.028240795364516607
-0.03743556177214285
-0.036665350165116954
-0.0017158996462197328
-0.048368157669853945
0.035291182584740975
-0.03522162194623806
-0.04265960684934507
-0.046785780736980545
-0.0173454007198631
0.015868295462675257
0.034307379428398135
-0.016292967005556803
-0.031803544854203586
0.02201439894379743
-0.012906227570244925
-0.035202997502797304
0.02274209095993669
0.025135323477713467
-0.03478026042096059
0.018501603372609768
0.059821463029734435
-0.03870359724370873
-0.012060647059393186
-0.030219524960536977
-0.01745195364960079
0.04110934052254099
-0.016681077041216418
-0.039835272187039354
-7.828585233144474E-4
0.0060124131667392815
0.061669933202708874
-0.018482812360739873
0.03916453171961936
0.034195042181972536
-0.01999810267081337
0.002806433650728913
-0.03315551365442909
-0.032369730546301496
0.041195648216937636
0.026710960093018578
0.044701130004989806
-0.02359931662929641
0.047496627703942224
0.03485673241378424
-0.024896452540927757
0.016877160961677674
-0.03002655680047739
0.02829146393284567
0.021068051539434644
-0.0015153615003986106
0.012864550505303723
-0.03643703787490488
0.02671640660444782
0.05818287006414826
0.052201818032616115
0.04564575326979308
-0.003950005293901722
0.010561724585188248
0.012759943708065472
-0.006501407616392659
0.00790926743291031
0.03319102421823145
-0.03927036404809991
-0.0328163852558776
0.013836022511711251
-0.017420413119894656
0.03240236035309098
0.045618623416422144
-0.04450743516006784
0.012025898603973918
0.046063928437723244
0.011172533737783827
-0.048558634899315986
0.013415442789904457
-0.03103380341126613
-6.288201110987043E-4
-0.03591124541668457
-0.01616501920918957
0.03727865804682336
-0.0024602010592037686
-0.01291652582918824
0.04574457734969239
0.026916482330206395
0.02184459548778577
-0.030655934176462143
0.036731923115843834
-0.01533950105166565
0.007202219515719806
-0.04100206522280976
0.030574861313000967
-0.03762893494531059
0.005162355796854842
0.04989196334509538
-0.03885858595945501
-0.004030713703828576
0.04528936034429215
0.02152684301184682
0.011903675407191094
0.0535875935703972
-0.01938790410319124
0.04509636733958999
-0.040240314082125514
-0.020871147192557248
0.004781680045724213
-0.03094193103304777
-0.009907982288925752
0.03570232342571854
0.0072719269433194084
-0.004524475447077162
-0.00674230196534852
-0.025675778044262364
-0.02608510888784031
-0.025814774732262822
-0.02507490657279498
0.009408268279884516
-0.011310302766699724
0.012998612212010943
-0.018602587484721954
-0.02367685505235095
-0.03908473059581506
-0.03144498895178571
-0.03073374952680817
-0.006971561735309886
0.0073780323425177725
0.0039053684730387963
-0.010352159366573766
-0.048930931360737444
0.03731962494332482
-0.004031300537102913
-0.007647888853112297
-0.003119829671970241
0.008862063295386618
-0.013720617321341654
-0.03962690161603693
-0.009684076836746564
-0.0254170879140646
0.03255207059201538
0.01402983906225557
-0.03270465814390232
-0.0163697539724903
-0.0010098077113092974
-0.008323603191771261
-0.03233840279790115
-0.001715205815323991
-0.045715430575996106
0.022691328903186557
0.0058870406363578515
-0.00931551444468548
-0.044291703368132776
-0.04244759265674751
-0.04668300716354122
0.005286653419860306
0.03529085080032807
0.019301489421252722
-0.037123406374036695
0.039852969004105974
0.008390178723894982
-0.015766564587235708
0.048196102692629944
-0.04365502307678819
-0.012511333013937224
-0.037787776991531685
0.020544227113775782
0.012170247064290577
-0.010550815105151056
0.005114306649100272
0.04415479533870212
0.009996225196081536
-0.013624393016163444
-0.03675038450858636
0.02898666633762779
0.04265988498706679
0.004310536181170586
0.005819340683885972
-0.02788993474522429
-0.04431980786255457
0.01638070072649234
0.03356196278561622
-0.031939956259116324
0.004787275392918867
0.023415885570989562
0.03538079775740259
-0.05303455343546365
-0.006466414601373084
0.03741112230571572
0.03427689807561006
-0.01239593731298121
0.032382051711806
0.015034238765718778
-0.03137330275477651
0.01218443130459858
0.046271142163708964
-0.03919595508050136
0.007896106641974527
0.02268090592620631
-0.025479059201247295
0.02804941297912029
0.05329691947172056
-0.03531043089155138
-0.019598372097867404
-0.008697270769283326
-0.031973543790853674
-0.03937674249825454
-0.021559282298249265
0.039039995033995495
0.017233529211579165
-0.01577145418102563
-0.024137490712403998
-0.034822371524635354
0.025710001081179098
0.018504012704274365
0.030643744256838506
0.027768217667674483
0.03230872252933712
0.029852888941150717
-0.016535031336798973
-0.047138658221435564
-0.008942870457800775
-8.092742933267341E-4
0.008995435616200344
-0.05154226940322219
-0.01484547448081695
0.0061273390148747385
-0.03216844317336954
8.905218851852924E-4
0.022027471824987287
0.02891453600836337
0.029649416009312292
0.038061148266320906
-0.030779726974290666
0.04016528046405694
0.005103132339276469
0.005008305709748195
-0.028591008036061107
-0.007955455194801245
-0.012198071438755523
-0.015312813207852586
0.03684806439616739
-0.028719711837378457
0.0047530532315484585
0.0065524196058242765
0.0332108875745356
-0.014266789620001134
-3.526344413803022E-4
0.02877088133971064
-0.021276558942635655
-0.047942060929680425
0.035783140750173664
0.046601652912741286
-0.04662508190211089
-0.02433281709103396
0.015602829488221894
-0.041978444804664436
-0.024341636810749055
-0.02744295418601585
-0.038212178213611975
-0.012815858241817395
-0.019306952676506325
-0.03797764451813291
-0.04000345069841334
0.015762561781576465
0.023910267917196176
0.004700678118145451
-0.03648124389319778
-0.040760467078445994
-0.02599840079420819
0.0034769565239493984
-0.0033278911623891515
-0.019941214081295636
0.026718897230972566
-0.04552306313822114
0.003976570949215774
0.009451086778348577
-0.028738231786425573
0.026174851667151153
-0.038958781232391604
0.04384447062652464
-0.006567932051713251
0.02005225339099709
0.03497954633608082
-0.03560788472995338
-0.04826913563292219
0.022120193490467385
0.030549456978242073
0.04860842653066179
-0.025314075399993897
-0.02060241209918713
0.04397635261311584
0.03772730201606273
0.01799196343882834
0.02027414562412393
0.049028937637953796
-0.017009920715285315
-0.03584849125844055
-0.017575670350570977
-0.031986956813160904
0.01525059542992077
-0.01950057414843339
0.004344738099070467
-0.030230262887957274
-0.030616365550329074
0.008765957601779473
-0.029373983218925828
0.029201761312269904
-0.002867450675177879
-0.05553815255560126
-0.009331628590430152
-0.012137683647778912
0.019521235233788767
0.029743827444008306
0.03960547692673195
0.013036405399535657
-0.05507523563395509
-0.047732333448182646
-0.03177570012615736
0.042211007080362475
0.027548793173343772
-0.009936576109981155
0.04256312775535093
0.02597743328270994
0.022231561420879516
-0.020242324855012653
0.051057654697981576
-0.013194818860366974
0.03629663649594356
-0.025470635056034866
-0.02918362628276621
-0.042974005542046154
-0.015482435683344991
-0.03337381816015175
-0.020528732961025514
-0.03975245727933468
0.01597238308664721
-0.013243965002167056
0.007765694153056055
0.004769694327794288
3.963433388295558E-4
-0.014520476104834
0.048379122101504204
0.05317321888147346
0.050862903595532215
-0.0018817737100032103
-0.01726861225382918
0.04461062728060646
0.03515465635637664
-0.039928701213167
-0.04361131094553764
0.03862416788484755
-0.01666892159605535
-0.031534315100060106
0.026859265919602516
-0.039497398412130166
0.03056806909935769
0.012410730621660218
0.0359142584536377
0.0023207514640348906
-0.0032705232326026164
-0.025011219279000584
-0.0401627471747975
-0.03394205543769548
0.05486185938510559
0.010364557671796445
0.047845540052465434
0.03389086277927073
-0.04318809354465269
0.040106064934810115
-0.024596446256987512
-0.03478604911600371
-0.014498412453160863
0.012939047082529574
0.04576324436997594
0.04199509269592727
-0.044496381787281415
0.013297091325646108
0.015245473957186211
-0.011052302359572335
-0.004506657967785774
-0.03899017877532821
0.01608391344865345
8.946155891725783E-4
0.05254527816047602
0.03495705726777945
-0.03528815856785455
0.018144233064291495
0.04211696634988581
-0.013022263795096006
0.011535922401502235
-0.0022585107306777688
0.0140143289836528
-0.01513772143810368
-0.01691193580724075
0.003326087967390773
-0.04101207291537223
0.03550488538694611
0.02389514233110658
-0.012369362195674772
-0.008032648505627736
-0.042793098588329456
0.010115980373077628
0.050659828037413125
-0.009887467892995732
0.04680698136036428
0.012680494111095791
0.05377889530384917
0.006024697295017338
-0.011725093375182249
0.029832729525784158
-0.004346056416855377
0.04383262570322154
0.016860789773578806
-0.01316390177727179
0.04547847769735502
0.009734673907738522
0.01908939679971396
-0.006689668385757171
0.05831532962390902
0.04692636247861162
-0.02072718661729938
-0.02096710822271742
0.019499051411998602
-0.006979794223918433
0.03261015134960859
-0.04315381353974696
0.018461646982825736
-0.013113703878631987
0.013253789876200186
0.018378509513008574
0.012235328075115915
0.017706275584300303
-0.0410368939323937
0.03129698111267275
-0.0071718910510724584
0.020042450971487342
-0.02336010900566376
-0.016930915449861125
0.057245626975193566
-0.028512739624916128
0.0036897224475237614
0.022784339251079387
-0.02096872957991774
0.008941926906208974
0.009846596261532252
-0.01569231663205987
0.04183418233522306
0.008112178405605826
-0.018974947736407
0.04209877990301965
0.04951793458966936
0.046969634684313276
0.0474212567514265
0.050923480092526105
0.022894762863023898
-8.5881836072351E-4
0.04973095171378941
-1.8191236184814238E-4
-0.005463553121979637
0.0302044330104647
0.03502590875656452
-0.005837884057601481
-0.03850856359153677
0.04929595162373295
0.03333685025379559
-0.03212407846910199
0.018525484919970792
0.009001644608423683
-0.0033596123432741497
-0.009881954819148015
-0.020822869177142888
0.04655045611854022
-0.0436966958518691
0.023090689489906235
-0.0378423233283
-0.04257293986387383
-9.773073377885785E-4
-0.03266994055584267
0.007552660979963701
-0.0122895572107901
-0.0025008728747336673
-0.015096044946215543
0.011700624499978
0.048852924730258186
-0.035953594051458905
0.017319790023455482
-0.012794048504724157
0.031703377648493236
-0.010924184373928452
-0.04818155682888172
0.015993315859138147
0.012697840370575541
-0.034001464994524576
0.050813932287352204
-0.04861319728974687
0.004693529463909558
-0.03299816608977152
-0.039181048978224574
-0.009016023556133046
-0.048687741085365124
0.01165018965668261
-0.011808722770326194
0.009707212737888788
0.0433374688147913
-0.0019979807391370414
0.01000851302551398
-0.0413897293488212
-0.04412264521233645
0.020557695150364232
-0.013792666442792437
-0.008299730054669484
0.05276551293171064
-0.036077121647033264
0.04812394408023526
0.014171539075915859
-0.022275501129641582
0.014208494531725636
0.019926278150200122
0.006691259091110687
-0.032483709443992884
-0.0027671844550765912
-0.018737090595046434
0.045268322682312276
0.00997212914115503
-0.046719832329115654
7.244484618540359E-4
-0.03282683068173628
-0.03318985648955181
-0.03612110301423236
0.034136466156448504
-0.03766420122757242
0.02648321645074838
0.03172572261094957
-0.04557337701645951
-0.04436431457222151
-0.010677746528294563
-0.014903037302731686
0.011925180722705885
-0.037917785613697755
0.03177308619615492
-0.05480461539707884
-0.0558244412774131
-0.02253709534187672
0.026712924590550666
-0.022333263447487556
-0.05408372431788495
0.0021432274707429274
-0.02061608061206527
-0.018060099821424532
0.011429139224003055
0.012565640956440652
0.03556552190178167
-0.03791879881254177
-0.03177503932979292
-0.0015005214571482983
-0.03966520643416721
-0.011688444161687732
0.008770788789285626
-0.004842530029719034
-9.803287533511856E-4
0.04448111604365806
5.992225876265301E-4
-0.04694930800027877
0.024211298366539544
-0.003772912735098015
0.029726674167576798
0.013276213187120267
0.026893097457036823
0.03279453066645124
0.020071764729614885
0.008653732762161142
-0.021341008935105488
-0.04611765971752374
-0.03174124624616081
0.003933197612799922
-0.03830395857421759
0.04115208265417639
0.0023606940063232076
0.01868846298888047
-0.03731997066200221
0.020710854007096532
0.04745107002129345
-0.03785916771169568
0.013418423413664587
-0.02605048275682124
-0.011856665624743945
0.047251894082758525
-0.017023615120535327
-0.0525445149863352
-0.030986941785855725
0.026701409589506037
0.017314529238293262
-0.019498518886779264
-0.037546843515114496
0.004662671600076538
0.02533141895200084
-0.02635698238538696
0.013512408534959637
0.01707322178200033
-0.04618729126649989
-0.0023083013809580845
0.02597298472740689
-0.03222988787645694
0.0030614511339716
0.0459039743127586
-0.0206974145117159
0.03790746557771992
-0.041592715077271816
-0.01923323916889517
0.014578328222216299
0.03250186320384406
-0.003778169675466114
0.018882746938709165
-0.044606109326337386
0.02814900975793258
-0.052092777105299734
0.03855369192165293
-0.021473687037108467
0.005154052681117389
-0.03140901734833601
0.032813430394564545
-0.04609325769151948
-0.030940523640701108
0.01533674948145921
-0.03062369295827207
0.03088049032965068
-0.019123187812530966
0.03957030781165016
0.04861609031370053
0.028925084727079803
0.013004129958861457
9.547979342134245E-4
-0.01707650612350292
0.04749171794254319
0.012788417524495695
-0.016193610930063863
-0.011361791273330583
-0.034653161851296195
-0.0030093658534592923
-0.021162721078556268
-0.03175762506238251
-0.0384918655763687
0.01569097597533329
-0.0453943379952337
0.03888190706089828
-0.0013704344453840016
-0.035410315873771636
0.01105812180967645
0.007222413400677297
-0.023269959809668953
-0.0218990305714017
-0.008835200491736039
0.03827818737724381
0.02779479092707235
0.010826887003703965
-0.004875070720522622
0.04274573297666416
-0.026851064475887223
0.04674578448855827
0.05041761359982512
-0.027701166511932017
0.05203105344272829
0.053849013416200936
-0.004755533793310178
0.00634560710386953
-0.018786753650332392
0.002709519078183242
-0.02525713648815271
-0.03286218562816733
-0.005534086827980377
-0.03913465523630469
-0.014255140821698728
0.04658616902431002
0.016159468735061112
-0.04611807551522793
0.009757865786833264
-0.014846313139794677
0.00572804979424899
5.234798946400288E-4
0.039079617381850104
0.026528339156967243
-0.00647173494111857
0.028315334058391265
-0.006313366950829534
0.012520385226318943
0.0017246793463247423
0.05975651225259301
-0.03135975080056192
0.033419283046346164
-7.609741534705029E-4
0.05691280631412692
0.05886407149377943
-0.006837064573239781
0.039438400438329885
0.04368391120055702
-0.006378750587504449
0.05435600792637227
0.03812989739521636
0.0589619207936964
-0.021752330466601705
-0.030683545370303416
0.040274974833946306
-0.020886845008961593
0.04508426729969336
0.033353474812976236
0.03821381704173749
0.054736663725563045
-0.007619060705382972
-0.040174883676616785
-0.002765709196245634
0.026262733406866422
-0.03889409558617764
-0.024709734245109707
-0.02116484432004288
0.006120572096621822
0.04924382528807246
0.041778166634320636
-0.028444833326872303
0.04378457573130372
-6.497986722984809E-4
-3.8118064458091084E-4
-0.005553396137927923
0.021561936957142935
-0.005829352729018106
-0.010468774545983061
-0.015377099776464068
0.031810958729357214
-0.027465922507126667
0.04648349644728992
0.044537740632245026
-0.009925558567658742
-0.01818949112810517
-0.03004208283682933
0.02982331165693624
0.02586373619932269
-0.01244162621510808
-0.03062030669837448
-0.020729138997776234
-0.0189146176521425
-0.04585760734396295
0.05209807777910854
0.008020953060908949
-0.005765708310787402
-0.010825503232577435
-0.04386444652612373
0.012128779582581014
-0.02703133515551369
0.01666523924671386
0.01268772188028001
-0.03464528935645555
0.019388178657813414
-0.029118816012796325
-0.007663227054966767
-0.006270236211415967
0.03238006859834639
0.04168942786957021
0.0349905154784657
-0.004900055252043814
0.029335926522726655
-0.0032009841634871
7.046321843588972E-4
-0.02222321144495279
0.023894432092651616
-0.0017355032555336903
0.04667891872998071
-0.022969312414590718
1.3724757849162492E-4
-0.01585846460972096
0.027443129833944348
-0.006068870192665306
0.007738475456327996
-0.025197772549551613
-0.005983809560735415
-0.031021298649501775
-0.012548131556594582
-0.00789849625200158
0.049261731482682466
-0.037522569702560946
0.004574167854849651
-0.021689592912377483
-0.043687973653972624
-0.04033588682572742
-0.004168454666174126
0.015248017935656505
-0.04834078500962802
0.010960482032496588
-0.005067910050647786
-0.029480102216505256
0.06115175841538022
-0.004104887075583808
0.045295059153623606
-0.0022264055757894386
0.040126856990963876
0.05636293610426583
-0.026757243947725086
0.0525203897125112
-0.04103280141541285
0.02365634546416409
0.04787937636148502
-0.00382169199012462
0.018313975877714512
0.018526915291396738
0.04307190382817741
-0.001326196820640157
-0.030494529489862043
-0.034693478164986295
0.010562025398078913
0.05121838112359714
-0.03229011076839751
-0.023426337827146818
0.04104397467389057
-0.00562688437449275
-0.02580763264155426
-0.059975456441162624
0.026331756890598194
0.018305049868000037
0.01367624142958296
0.004473497002703698
0.012786615466025565
-0.03955388061043857
0.005927001558240881
0.02481815164967899
0.017643840916280018
0.00922523121890588
0.026654421312655517
-0.011525507728720016
0.011216057920646335
0.045357323436183684
0.058812282747073695
-0.02961133285321166
-0.004833230254590273
0.024277178193486817
-0.0422051614517821
7.234272309069986E-4
0.023215472589892112
0.011021065719000443
-0.014885383227991768
-0.038504101441879574
-0.0026859439686740105
-0.04314329864710144
-0.017610716477607914
0.01658637531831253
-0.039989256505374104
0.0020116679293649825
0.03145909151984185
0.04571137718831973
0.014408259232160806
-0.028334950158934735
-0.010973943577620632
-0.028242793319587373
0.03873420110906051
0.01330136326791597
-0.03329341066096916
-0.011686185048603153
0.02439388892284656
0.0032455239184653343
0.04524916491574987
-0.025986591250644394
0.011642923138887644
0.014577526764999973
0.013240129382335935
-0.016821283496543653
0.0038558312763269315
-0.03556841296708439
-0.029532994098273063
-0.013895445157670232
-0.04978126980813503
-0.03575423190210064
0.028642387226487896
-0.005156545736699673
-0.02780351314987829
0.018015078768168262
-0.037987114113993324
-0.03809488997749062
0.028910753917388485
-0.0036170966439913813
0.006007758802112933
-0.030576974721785964
0.01529865410384139
-0.026687547308673724
0.020820197537063295
0.0507580526025228
-0.0165883893934265
-0.007330753799502558
0.03548466667956635
-0.024386858153959856
0.035442684940100305
-0.04193230262517131
-0.0021986722278113857
-0.04246284052335332
0.04184586961783868
-0.018288399636982953
0.00247558710505098
-0.03341506423194131
0.0414462610921902
-0.03243087682105799
0.03711729128765932
0.019457399347172406
0.015087465235606801
0.040986321030106784
-0.038797132446131664
0.05081649702968067
0.04445587294614032
0.05367257602179094
-0.02722986336563346
9.527348820263377E-4
0.029516273502416895
0.017040452800973407
0.03709445962993463
0.02543772500353748
-0.018462772404805202
-0.0345215569139062
0.041602517849395455
0.016463253342513827
-0.03430529891765035
0.030488771921605942
0.03959312160556984
0.01629120896058026
0.02200180674289762
0.02812900731946444
0.0348289336234987
-0.030629381005025335
-0.0028403589307758517
-0.040729842080164516
0.034053252405447224
-0.018532136929909952
0.03295495794981662
-0.04110959053351032
-0.005191686441718569
-0.003221933673050245
0.003060591038112783
0.006692667594171262
-0.030456221112133586
0.026265369433900267
0.04929923036696148
0.052462106360795534
-0.04411771917541152
-0.03588669501419239
0.01786214212189398
-0.016322860205797558
-0.027522213622104563
0.03509442863140253
-0.03724613983175157
-0.033298966973303354
0.04014698889567654
0.05071032723317625
-0.03020817892781621
0.0062180722054833385
0.022567260820326573
0.023271196340959692
-0.017927517711252606
0.0019336683465695228
-0.014220435427147925
0.04002994803378058
0.017767172741690904
-0.026901675840729816
0.012084925538837974
0.035757932694315174
0.010046214945115216
-0.004768244964948444
0.00547373409064046
0.0033726929329918943
0.01544231872495655
-0.01439081836116634
0.0257413448625531
-0.006190274728090061
-0.026172674947009655
0.02207327586929908
0.045833046251502293
3.4510840047918687E-4
0.0033241492132024936
0.04060051556876703
0.01796807573830265
0.025230155890767453
0.0386482753966677
-0.028255145430654837
0.012711383993792744
0.04040790776954093
-0.008031266884748646
-0.03351364219257559
-0.04296857981654362
0.017736609223196913
-0.029045817976921014
-0.009990118760540227
-0.04383976508113561
-0.04118385703986289
-0.017624242439271093
-0.0356648486602102
0.014007951301568383
-0.040952394201275166
0.024027156099369357
0.045284468012735994
-0.028266444744704737
-0.0011765422708336056
0.034127026656931944
0.00955028970056544
0.006399441394541307
0.05328619074321593
-0.024077305293120674
-0.0266176296530765
-0.04387412928206588
0.03693148861233082
-0.010957806669501814
-0.034747433657995215
0.01920070905826625
-0.01639228873682324
-0.0041408700064039135
-0.03534241784853678
0.04483920132431536
0.013000399103862243
0.05235537857237567
0.016644335029828417
-0.028775782757847732
-0.007773538859166112
-0.0318644562627505
0.054217275937135836
0.0239480363458605
0.035678722737832964
0.04211424089491229
0.0051470448345845845
-0.03134188169302987
6.483235765780816E-4
0.023266061369175806
0.0357056713584568
0.010470949059522724
0.040502305028677674
-0.03314988046675889
-0.001798875890588036
-0.038542104159230865
-0.041647163962962655
0.019117657858523675
-0.028987490911978973
-0.04239166678696646
-0.020949719938602892
-0.040773849821115524
0.047141998356436836
0.04732994221553463
0.027495555311047148
-0.011623667897713196
0.038481075602038145
0.0470454090774105
-0.017120431059354988
0.02705693368823421
-4.550757272088712E-4
-0.001444000603022021
0.023837368098220905
0.04013510778810912
0.006036534024499547
-0.009439009947444834
0.007761110733674248
-0.04684423782998424
0.04003450605113424
0.033438353769532865
0.02961684346591313
0.007157150503552361
-0.023712097212861452
0.02426136966905795
0.03257721560793689
0.036083651439865395
0.03932254365049249
0.04361310520044669
-0.0068541411897898126
0.047256127057624796
-0.009561748490367051
0.027453452491467932
-0.027797797839644985
-0.0029018838350278226
-0.010733022352700385
0.02436773848211495
0.04288750281620387
0.02385141539169983
-0.03581725296589219
-0.02277961630556095
0.028518249114842985
-0.04385397481354479
0.016592705744732497
-0.024154564736163408
-0.020344071768275768
0.0034684965699641325
0.044119596887638134
-0.031881413763508365
0.019343151250601598
0.02189919172062511
0.03013075919581914
0.032004020969107365
0.010205216522148536
0.03299677148364636
-0.03450862940741707
0.0026462841243402872
-0.008466971819073401
-0.006415161559460695
-0.036817734400847665
-0.04122482291325611
-0.011218644656253357
0.04771571302734862
0.022132677965643555
0.038608210811046664
0.0299086742541996
-0.03220024983405711
-0.0338934004974869
0.00571659755481495
0.043862228236984616
0.04264442135350697
0.00792820391009468
-0.020717794262770085
0.02740352404898748
0.05129520384622209
-0.009159805380210499
-0.02863899846101101
0.026001807609699657
0.023520673737660223
-1.6005213053451976E-4
0.027134718621834863
0.052812531832768204
-0.03701004417082352
-0.008668546789666618
0.02261115020791532
-0.026126784951872692
0.015063660251641875
0.02144251292943029
0.022394255206009447
0.015355365577877013
-0.03400940084082861
0.04152026363030967
0.005920980013158936
0.0018072525363368116
-0.03322673875394946
0.03722665227564483
-0.024059634278457163
0.037272719875717335
-0.01771660231625254
0.04319759685212367
0.01686794381713163
0.045635367625357755
-6.191989103383405E-4
0.015548845341719474
0.009607552967362138
0.04654598787445152
0.033660324901512294
-0.009552916162930943
-0.002334302344106662
0.042915869458501565
0.014893442481666191
0.02430012901050891
0.036446457475640466
-0.04653553123852806
-0.018661249716522166
0.05328034580794506
-0.004645134076209063
-0.04008766732530994
0.016063806025966427
0.05149936677884741
0.04838464969941847
-0.011864985020973466
-0.04526071954556167
0.008986876973145423
-0.02235066709022766
-0.015523783031902615
0.0014608041197756937
0.03713537841545307
0.007963551568989041
-0.03387070017049886
-0.019684992704223553
-0.007313677696832534
-0.028766335128464875
-0.05769716568874737
-0.027009495504217742
-0.034762098195680914
-0.050093314325931206
0.016891721017520827
-0.025628550422477282
-0.05123101108302436
-0.010336794533890052
0.02109882936477307
-0.012869676399901565
-0.02594813032399289
0.004096298740383774
0.015242512691840437
-0.05287366338084091
0.015161674988869367
0.017512309381860477
-0.027682218943385423
0.02806413407439445
-0.008663416382220781
0.0036631595416042727
0.0015208964822268844
-0.05452444704176448
-0.053705041091830455
0.033189594871755206
0.04058839764305753
0.01493106528782397
0.0170631648974099
0.03277928433418686
-0.047432873436291496
-2.176354137034919E-4
0.04649335331938729
0.028621672478934393
-0.03337893426337091
0.03403541253199889
0.013144707173252945
0.046104477477588245
0.04235766087973506
0.009060583358427254
0.025453763780434895
-0.037351253334008266
0.02464465409939186
0.029288173741598224
0.035212723942033286
-0.05146044186359143
0.01067777139256267
0.004733546220272815
-0.0387900521543142
-0.05631594175975639
-0.015109620035804421
0.033379414693249905
-0.020785829048495765
-0.007025771107099667
0.013684474789001078
-0.017358392738336247
-0.03857609439294384
0.014188304867439022
0.027231519764263374
0.0462984033498449
-0.0018575984429101387
-0.04180312529339504
0.00109317909316505
-0.018173998793620087
0.0326270203826505
-0.052597290444822906
0.02962197191454612
-0.026372079565474247
0.0127389721362948
-0.03363757555685225
-9.208766279494181E-4
0.04166031341116427
0.023820176560127405
-0.0375284591406295
-0.04568904640870248
-0.04389863035099987
0.04079510840508813
-0.03927654668991842
0.009527442344883499
-0.01744761885496682
-0.005817924334214512
-0.024623423955466486
0.047366834796528375
0.020919443268330673
-0.03912309047671776
0.004368155557960761
-0.040822958826832505
0.002029429424660743
0.022375381458605747
0.02171136442328903
0.008592657267218926
-0.036530520227228955
-0.015843061182801235
-0.028951860304981064
0.008558140219655232
-0.04090159697077542
0.04263362319128732
-0.006145866070864058
-0.0064097496232673554
-0.018396909741798778
-0.011080695732634916
0.048512444412369474
0.04418388346137117
-0.019807006085085684
-0.02228403663197792
-0.007271552267682572
0.03393890501081515
-0.03343006985379779
-0.04439792083854703
0.01973451800357629
0.0207602777019567
0.03872007038425112
0.01596553560951927
0.050159720323820524
0.02313394031821005
-0.019862807150438914
0.01888090702581854
0.0524384653040046
0.011288952150118799
0.017008345198827365
-0.015375247126091287
-0.04320560678336107
0.049789709132323945
-0.02554097502904295
-0.01347361284861164
0.026698693558193428
-0.04740786645973111
0.009271604737428588
0.01331534152195538
-0.04374648861392639
-0.0072249872908165735
-0.006776464207977355
-0.04848936405713438
-0.025100725873809723
-0.01227646345484464
0.014592228706591952
-0.008434247622713588
-0.04170111728564894
0.04028673238978489
-0.03267325258747061
0.05026085861230112
-0.03147182999267233
0.03375753304832256
0.009835001960880168
-0.005340966948560433
-0.03090477451451948
-0.0426233199419733
0.007366864541142541
0.03516782206807459
0.04567840394330091
0.027123003772830237
0.026525321877363204
-0.021255126115381714
0.012087326670266673
-0.017974639681840734
0.05770807585186159
-0.005429667825349751
0.02396177430744828
0.022905520498774763
-0.012765132507126882
-0.009893141928579883
0.048721884740683924
-0.03281138873565053
0.01100576135070185
-0.012289281947627802
0.04615483408823306
-0.04776663926454132
-0.021876537506165344
-0.0367773131414172
-0.024114632330642302
0.012427268911873186
-0.014483923300109164
0.013491482227695924
0.05099756671784649
-0.034796584608394895
-0.017417591495026623
-0.02393529562209133
-0.00912775996253945
0.02795846272469615
0.0500135136682966
0.0299334476983852
-0.01193700591456393
0.03737217013342973
0.021054606205962275
-0.0036158836531493856
-0.029324545988307502
0.022416566609258722
0.038268827740665166
-0.0174292873170221
0.03122321188654521
0.01759081251134171
0.018746751361903843
0.04750029770546282
-0.03987897192823827
0.013643527078694146
0.02641611670866895
0.01584791038281868
0.0012181761841564781
0.023005603519769317
0.05110915579205783
0.0131361176677498
0.031677637309724775
0.03416488317612962
-0.009377564007422628
-0.03540794157435009
-0.010192637679701666
-0.049810475420397654
-0.04678761317835478
0.001754876647163107
0.02933975524514642
0.001071011089953561
-0.04034422220926573
0.0249306353573624
0.04520386314705635
-0.030329534974208754
0.051380334187891265
-0.04265182658310608
-0.02046984467549587
0.01922004468282033
0.00829769137090173
0.036160885830197824
0.006698808242071374
0.014554926963150458
-0.031609855630593875
-0.015365875757654428
-0.03769218004380847
0.03053345459067929
0.010416668480178968
0.04969402975504114
-0.0105267464628321
0.010410711620531107
-0.04528840786314828
0.0035854832435454577
0.0311853842132036
-0.009481610034980804
-0.007825785057265831
0.0063729180552913964
0.046813393530708715
-0.018132448412806326
0.0027295893205480227
-0.049359894167632194
0.03137774396121015
0.013907439634642044
0.014318938001214478
-0.015748015427280805
-0.0250290713998641
-0.024636604852523638
-0.011331615620995971
0.04324817554572888
0.001070509340608817
-0.03556439011627403
0.027083077439931682
0.04490135596048416
-0.020165966340054964
0.0382739501053652
-0.03732367969978453
-0.009907557435739456
-0.01940677113232159
